{"learner":{"attributes":{"scikit_learn":"{\"_estimator_type\": \"classifier\"}"},"feature_names":[],"feature_types":[],"gradient_booster":{"model":{"gbtree_model_param":{"num_parallel_tree":"1","num_trees":"300"},"iteration_indptr":[0,3,6,9,12,15,18,21,24,27,30,33,36,39,42,45,48,51,54,57,60,63,66,69,72,75,78,81,84,87,90,93,96,99,102,105,108,111,114,117,120,123,126,129,132,135,138,141,144,147,150,153,156,159,162,165,168,171,174,177,180,183,186,189,192,195,198,201,204,207,210,213,216,219,222,225,228,231,234,237,240,243,246,249,252,255,258,261,264,267,270,273,276,279,282,285,288,291,294,297,300],"tree_info":[0,1,2,0,1,2,0,1,2,0,1,2,0,1,2,0,1,2,0,1,2,0,1,2,0,1,2,0,1,2,0,1,2,0,1,2,0,1,2,0,1,2,0,1,2,0,1,2,0,1,2,0,1,2,0,1,2,0,1,2,0,1,2,0,1,2,0,1,2,0,1,2,0,1,2,0,1,2,0,1,2,0,1,2,0,1,2,0,1,2,0,1,2,0,1,2,0,1,2,0,1,2,0,1,2,0,1,2,0,1,2,0,1,2,0,1,2,0,1,2,0,1,2,0,1,2,0,1,2,0,1,2,0,1,2,0,1,2,0,1,2,0,1,2,0,1,2,0,1,2,0,1,2,0,1,2,0,1,2,0,1,2,0,1,2,0,1,2,0,1,2,0,1,2,0,1,2,0,1,2,0,1,2,0,1,2,0,1,2,0,1,2,0,1,2,0,1,2,0,1,2,0,1,2,0,1,2,0,1,2,0,1,2,0,1,2,0,1,2,0,1,2,0,1,2,0,1,2,0,1,2,0,1,2,0,1,2,0,1,2,0,1,2,0,1,2,0,1,2,0,1,2,0,1,2,0,1,2,0,1,2,0,1,2,0,1,2,0,1,2,0,1,2,0,1,2,0,1,2,0,1,2,0,1,2,0,1,2,0,1,2,0,1,2,0,1,2,0,1,2],"trees":[{"base_weights":[2.9840752E-1,-2.0537902E-1,3.5011438E-1,2.4896223E-2,-5.0847465E-1,6.720686E-1,2.3228478E-1,4.817518E-1,-5.309735E-1,-6.4968157E-1,4.137931E-3,5.376344E-1,1.1538461E0,6.2396E-1,1.2907428E-1,8.1176466E-1,-4.9180366E-2,-6.831683E-3,4.285714E-3,-7.0344834E-3,-2.5544847E-10,6.718973E-1,-1.4482763E-1,1.2585366E0,-1.2000003E-3,-6.52174E-3,7.7634007E-1,7.2055385E-2,9.724138E-1,1.0344825E-3,1.0153846E0,-4.2857146E-1,8.571428E-3,1.2885906E0,4.9732617E-1,-2.9323313E-1,8.571428E-3,4.137931E-3,1.3297297E0,1.1968912E0,5.2941173E-1,-4.626778E-2,4.1772148E-1,-2.727273E-1,1.2396694E0,-2.5544847E-10,1.245283E-2,-5.675676E-3,-2.5544847E-10,1.4014598E-2,-2.5544847E-10,-3.092784E-3,6.532769E-3,-6.6666673E-3,2.459016E-3,1.3699422E-2,4.285714E-3,-2.5544847E-10,1.2762431E-2,-2.6966296E-3,7.68953E-3,-8.538904E-4,1.2244898E-2,1.7380349E-3,9.818181E-3,-4.2857146E-3,-2.5544847E-10,1.3761467E-2,-2.5544847E-10],"categories":[],"categories_nodes":[],"categories_segments":[],"categories_sizes":[],"default_left":[0,0,0,0,0,0,0,0,0,0,0,0,0,0,0,0,0,0,0,0,0,0,0,0,0,0,0,0,0,0,0,0,0,0,0,0,0,0,0,0,0,0,0,0,0,0,0,0,0,0,0,0,0,0,0,0,0,0,0,0,0,0,0,0,0,0,0,0,0],"id":0,"left_children":[1,3,5,7,9,11,13,15,17,19,-1,21,23,25,27,29,31,-1,-1,-1,-1,33,35,37,-1,-1,39,41,43,-1,45,47,-1,49,51,53,-1,-1,55,57,59,61,63,65,67,-1,-1,-1,-1,-1,-1,-1,-1,-1,-1,-1,-1,-1,-1,-1,-1,-1,-1,-1,-1,-1,-1,-1,-1],"loss_changes":[1.2613155E1,3.1844726E0,1.6421795E1,7.056072E0,2.8300366E0,6.9286575E0,1.29138565E1,2.7070765E0,2.1263723E0,6.093559E-1,0E0,8.618835E0,3.4257393E0,1.3491741E1,1.2223991E1,1.2571073E0,2.6978924E0,0E0,0E0,0E0,0E0,7.744419E0,2.6470315E0,8.1962585E-1,0E0,0E0,5.60865E0,9.858122E0,5.699403E0,0E0,1.6859221E0,3.2432437E-1,0E0,2.4078789E0,8.042991E0,3.1391592E0,0E0,0E0,1.5776443E-1,2.0366974E0,7.800009E0,9.058536E0,8.283702E0,1.5584415E-1,2.274622E0,0E0,0E0,0E0,0E0,0E0,0E0,0E0,0E0,0E0,0E0,0E0,0E0,0E0,0E0,0E0,0E0,0E0,0E0,0E0,0E0,0E0,0E0,0E0,0E0],"parents":[2147483647,0,0,1,1,2,2,3,3,4,4,5,5,6,6,7,7,8,8,9,9,11,11,12,12,13,13,14,14,15,15,16,16,21,21,22,22,23,23,26,26,27,27,28,28,30,30,31,31,33,33,34,34,35,35,38,38,39,39,40,40,41,41,42,42,43,43,44,44],"right_children":[2,4,6,8,10,12,14,16,18,20,-1,22,24,26,28,30,32,-1,-1,-1,-1,34,36,38,-1,-1,40,42,44,-1,46,48,-1,50,52,54,-1,-1,56,58,60,62,64,66,68,-1,-1,-1,-1,-1,-1,-1,-1,-1,-1,-1,-1,-1,-1,-1,-1,-1,-1,-1,-1,-1,-1,-1,-1],"split_conditions":[-1.2388622E0,-2.3678686E-1,-6.2124777E-1,3.7447384E-1,-1.2656024E0,-6.1307997E-1,-8.937883E-1,8.717478E-2,1.1763846E0,5.098333E-3,4.137931E-3,1.3259295E0,1.5831122E-1,-1.2872506E0,2.4937787E0,-9.34475E-1,-1.3340856E0,-6.831683E-3,4.285714E-3,-7.0344834E-3,-2.5544847E-10,-1.318518E0,-7.322456E-2,-2.0519326E0,-1.2000003E-3,-6.52174E-3,4.133417E-1,1.0099832E0,-1.6972914E-1,1.0344825E-3,-1.5450028E0,7.72369E-2,8.571428E-3,-7.010776E-1,-7.892455E-1,-4.7768304E-1,8.571428E-3,4.137931E-3,5.862772E0,-9.552012E-2,4.5809552E-1,1.829964E0,5.390982E-1,4.851006E0,1.0768117E-1,-2.5544847E-10,1.245283E-2,-5.675676E-3,-2.5544847E-10,1.4014598E-2,-2.5544847E-10,-3.092784E-3,6.532769E-3,-6.6666673E-3,2.459016E-3,1.3699422E-2,4.285714E-3,-2.5544847E-10,1.2762431E-2,-2.6966296E-3,7.68953E-3,-8.538904E-4,1.2244898E-2,1.7380349E-3,9.818181E-3,-4.2857146E-3,-2.5544847E-10,1.3761467E-2,-2.5544847E-10],"split_indices":[37,79,85,72,67,62,73,88,88,49,0,73,36,35,84,73,36,0,0,0,0,85,41,47,0,0,57,35,33,0,46,35,0,37,74,77,0,0,17,77,69,38,46,25,33,0,0,0,0,0,0,0,0,0,0,0,0,0,0,0,0,0,0,0,0,0,0,0,0],"split_type":[0,0,0,0,0,0,0,0,0,0,0,0,0,0,0,0,0,0,0,0,0,0,0,0,0,0,0,0,0,0,0,0,0,0,0,0,0,0,0,0,0,0,0,0,0,0,0,0,0,0,0,0,0,0,0,0,0,0,0,0,0,0,0,0,0,0,0,0,0],"sum_hessian":[4.8044443E2,4.4444443E1,4.3599997E2,2.5777777E1,1.8666666E1,1.1555555E2,3.2044443E2,1.4222221E1,1.1555555E1,1.6444443E1,2.222222E0,9.199999E1,2.3555553E1,6.577777E1,2.5466666E2,8.444444E0,5.7777777E0,1.0222221E1,1.3333333E0,1.5111111E1,1.3333333E0,7.6888885E1,1.5111111E1,2.1777777E1,1.7777777E0,6.666666E0,5.9111107E1,2.3955554E2,1.5111111E1,2.222222E0,6.222222E0,4.444444E0,1.3333333E0,1.5555554E1,6.133333E1,1.3777777E1,1.3333333E0,2.222222E0,1.9555553E1,2.0444443E1,3.8666664E1,1.791111E2,6.0444443E1,2.6666665E0,1.2444444E1,1.3333333E0,4.8888884E0,3.111111E0,1.3333333E0,1.4222221E1,1.3333333E0,9.777777E0,5.1555553E1,7.9999995E0,5.7777777E0,1.8222221E1,1.3333333E0,1.3333333E0,1.911111E1,8.888888E0,2.9777777E1,1.7466666E2,4.444444E0,4.3111107E1,1.7333332E1,1.3333333E0,1.3333333E0,1.1111111E1,1.3333333E0],"tree_param":{"num_deleted":"0","num_feature":"102","num_nodes":"69","size_leaf_vector":"1"}},{"base_weights":[-6.113126E-1,-6.148797E-1,-3.2511625E-8,-6.196698E-1,-2.3076928E-1,-4.2857146E-3,4.285714E-3,-3.3600006E-1,-6.2725204E-1,4.285714E-3,-4.5283023E-1,4.285714E-3,-4.5132747E-1,-6.424379E-1,-4.66488E-1,-5.853659E-3,-2.5544847E-10,-6.705883E-3,1.6216213E-1,-4.584718E-1,-6.575343E-1,2.926829E-1,-5.454546E-1,-4.8E-3,8.571428E-3,2.3999996E-3,-5.052632E-3,-7.0259683E-3,-5.794095E-3,7.241379E-3,-4.2857146E-3,-1.1111115E-3,-6.579926E-3],"categories":[],"categories_nodes":[],"categories_segments":[],"categories_sizes":[],"default_left":[0,0,0,0,0,0,0,0,0,0,0,0,0,0,0,0,0,0,0,0,0,0,0,0,0,0,0,0,0,0,0,0,0],"id":1,"left_children":[1,3,5,7,9,-1,-1,11,13,-1,15,-1,17,19,21,-1,-1,-1,23,25,27,29,31,-1,-1,-1,-1,-1,-1,-1,-1,-1,-1],"loss_changes":[1.0023499E0,6.9784546E-1,8.5714287E-1,7.5878906E-1,1.2515032E0,0E0,0E0,1.4180936E0,7.6934814E-1,0E0,3.5342836E-1,0E0,1.7976449E0,8.0233765E-1,2.6442041E0,0E0,0E0,0E0,2.2461777E0,1.2143106E0,8.778839E-1,1.7279828E0,1.7789049E0,0E0,0E0,0E0,0E0,0E0,0E0,0E0,0E0,0E0,0E0],"parents":[2147483647,0,0,1,1,2,2,3,3,4,4,7,7,8,8,10,10,12,12,13,13,14,14,18,18,19,19,20,20,21,21,22,22],"right_children":[2,4,6,8,10,-1,-1,12,14,-1,16,-1,18,20,22,-1,-1,-1,24,26,28,30,32,-1,-1,-1,-1,-1,-1,-1,-1,-1,-1],"split_conditions":[2.949016E0,8.891154E0,-1.66291E-1,-1.7039374E-1,-1.6933207E-1,-4.2857146E-3,4.285714E-3,-1.0992837E0,1.2943469E0,4.285714E-3,1.9871582E-1,4.285714E-3,5.7170796E-1,-1.5713938E0,4.0785724E-1,-5.853659E-3,-2.5544847E-10,-6.705883E-3,9.8111194E-1,3.5085484E-2,3.5182628E-1,6.374754E-2,-8.5816944E-1,-4.8E-3,8.571428E-3,2.3999996E-3,-5.052632E-3,-7.0259683E-3,-5.794095E-3,7.241379E-3,-4.2857146E-3,-1.1111115E-3,-6.579926E-3],"split_indices":[75,100,33,33,33,0,0,36,70,0,36,0,49,40,71,0,0,0,90,79,40,38,52,0,0,0,0,0,0,0,0,0,0],"split_type":[0,0,0,0,0,0,0,0,0,0,0,0,0,0,0,0,0,0,0,0,0,0,0,0,0,0,0,0,0,0,0,0,0],"sum_hessian":[4.5866663E2,4.5599997E2,2.6666665E0,4.4977774E2,6.222222E0,1.3333333E0,1.3333333E0,1.2888888E1,4.3688885E2,1.3333333E0,4.8888884E0,1.3333333E0,1.1555555E1,3.9644443E2,4.0444443E1,3.5555553E0,1.3333333E0,8.444444E0,3.111111E0,3.2444443E1,3.6399997E2,3.5555553E0,3.6888885E1,1.7777777E0,1.3333333E0,1.7777777E0,3.0666664E1,2.2577777E2,1.3822221E2,2.222222E0,1.3333333E0,7.9999995E0,2.8888887E1],"tree_param":{"num_deleted":"0","num_feature":"102","num_nodes":"33","size_leaf_vector":"1"}},{"base_weights":[3.4601992E-1,7.613793E-1,2.6134145E-1,8.8923556E-1,-1.9354843E-1,3.420787E-1,-1.24006405E-1,4.8387092E-1,1.073903E0,-4.444445E-1,8.571428E-3,3.88388E-1,-2.870814E-1,1E-2,-2.0741995E-1,1.2110091E0,-2.3076928E-1,1.1258907E0,-4.2857146E-3,2.3999996E-3,-6.4615393E-3,2.8092134E-1,6.573248E-1,-5.028902E-1,5.9999996E-1,9.512194E-3,-2.887701E-1,2.3999996E-3,1.3548387E-2,8.571428E-3,-4.285715E-1,1.1777778E0,-1.2000003E-3,-3.9884397E-1,3.4369883E-1,1.0268948E0,2.493506E-1,4.285714E-3,-5.9627336E-1,1.0344825E-3,9.5999995E-3,-4.2299354E-1,3.0275226E-1,-5.7303375E-3,2.3999996E-3,1.6216212E-3,1.2493368E-2,-6.1983475E-3,9.836062E-4,1.6799996E-3,6.150627E-3,1.0992366E-2,-4.8E-3,1.3150685E-2,-4.3450119E-10,-2.5544847E-10,-6.4429534E-3,-5.267176E-3,1.5584412E-3,-4.2857146E-3,7.826087E-3],"categories":[],"categories_nodes":[],"categories_segments":[],"categories_sizes":[],"default_left":[0,0,0,0,0,0,0,0,0,0,0,0,0,0,0,0,0,0,0,0,0,0,0,0,0,0,0,0,0,0,0,0,0,0,0,0,0,0,0,0,0,0,0,0,0,0,0,0,0,0,0,0,0,0,0,0,0,0,0,0,0],"id":2,"left_children":[1,3,5,7,9,11,13,15,17,19,-1,21,23,-1,25,27,29,31,-1,-1,-1,33,35,37,39,-1,41,-1,-1,-1,43,45,-1,47,49,51,53,-1,55,-1,-1,57,59,-1,-1,-1,-1,-1,-1,-1,-1,-1,-1,-1,-1,-1,-1,-1,-1,-1,-1],"loss_changes":[1.6640587E1,1.0007416E1,1.2462986E1,4.811901E0,3.1049666E0,9.736084E0,6.7600164E0,1.2808615E1,4.24049E0,1.3976067E0,0E0,8.720287E0,4.7473965E0,0E0,6.485073E0,1.366272E0,3.1648352E0,3.1653137E0,0E0,0E0,0E0,9.605957E0,1.2894875E1,1.9275479E0,7.944828E-1,0E0,5.0770903E0,0E0,0E0,0E0,1.2643337E0,3.0678482E0,0E0,2.1730595E0,9.607155E0,5.4816017E0,1.1367657E1,0E0,5.122342E-1,0E0,0E0,3.1574364E0,4.585561E0,0E0,0E0,0E0,0E0,0E0,0E0,0E0,0E0,0E0,0E0,0E0,0E0,0E0,0E0,0E0,0E0,0E0,0E0],"parents":[2147483647,0,0,1,1,2,2,3,3,4,4,5,5,6,6,7,7,8,8,9,9,11,11,12,12,14,14,15,15,16,16,17,17,21,21,22,22,23,23,24,24,26,26,30,30,31,31,33,33,34,34,35,35,36,36,38,38,41,41,42,42],"right_children":[2,4,6,8,10,12,14,16,18,20,-1,22,24,-1,26,28,30,32,-1,-1,-1,34,36,38,40,-1,42,-1,-1,-1,44,46,-1,48,50,52,54,-1,56,-1,-1,58,60,-1,-1,-1,-1,-1,-1,-1,-1,-1,-1,-1,-1,-1,-1,-1,-1,-1,-1],"split_conditions":[-1.2951319E0,8.436606E-1,8.3208644E-1,-5.8083194E-1,2.504517E-2,2.042692E0,-1.3928368E0,-1.3040257E0,2.6351335E-2,-2.82997E-1,8.571428E-3,3.9906317E-1,1.5221721E0,1E-2,-9.729117E-1,-1.0073966E0,-1.0629212E0,9.3315125E-1,-4.2857146E-3,2.3999996E-3,-6.4615393E-3,-1.6183187E-1,4.955223E-2,1.2055603E0,1.3030707E0,9.512194E-3,-3.5759706E-2,2.3999996E-3,1.3548387E-2,8.571428E-3,-6.557377E-1,-1.5125802E0,-1.2000003E-3,-6.072828E-3,6.435919E-1,1.6167825E0,-7.61465E-1,4.285714E-3,-8.3587575E-1,1.0344825E-3,9.5999995E-3,1.1170703E0,-6.3976896E-1,-5.7303375E-3,2.3999996E-3,1.6216212E-3,1.2493368E-2,-6.1983475E-3,9.836062E-4,1.6799996E-3,6.150627E-3,1.0992366E-2,-4.8E-3,1.3150685E-2,-4.3450119E-10,-2.5544847E-10,-6.4429534E-3,-5.267176E-3,1.5584412E-3,-4.2857146E-3,7.826087E-3],"split_indices":[35,41,70,57,88,84,52,65,67,34,0,85,79,0,88,79,71,57,0,0,0,32,74,46,88,0,73,0,0,0,57,79,0,85,79,38,86,0,78,0,0,85,85,0,0,0,0,0,0,0,0,0,0,0,0,0,0,0,0,0,0],"split_type":[0,0,0,0,0,0,0,0,0,0,0,0,0,0,0,0,0,0,0,0,0,0,0,0,0,0,0,0,0,0,0,0,0,0,0,0,0,0,0,0,0,0,0,0,0,0,0,0,0,0,0,0,0,0,0,0,0,0,0,0,0],"sum_hessian":[4.7777774E2,7.955555E1,3.982222E2,7.022222E1,9.333333E0,3.293333E2,6.8888885E1,2.311111E1,4.7111107E1,7.9999995E0,1.3333333E0,3.0711108E2,2.2222221E1,3.9999998E0,6.4888885E1,1.1111111E1,1.1999999E1,4.5777775E1,1.3333333E0,1.7777777E0,6.222222E0,2.2088887E2,8.622221E1,1.8222221E1,3.9999998E0,3.5555553E0,6.133333E1,1.7777777E0,9.333333E0,1.3333333E0,1.0666666E1,4.3999996E1,1.7777777E0,1.8222221E1,2.0266666E2,4.4444443E1,4.1777775E1,1.3333333E0,1.6888887E1,2.222222E0,1.7777777E0,5.0222218E1,1.1111111E1,8.888888E0,1.7777777E0,3.111111E0,4.0888885E1,1.2444444E1,5.7777777E0,1.2399999E2,7.8666664E1,4.2666664E1,1.7777777E0,7.1111107E0,3.4666664E1,1.3333333E0,1.5555554E1,4.2666664E1,7.5555553E0,4.444444E0,6.666666E0],"tree_param":{"num_deleted":"0","num_feature":"102","num_nodes":"61","size_leaf_vector":"1"}},{"base_weights":[2.3020898E-1,1.6637497E-1,5.711976E-1,6.753198E-1,1.1830005E-1,-3.6867347E-1,6.6101146E-1,-5.3327775E-1,1.003805E0,-1.9345506E-1,2.3486136E-1,-6.116206E-3,2.3982304E-3,-5.8340346E-3,7.3712593E-1,1.2662341E-5,-6.385618E-3,-7.819539E-4,1.1731069E0,6.915174E-2,-4.1298923E-1,-2.5055265E-1,3.0185023E-1,9.636448E-1,1.783264E-1,-5.4525807E-3,8.537357E-3,1.2706993E0,4.0011317E-1,-3.9404613E-1,5.46283E-1,3.0731204E-1,-4.8144558E-1,8.507059E-1,-4.490768E-1,1.0249845E0,2.0065734E-1,1.0919569E0,2.6902503E-1,-3.5432622E-1,5.934612E-1,2.3912739E-3,1.3553643E-2,-4.2917365E-3,9.510714E-3,-6.4719077E-3,1.5471111E-3,7.936948E-3,-4.2884722E-3,-4.7890274E-3,8.1855655E-3,-5.919269E-3,6.935687E-4,-1.8899844E-5,1.1274876E-2,4.0306034E-3,-5.671382E-3,-3.2523866E-3,1.19926045E-2,4.0945323E-4,4.77365E-3,5.1755286E-3,1.1950274E-2,9.458332E-3,-4.017338E-3,2.694387E-3,-6.399272E-3,-4.813443E-3,8.349594E-3],"categories":[],"categories_nodes":[],"categories_segments":[],"categories_sizes":[],"default_left":[0,0,0,0,0,0,0,0,0,0,0,0,0,0,0,0,0,0,0,0,0,0,0,0,0,0,0,0,0,0,0,0,0,0,0,0,0,0,0,0,0,0,0,0,0,0,0,0,0,0,0,0,0,0,0,0,0,0,0,0,0,0,0,0,0,0,0,0,0],"id":3,"left_children":[1,3,5,7,9,11,13,15,17,19,21,-1,-1,-1,23,-1,-1,25,27,29,31,33,35,37,39,-1,-1,41,43,45,47,49,51,53,55,57,59,61,63,65,67,-1,-1,-1,-1,-1,-1,-1,-1,-1,-1,-1,-1,-1,-1,-1,-1,-1,-1,-1,-1,-1,-1,-1,-1,-1,-1,-1,-1],"loss_changes":[1.0369591E1,9.862855E0,6.6082764E0,1.43749485E1,1.358177E1,1.2138076E0,6.9825535E0,4.5683002E-1,4.7218037E0,5.9044485E0,8.90683E0,0E0,0E0,0E0,8.13596E0,0E0,0E0,2.7930148E0,1.2835808E0,1.0661042E1,2.8923454E0,7.7018576E0,1.7290977E1,3.8484688E0,4.667791E0,0E0,0E0,1.4778633E0,2.2917392E0,3.5123582E0,6.0584965E0,2.5789447E0,3.1577168E0,1.2904246E0,3.148304E0,7.239603E0,9.305068E0,1.6846542E0,4.272047E0,1.8569311E0,3.4395413E0,0E0,0E0,0E0,0E0,0E0,0E0,0E0,0E0,0E0,0E0,0E0,0E0,0E0,0E0,0E0,0E0,0E0,0E0,0E0,0E0,0E0,0E0,0E0,0E0,0E0,0E0,0E0,0E0],"parents":[2147483647,0,0,1,1,2,2,3,3,4,4,5,5,6,6,7,7,8,8,9,9,10,10,14,14,17,17,18,18,19,19,20,20,21,21,22,22,23,23,24,24,27,27,28,28,29,29,30,30,31,31,32,32,33,33,34,34,35,35,36,36,37,37,38,38,39,39,40,40],"right_children":[2,4,6,8,10,12,14,16,18,20,22,-1,-1,-1,24,-1,-1,26,28,30,32,34,36,38,40,-1,-1,42,44,46,48,50,52,54,56,58,60,62,64,66,68,-1,-1,-1,-1,-1,-1,-1,-1,-1,-1,-1,-1,-1,-1,-1,-1,-1,-1,-1,-1,-1,-1,-1,-1,-1,-1,-1,-1],"split_conditions":[8.8645446E-1,-1.2889183E0,-1.478147E0,-1.5088879E0,-7.560364E-1,7.4470246E-1,-1.4324032E0,-1.6573834E0,-1.7329897E0,-8.0699E-1,-7.0752347E-1,-6.116206E-3,2.3982304E-3,-5.8340346E-3,9.696305E-1,1.2662341E-5,-6.385618E-3,2.7209034E0,-7.3351365E-1,-1.1320888E0,-1.0303146E0,-1.5268041E0,-6.2124777E-1,3.2849197E0,1.2030815E0,-5.4525807E-3,8.537357E-3,-1.727183E0,-2.233477E-1,-1.3536639E0,1.3778946E0,-5.080876E-1,1.0284402E0,-1.5375286E0,-2.1086795E0,-8.7869984E-1,5.824233E-1,-1.2005227E0,-5.1878494E-1,-1.3768187E0,2.7446538E-1,2.3912739E-3,1.3553643E-2,-4.2917365E-3,9.510714E-3,-6.4719077E-3,1.5471111E-3,7.936948E-3,-4.2884722E-3,-4.7890274E-3,8.1855655E-3,-5.919269E-3,6.935687E-4,-1.8899844E-5,1.1274876E-2,4.0306034E-3,-5.671382E-3,-3.2523866E-3,1.19926045E-2,4.0945323E-4,4.77365E-3,5.1755286E-3,1.1950274E-2,9.458332E-3,-4.017338E-3,2.694387E-3,-6.399272E-3,-4.813443E-3,8.349594E-3],"split_indices":[70,85,48,62,35,40,52,38,50,52,81,0,0,0,84,0,0,21,66,52,74,74,85,22,81,0,0,77,39,48,79,51,39,37,57,74,82,35,85,79,77,0,0,0,0,0,0,0,0,0,0,0,0,0,0,0,0,0,0,0,0,0,0,0,0,0,0,0,0],"split_type":[0,0,0,0,0,0,0,0,0,0,0,0,0,0,0,0,0,0,0,0,0,0,0,0,0,0,0,0,0,0,0,0,0,0,0,0,0,0,0,0,0,0,0,0,0,0,0,0,0,0,0,0,0,0,0,0,0,0,0,0,0,0,0,0,0,0,0,0,0],"sum_hessian":[4.797635E2,4.053658E2,7.439768E1,3.3859985E1,3.7150583E2,6.218488E0,6.817919E1,7.102879E0,2.6757107E1,1.0092144E2,2.7058438E2,4.4404635E0,1.7780249E0,3.545649E0,6.4633545E1,1.3313535E0,5.771526E0,4.0025496E0,2.2754557E1,4.6264656E1,5.4656784E1,3.248097E1,2.3810341E2,4.5474995E1,1.915855E1,2.665851E0,1.3366988E0,1.9632092E1,3.122466E0,2.3563452E1,2.2701206E1,4.4408417E0,5.0215942E1,4.4592648E0,2.8021706E1,2.8108482E1,2.0999493E2,3.7901672E1,7.57332E0,8.455683E0,1.07028675E1,1.7791426E0,1.785295E1,1.334642E0,1.7878242E0,1.6002184E1,7.5612693E0,1.825546E1,4.4457445E0,1.7747747E0,2.6660671E0,4.1764126E1,8.451815E0,1.3362533E0,3.1230114E0,3.1161478E0,2.4905558E1,3.1142488E0,2.4994234E1,1.3387311E2,7.612182E1,6.6824255E0,3.1219248E1,3.5655344E0,4.0077853E0,2.6734164E0,5.7822666E0,1.78141E0,8.921457E0],"tree_param":{"num_deleted":"0","num_feature":"102","num_nodes":"69","size_leaf_vector":"1"}},{"base_weights":[-5.875937E-1,7.502531E-2,-5.9276545E-1,6.002438E-3,-4.781512E-3,-5.990165E-1,-1.6298452E-1,-6.050481E-1,-2.4523987E-1,-4.5163736E-1,4.148472E-3,1.5882258E-3,-6.08632E-1,6.0052E-3,-5.2008104E-1,-5.8441125E-3,1.2582831E-5,4.2863255E-3,-4.268236E-3,-6.18691E-1,-3.6156738E-1,-6.302319E-3,2.0451476E-5,-6.2817135E-3,-3.4937554E-3,4.3167183E-3,-4.4093714E-3],"categories":[],"categories_nodes":[],"categories_segments":[],"categories_sizes":[],"default_left":[0,0,0,0,0,0,0,0,0,0,0,0,0,0,0,0,0,0,0,0,0,0,0,0,0,0,0],"id":4,"left_children":[1,3,5,-1,-1,7,9,11,13,15,-1,17,19,-1,21,-1,-1,-1,-1,23,25,-1,-1,-1,-1,-1,-1],"loss_changes":[1.6650696E0,1.608998E0,1.1633453E0,0E0,0E0,8.380127E-1,1.538808E0,9.876251E-1,2.5044649E0,3.5444295E-1,0E0,8.5305256E-1,8.9753723E-1,0E0,4.414642E-1,0E0,0E0,0E0,0E0,8.8378906E-1,1.4530714E0,0E0,0E0,0E0,0E0,0E0,0E0],"parents":[2147483647,0,0,1,1,2,2,5,5,6,6,7,7,8,8,9,9,11,11,12,12,14,14,19,19,20,20],"right_children":[2,4,6,-1,-1,8,10,12,14,16,-1,18,20,-1,22,-1,-1,-1,-1,24,26,-1,-1,-1,-1,-1,-1],"split_conditions":[-1.5733382E0,1.561028E-1,8.891154E0,6.002438E-3,-4.781512E-3,2.8130019E0,-2.6831178E-3,-1.705137E-1,-8.938144E-1,2.2955465E0,4.148472E-3,-2.7729303E-1,4.977917E0,6.0052E-3,-1.0166176E-1,-5.8441125E-3,1.2582831E-5,4.2863255E-3,-4.268236E-3,1.668447E0,-1.4052303E0,-6.302319E-3,2.0451476E-5,-6.2817135E-3,-3.4937554E-3,4.3167183E-3,-4.4093714E-3],"split_indices":[37,38,100,0,0,61,39,33,38,73,0,51,19,0,32,0,0,0,0,48,77,0,0,0,0,0,0],"split_type":[0,0,0,0,0,0,0,0,0,0,0,0,0,0,0,0,0,0,0,0,0,0,0,0,0,0,0],"sum_hessian":[4.719081E2,3.5501375E0,4.68358E2,1.7774429E0,1.7726947E0,4.6125543E2,7.102554E0,4.528248E2,8.430625E0,4.882113E0,2.2204409E0,2.6627438E0,4.5016208E2,1.7770859E0,6.653539E0,3.5507598E0,1.3313531E0,1.3332422E0,1.3295016E0,4.3110574E2,1.9056328E1,5.323428E0,1.330111E0,4.1515903E2,1.5946696E1,1.3295697E0,1.7726757E1],"tree_param":{"num_deleted":"0","num_feature":"102","num_nodes":"27","size_leaf_vector":"1"}},{"base_weights":[3.1376407E-1,-1.2017945E-1,3.897759E-1,5.5909204E-1,-2.472393E-1,5.396604E-1,1.9787525E-1,-5.471443E-3,9.676235E-1,5.1101506E-1,-3.0491E-1,-1.9172832E-1,6.212007E-1,-1.7814171E-1,3.2012498E-1,-2.1821606E-5,1.1469557E-2,1.02889575E-2,-4.2653144E-3,-4.3447867E-1,1.5336585E-1,5.1890624E-1,-5.1816213E-1,1.0496984E-1,7.1373487E-1,-2.6358187E-1,8.1416685E-3,1.2301459E0,2.1418382E-1,-4.9260774E-1,5.957925E-3,1.0383866E-2,-4.2839313E-1,9.949496E-3,-2.7293858E-1,1.5958706E-1,-6.9284937E-3,9.4226027E-1,-1.0416943E-1,1.0565147E0,5.003309E-1,-3.2334104E-1,8.516277E-3,4.233047E-3,1.2842629E0,1.1864328E-2,1.4157909E-1,-5.8787763E-3,4.532539E-4,1.0116318E-3,-6.307524E-3,8.099302E-6,-4.294391E-3,-4.802863E-3,8.51502E-3,1.1941158E-2,-1.49642965E-5,-3.3177056E-3,2.4556885E-3,5.7755015E-3,1.286328E-2,1.0789447E-2,3.1111548E-3,2.01725E-3,-4.462118E-3,1.3517439E-2,4.2345286E-3,5.2434666E-4,7.879785E-3],"categories":[],"categories_nodes":[],"categories_segments":[],"categories_sizes":[],"default_left":[0,0,0,0,0,0,0,0,0,0,0,0,0,0,0,0,0,0,0,0,0,0,0,0,0,0,0,0,0,0,0,0,0,0,0,0,0,0,0,0,0,0,0,0,0,0,0,0,0,0,0,0,0,0,0,0,0,0,0,0,0,0,0,0,0,0,0,0,0],"id":5,"left_children":[1,3,5,7,9,11,13,-1,15,17,19,21,23,25,27,-1,-1,-1,-1,29,31,33,35,37,39,41,-1,43,45,47,-1,-1,49,-1,51,53,-1,55,57,59,61,63,-1,-1,65,-1,67,-1,-1,-1,-1,-1,-1,-1,-1,-1,-1,-1,-1,-1,-1,-1,-1,-1,-1,-1,-1,-1,-1],"loss_changes":[1.52469635E1,6.1325426E0,1.1178886E1,5.6140213E0,2.744647E0,1.3222847E1,8.0391865E0,0E0,1.4943085E0,2.6520095E0,3.3706465E0,5.5586734E0,9.379486E0,3.8811712E0,1.2404577E1,0E0,0E0,0E0,0E0,2.9070253E0,7.140022E0,3.1655514E0,2.0197878E0,5.5715437E0,1.1736008E1,2.9793494E0,0E0,4.5438766E-2,8.2257595E0,2.1717453E0,0E0,0E0,9.8046625E-1,0E0,1.5746042E-1,2.2319071E0,0E0,1.5102963E0,2.1439526E0,6.2391434E0,1.1185318E1,2.6212535E0,0E0,0E0,1.3345528E-1,0E0,6.399843E0,0E0,0E0,0E0,0E0,0E0,0E0,0E0,0E0,0E0,0E0,0E0,0E0,0E0,0E0,0E0,0E0,0E0,0E0,0E0,0E0,0E0,0E0],"parents":[2147483647,0,0,1,1,2,2,3,3,4,4,5,5,6,6,8,8,9,9,10,10,11,11,12,12,13,13,14,14,19,19,20,20,21,21,22,22,23,23,24,24,25,25,27,27,28,28,29,29,32,32,34,34,35,35,37,37,38,38,39,39,40,40,41,41,44,44,46,46],"right_children":[2,4,6,8,10,12,14,-1,16,18,20,22,24,26,28,-1,-1,-1,-1,30,32,34,36,38,40,42,-1,44,46,48,-1,-1,50,-1,52,54,-1,56,58,60,62,64,-1,-1,66,-1,68,-1,-1,-1,-1,-1,-1,-1,-1,-1,-1,-1,-1,-1,-1,-1,-1,-1,-1,-1,-1,-1,-1],"split_conditions":[-1.0331517E0,-1.7329897E0,3.1041482E-1,-1.1061183E0,-1.3710923E0,-1.318518E0,3.3344528E-1,-5.471443E-3,1.5812701E0,2.883623E-1,1.0099832E0,-9.3044114E-1,-7.210939E-1,7.5016236E-1,-1.0901264E0,-2.1821606E-5,1.1469557E-2,1.02889575E-2,-4.2653144E-3,7.5828753E0,1.5786833E0,2.0707513E-1,-8.097616E-1,-1.3350792E0,4.566101E-1,5.0223637E0,8.1416685E-3,4.3414798E-1,3.8218412E-1,1.05429985E-1,5.957925E-3,1.0383866E-2,-1.480808E0,9.949496E-3,-1.5570817E0,-5.093371E-1,-6.9284937E-3,7.492678E-2,-1.6002412E-1,-7.38178E-1,-3.7171498E-1,-1.1581439E0,8.516277E-3,4.233047E-3,2.2561991E0,1.1864328E-2,1.0893804E-1,-5.8787763E-3,4.532539E-4,1.0116318E-3,-6.307524E-3,8.099302E-6,-4.294391E-3,-4.802863E-3,8.51502E-3,1.1941158E-2,-1.49642965E-5,-3.3177056E-3,2.4556885E-3,5.7755015E-3,1.286328E-2,1.0789447E-2,3.1111548E-3,2.01725E-3,-4.462118E-3,1.3517439E-2,4.2345286E-3,5.2434666E-4,7.879785E-3],"split_indices":[42,50,40,77,36,85,58,0,74,35,35,37,41,79,82,0,0,0,0,2,35,76,40,40,48,1,0,40,58,32,0,0,41,0,36,42,0,74,33,74,40,74,0,0,50,0,73,0,0,0,0,0,0,0,0,0,0,0,0,0,0,0,0,0,0,0,0,0,0],"split_type":[0,0,0,0,0,0,0,0,0,0,0,0,0,0,0,0,0,0,0,0,0,0,0,0,0,0,0,0,0,0,0,0,0,0,0,0,0,0,0,0,0,0,0,0,0,0,0,0,0,0,0,0,0,0,0,0,0,0,0,0,0,0,0,0,0,0,0,0,0],"sum_hessian":[4.5982126E2,6.845246E1,3.913688E2,1.0250783E1,5.820168E1,2.1872272E2,1.7264609E2,2.6731184E0,7.5776644E0,3.5581532E0,5.4643524E1,2.1803286E1,1.9691943E2,4.2246544E1,1.3039954E2,1.336715E0,6.240949E0,2.2293007E0,1.3288524E0,4.2639854E1,1.2003672E1,6.6773386E0,1.5125947E1,3.025681E1,1.6666263E2,3.9573544E1,2.6730022E0,1.2491091E1,1.1790845E2,4.085655E1,1.7833068E0,4.4496226E0,7.554049E0,4.010063E0,2.6672757E0,3.1174302E0,1.2008516E1,5.346528E0,2.4910282E1,6.243143E1,1.0423119E2,3.823477E1,1.3387702E0,1.3396726E0,1.1151419E1,7.127201E0,1.1078124E2,3.4630516E1,6.2260327E0,2.226798E0,5.327251E0,1.332067E0,1.3352087E0,1.7785296E0,1.3389004E0,4.0108843E0,1.335644E0,1.5121168E1,9.789113E0,2.138179E1,4.104964E1,2.4526833E1,7.970436E1,7.1289062E0,3.1105865E1,9.811921E0,1.3394973E0,9.8305176E1,1.2476068E1],"tree_param":{"num_deleted":"0","num_feature":"102","num_nodes":"69","size_leaf_vector":"1"}},{"base_weights":[3.0612502E-1,2.3536837E-1,7.516682E-1,-4.0689522E-1,2.8225228E-1,3.5347003E-2,8.45693E-1,8.065815E-3,-5.6428427E-1,9.6345615E-1,2.1165733E-1,-4.7426328E-1,1.0214913E-2,1.0188028E0,3.4275755E-1,-6.337257E-1,2.4011056E-3,1.0525513E0,-4.7941557E-3,1.1381016E-1,5.589408E-1,-6.008958E-3,8.969821E-6,4.899274E-1,1.2248703E0,6.496292E-1,-5.8455607E-3,-7.967062E-2,-7.121232E-3,1.147203E0,-2.0935512E-3,4.711875E-1,-1.8159306E-2,4.1440722E-1,9.5557487E-1,8.008714E-1,-1.9880699E-1,1.2798786E0,2.3479208E-3,1.0259676E0,4.893698E-2,4.280994E-3,-4.782887E-3,4.6852706E-3,1.2662242E-2,-2.5816491E-5,6.4665037E-3,-1.9965917E-3,2.06927E-3,1.7410221E-3,8.13968E-3,1.1839564E-2,2.2032436E-3,1.1603334E-2,-4.8204497E-3,-5.4327645E-3,4.25431E-3,4.08189E-3,1.3398138E-2,2.3382325E-3,1.2252626E-2,-3.2919678E-3,5.909124E-3],"categories":[],"categories_nodes":[],"categories_segments":[],"categories_sizes":[],"default_left":[0,0,0,0,0,0,0,0,0,0,0,0,0,0,0,0,0,0,0,0,0,0,0,0,0,0,0,0,0,0,0,0,0,0,0,0,0,0,0,0,0,0,0,0,0,0,0,0,0,0,0,0,0,0,0,0,0,0,0,0,0,0,0],"id":6,"left_children":[1,3,5,7,9,11,13,-1,15,17,19,21,-1,23,25,27,-1,29,-1,31,33,-1,-1,35,37,39,-1,41,-1,43,-1,45,47,49,51,53,55,57,-1,59,61,-1,-1,-1,-1,-1,-1,-1,-1,-1,-1,-1,-1,-1,-1,-1,-1,-1,-1,-1,-1,-1,-1],"loss_changes":[1.4859489E1,1.25527E1,4.341934E0,5.900294E0,1.8336763E1,4.7939034E0,4.642563E0,0E0,1.5947342E0,5.122444E0,1.1850815E1,3.8181102E-1,0E0,3.9932175E0,4.9864035E0,9.8782825E-1,0E0,4.318569E0,0E0,1.2969208E1,4.0076942E0,0E0,0E0,3.0469112E0,1.3150024E0,2.8065276E0,0E0,1.0360205E0,0E0,1.9849205E0,0E0,6.1655254E0,8.279674E0,5.4336557E0,3.0555801E0,4.9351454E0,1.3052555E0,9.095192E-1,0E0,9.3214417E-1,1.4072808E0,0E0,0E0,0E0,0E0,0E0,0E0,0E0,0E0,0E0,0E0,0E0,0E0,0E0,0E0,0E0,0E0,0E0,0E0,0E0,0E0,0E0,0E0],"parents":[2147483647,0,0,1,1,2,2,3,3,4,4,5,5,6,6,8,8,9,9,10,10,11,11,13,13,14,14,15,15,17,17,19,19,20,20,23,23,24,24,25,25,27,27,29,29,31,31,32,32,33,33,34,34,35,35,36,36,37,37,39,39,40,40],"right_children":[2,4,6,8,10,12,14,-1,16,18,20,22,-1,24,26,28,-1,30,-1,32,34,-1,-1,36,38,40,-1,42,-1,44,-1,46,48,50,52,54,56,58,-1,60,62,-1,-1,-1,-1,-1,-1,-1,-1,-1,-1,-1,-1,-1,-1,-1,-1,-1,-1,-1,-1,-1,-1],"split_conditions":[9.986598E-1,-1.2668194E0,-1.3096766E0,-1.5540744E0,-1.1607189E0,2.4069266E0,7.8308034E-1,8.065815E-3,5.9341626E0,8.135881E-1,1.0099832E0,1.8883724E0,1.0214913E-2,-9.228837E-1,-2.4427569E-1,-1.5085158E0,2.4011056E-3,1.6594478E0,-4.7941557E-3,-6.557377E-1,4.624656E-1,-6.008958E-3,8.969821E-6,-9.880632E-1,1.6725687E-2,9.609736E-1,-5.8455607E-3,-7.0594853E-1,-7.121232E-3,-1.421947E0,-2.0935512E-3,-1.7427686E0,5.31548E-1,5.817941E-1,-1.0489378E-1,-6.878575E-1,1.7145668E0,-1.0243628E0,2.3479208E-3,-3.4627634E-1,-9.4408834E-1,4.280994E-3,-4.782887E-3,4.6852706E-3,1.2662242E-2,-2.5816491E-5,6.4665037E-3,-1.9965917E-3,2.06927E-3,1.7410221E-3,8.13968E-3,1.1839564E-2,2.2032436E-3,1.1603334E-2,-4.8204497E-3,-5.4327645E-3,4.25431E-3,4.08189E-3,1.3398138E-2,2.3382325E-3,1.2252626E-2,-3.2919678E-3,5.909124E-3],"split_indices":[70,46,73,74,85,71,37,0,18,38,35,77,0,36,73,74,0,79,0,57,40,0,0,85,79,76,0,88,0,72,0,57,86,67,33,79,70,88,0,88,79,0,0,0,0,0,0,0,0,0,0,0,0,0,0,0,0,0,0,0,0,0,0],"split_type":[0,0,0,0,0,0,0,0,0,0,0,0,0,0,0,0,0,0,0,0,0,0,0,0,0,0,0,0,0,0,0,0,0,0,0,0,0,0,0,0,0,0,0,0,0,0,0,0,0,0,0,0,0,0,0,0,0,0,0,0,0,0,0],"sum_hessian":[4.7596558E2,4.120554E2,6.3910194E1,2.7510447E1,3.8454495E2,7.575175E0,5.6335022E1,2.6849098E0,2.4825537E1,3.492167E1,3.4962326E2,5.336501E0,2.2386732E0,4.114667E1,1.5188351E1,2.3048029E1,1.7775081E0,3.31455E1,1.7761686E0,2.738061E2,7.581718E1,4.0046306E0,1.3318708E0,1.2483945E1,2.8662725E1,1.1636867E1,3.551484E0,3.106914E0,1.9941114E1,3.091738E1,2.2281203E0,7.314818E1,2.0065793E2,5.7066814E1,1.8750362E1,8.488715E0,3.9952292E0,2.6876759E1,1.7859664E0,6.7192364E0,4.91763E0,1.3338555E0,1.7730585E0,5.3496165E0,2.5567764E1,2.0035471E1,5.3112705E1,1.11146866E2,8.9511055E1,3.6531605E1,2.053521E1,1.3840873E1,4.909489E0,6.705456E0,1.7832599E0,2.6581144E0,1.3371148E0,2.2315724E0,2.4645187E1,1.7875309E0,4.9317055E0,3.1279042E0,1.7897261E0],"tree_param":{"num_deleted":"0","num_feature":"102","num_nodes":"63","size_leaf_vector":"1"}},{"base_weights":[-5.887685E-1,-5.923346E-1,1.0547019E-3,-5.987205E-1,-1.6030973E-1,-6.0367E-1,-1.5096648E-1,6.0014986E-3,-4.6971804E-1,-3.2256272E-1,-6.0945743E-1,-5.8080903E-3,6.0745864E-3,3.7624184E-5,-5.9665176E-3,-5.514399E-1,4.1413466E-3,-6.178147E-1,-3.9386657E-1,3.3543343E-5,-6.4841816E-3,-2.8187314E-3,-6.228771E-3,5.135521E-4,-6.111358E-3],"categories":[],"categories_nodes":[],"categories_segments":[],"categories_sizes":[],"default_left":[0,0,0,0,0,0,0,0,0,0,0,0,0,0,0,0,0,0,0,0,0,0,0,0,0],"id":7,"left_children":[1,3,-1,5,7,9,11,-1,13,15,17,-1,-1,-1,-1,19,-1,21,23,-1,-1,-1,-1,-1,-1],"loss_changes":[1.2102203E0,1.1769257E0,0E0,9.1563416E-1,2.1845064E0,5.338745E-1,2.406752E0,0E0,3.813932E-1,2.1137667E0,5.47287E-1,0E0,0E0,0E0,0E0,4.8426008E-1,0E0,5.398712E-1,1.8823147E0,0E0,0E0,0E0,0E0,0E0,0E0],"parents":[2147483647,0,0,1,1,3,3,4,4,5,5,6,6,8,8,9,9,10,10,15,15,17,17,18,18],"right_children":[2,4,-1,6,8,10,12,-1,14,16,18,-1,-1,-1,-1,20,-1,22,24,-1,-1,-1,-1,-1,-1],"split_conditions":[2.949016E0,8.891154E0,1.0547019E-3,2.8038871E0,-1.6933207E-1,-1.7039374E-1,-6.573209E-1,6.0014986E-3,-3.744288E-1,5.7170796E-1,4.977917E0,-5.8080903E-3,6.0745864E-3,3.7624184E-5,-5.9665176E-3,-1.425796E0,4.1413466E-3,-2.4519825E0,-5.7814604E-1,3.3543343E-5,-6.4841816E-3,-2.8187314E-3,-6.228771E-3,5.135521E-4,-6.111358E-3],"split_indices":[75,100,0,85,33,33,73,0,88,49,19,0,0,0,0,40,0,70,35,0,0,0,0,0,0],"split_type":[0,0,0,0,0,0,0,0,0,0,0,0,0,0,0,0,0,0,0,0,0,0,0,0,0],"sum_hessian":[4.6260034E2,4.6038223E2,2.218097E0,4.532961E2,7.0861263E0,4.4799576E2,5.300347E0,1.7775698E0,5.3085566E0,1.0181783E1,4.37814E2,3.5324802E0,1.7678664E0,1.3274277E0,3.981129E0,7.9601827E0,2.2215996E0,4.1967957E2,1.8134428E1,1.3280542E0,6.6321287E0,7.071835E0,4.1260773E2,6.1977696E0,1.1936659E1],"tree_param":{"num_deleted":"0","num_feature":"102","num_nodes":"25","size_leaf_vector":"1"}},{"base_weights":[3.2051963E-1,7.252216E-1,2.4840012E-1,8.8965756E-1,4.3051645E-2,3.3613634E-1,-8.235187E-2,9.9469715E-1,-4.005411E-1,-5.3470016E-1,6.476972E-1,4.4624493E-1,3.3718412E-4,1.0552708E-2,-1.6565405E-1,-4.3028765E-3,1.0399263E0,-5.4569766E-3,-9.652759E-6,6.1362016E-6,-6.3995E-3,9.403776E-1,-4.2757345E-3,4.767304E-3,5.6769586E-1,-4.263597E-1,2.9822496E-1,-2.5945365E-1,3.8038793E-1,-4.2982833E-3,1.0875103E0,1.1919163E-2,-2.0124811E-5,3.7629038E-1,-2.901457E-1,5.974476E-1,-4.5221978E-1,-5.071139E-1,8.510262E-3,7.5199217E-1,-1.0558758E-1,-4.908157E-1,2.1187162E-2,-2.3187579E-1,1.064389E-2,1.13494955E-2,-1.2665748E-3,8.112529E-3,-1.0853305E-3,3.2777842E-3,-4.9756668E-3,5.232703E-3,1.0320703E-2,-5.8495165E-3,8.860621E-6,4.0195915E-3,-6.202681E-3,9.582683E-3,-6.4801757E-4,4.8439065E-3,-2.5063432E-3,-5.6109154E-3,5.9482586E-3,6.1719697E-3,-2.6777934E-3,-4.534242E-3,4.2610858E-3],"categories":[],"categories_nodes":[],"categories_segments":[],"categories_sizes":[],"default_left":[0,0,0,0,0,0,0,0,0,0,0,0,0,0,0,0,0,0,0,0,0,0,0,0,0,0,0,0,0,0,0,0,0,0,0,0,0,0,0,0,0,0,0,0,0,0,0,0,0,0,0,0,0,0,0,0,0,0,0,0,0,0,0,0,0,0,0],"id":8,"left_children":[1,3,5,7,9,11,13,15,17,19,21,23,25,-1,27,-1,29,-1,-1,-1,-1,31,-1,33,35,37,39,41,43,-1,45,-1,-1,47,49,51,53,55,-1,57,59,61,63,65,-1,-1,-1,-1,-1,-1,-1,-1,-1,-1,-1,-1,-1,-1,-1,-1,-1,-1,-1,-1,-1,-1,-1],"loss_changes":[1.3577461E1,7.9005165E0,1.16813755E1,8.119888E0,5.515449E0,1.1742641E1,8.229634E0,3.8616562E0,2.8961247E-1,4.5758176E-1,2.8198311E0,1.2820999E1,1.0222608E1,0E0,4.1993356E0,0E0,4.0787315E0,0E0,0E0,0E0,0E0,1.5079641E0,0E0,5.8733535E0,5.9615326E0,3.8422751E0,8.757542E0,4.485304E0,5.331909E0,0E0,3.0410233E0,0E0,0E0,5.089257E0,3.9944623E0,5.349205E0,3.5447276E-1,3.5127068E0,0E0,3.8401814E0,2.340895E0,3.2190285E0,5.6940365E0,1.2469176E0,0E0,0E0,0E0,0E0,0E0,0E0,0E0,0E0,0E0,0E0,0E0,0E0,0E0,0E0,0E0,0E0,0E0,0E0,0E0,0E0,0E0,0E0,0E0],"parents":[2147483647,0,0,1,1,2,2,3,3,4,4,5,5,6,6,7,7,8,8,9,9,10,10,11,11,12,12,14,14,16,16,21,21,23,23,24,24,25,25,26,26,27,27,28,28,30,30,33,33,34,34,35,35,36,36,37,37,39,39,40,40,41,41,42,42,43,43],"right_children":[2,4,6,8,10,12,14,16,18,20,22,24,26,-1,28,-1,30,-1,-1,-1,-1,32,-1,34,36,38,40,42,44,-1,46,-1,-1,48,50,52,54,56,-1,58,60,62,64,66,-1,-1,-1,-1,-1,-1,-1,-1,-1,-1,-1,-1,-1,-1,-1,-1,-1,-1,-1,-1,-1,-1,-1],"split_conditions":[-1.2951319E0,7.810395E-1,7.649142E-1,1.428558E0,3.0661842E-1,6.2032753E-1,-1.5388081E0,-1.5992664E0,-1.4715512E0,-7.95194E-1,-1.3448646E0,-1.0423557E0,-2.2597589E-1,1.0552708E-2,-3.5759706E-2,-4.3028765E-3,-1.3304415E0,-5.4569766E-3,-9.652759E-6,6.1362016E-6,-6.3995E-3,1.2301123E0,-4.2757345E-3,-1.5730624E0,2.7041957E0,1.3543025E0,1.9452974E-1,3.7068287E-1,-1.141206E-1,-4.2982833E-3,1.6001202E-2,1.1919163E-2,-2.0124811E-5,-1.5537729E0,-1.6038548E0,3.8853428E-1,-2.019142E-1,3.0045864E-1,8.510262E-3,6.2306005E-1,-8.8269633E-1,1.7768124E0,7.3998153E-1,1.2762975E0,1.064389E-2,1.13494955E-2,-1.2665748E-3,8.112529E-3,-1.0853305E-3,3.2777842E-3,-4.9756668E-3,5.232703E-3,1.0320703E-2,-5.8495165E-3,8.860621E-6,4.0195915E-3,-6.202681E-3,9.582683E-3,-6.4801757E-4,4.8439065E-3,-2.5063432E-3,-5.6109154E-3,5.9482586E-3,6.1719697E-3,-2.6777934E-3,-4.534242E-3,4.2610858E-3],"split_indices":[35,41,70,34,49,86,83,79,35,64,48,58,64,0,73,0,70,0,0,0,0,40,0,38,46,34,64,69,36,0,67,0,0,76,41,64,72,41,0,48,48,48,58,77,0,0,0,0,0,0,0,0,0,0,0,0,0,0,0,0,0,0,0,0,0,0,0],"split_type":[0,0,0,0,0,0,0,0,0,0,0,0,0,0,0,0,0,0,0,0,0,0,0,0,0,0,0,0,0,0,0,0,0,0,0,0,0,0,0,0,0,0,0,0,0,0,0,0,0,0,0,0,0,0,0,0,0,0,0,0,0,0,0,0,0,0,0],"sum_hessian":[4.7036227E2,6.977284E1,4.0058942E2,5.5975807E1,1.3797038E1,3.165928E2,8.3996605E1,5.19735E1,4.0023093E0,7.114582E0,6.682456E0,2.3816846E2,7.842436E1,4.9348907E0,7.9061714E1,1.3369877E0,5.063651E1,2.6675558E0,1.3347535E0,1.332334E0,5.782248E0,5.351319E0,1.3311372E0,5.160868E1,1.8655977E2,3.2064144E1,4.6360218E1,6.791931E1,1.1142398E1,1.3360541E0,4.9300457E1,4.014899E0,1.3364202E0,2.2715899E1,2.8892784E1,1.8167441E2,4.885356E0,3.0724781E1,1.3393626E0,2.1423847E1,2.493637E1,3.681768E1,3.1101635E1,6.2283087E0,4.914089E0,4.7509438E1,1.7910173E0,1.1618757E1,1.1097141E1,7.1153407E0,2.1777443E1,1.5707101E2,2.4603409E1,3.5534375E0,1.3319186E0,3.1185176E0,2.7606264E1,1.6965988E1,4.4578605E0,4.459162E0,2.047721E1,3.5033085E1,1.7845938E0,9.784556E0,2.1317078E1,4.8920174E0,1.3362911E0],"tree_param":{"num_deleted":"0","num_feature":"102","num_nodes":"67","size_leaf_vector":"1"}},{"base_weights":[2.639718E-1,-2.425796E-1,3.1655696E-1,6.413032E-1,-4.14398E-1,5.7933074E-1,2.0188496E-1,9.3200284E-1,-4.280563E-3,-4.8019955E-1,5.962443E-3,8.191755E-2,7.5181335E-1,5.1871292E-2,4.9348205E-1,-3.314729E-5,1.1812962E-2,-5.502038E-1,4.1077025E-3,4.6566966E-1,-4.8879078E-1,1.2413535E0,5.7711166E-1,2.0355085E-1,-3.4161523E-1,6.8354875E-1,2.70588E-2,-5.987219E-1,1.0135716E-3,-2.3094107E-1,7.7233756E-1,-6.151578E-1,4.209389E-3,2.3503273E-3,1.3104898E0,9.829311E-1,4.387936E-1,-4.9526912E-1,2.8113985E-1,-4.0224442E-1,9.552225E-3,8.4847844E-1,1.5002241E-2,-1.178163E-1,7.8036755E-1,-1.1811873E-3,-6.2302654E-3,-6.2030605E-3,8.405487E-3,9.797404E-3,-4.8187957E-3,-6.853823E-3,-9.5728665E-6,4.189102E-3,1.347211E-2,1.1252437E-2,-4.3059555E-3,-4.840784E-5,7.740322E-3,2.409315E-3,-6.145113E-3,5.0292406E-3,-5.50462E-4,-4.7904328E-3,6.3965437E-3,9.4016185E-3,-1.1704591E-3,1.0176344E-2,-4.9659973E-3,9.406382E-3,-2.3344865E-3,1.0140123E-2,2.2951714E-3],"categories":[],"categories_nodes":[],"categories_segments":[],"categories_sizes":[],"default_left":[0,0,0,0,0,0,0,0,0,0,0,0,0,0,0,0,0,0,0,0,0,0,0,0,0,0,0,0,0,0,0,0,0,0,0,0,0,0,0,0,0,0,0,0,0,0,0,0,0,0,0,0,0,0,0,0,0,0,0,0,0,0,0,0,0,0,0,0,0,0,0,0,0],"id":9,"left_children":[1,3,5,7,9,11,13,15,-1,17,-1,19,21,23,25,-1,-1,27,-1,29,31,33,35,37,39,41,43,45,-1,47,49,51,-1,-1,53,55,57,59,61,63,-1,65,67,69,71,-1,-1,-1,-1,-1,-1,-1,-1,-1,-1,-1,-1,-1,-1,-1,-1,-1,-1,-1,-1,-1,-1,-1,-1,-1,-1,-1,-1],"loss_changes":[1.2641819E1,7.089041E0,1.2773323E1,2.7941139E0,2.8283057E0,1.104287E1,1.3069146E1,1.4898481E0,0E0,2.4989357E0,0E0,7.7719774E0,7.492359E0,1.1933553E1,8.985979E0,0E0,0E0,1.1422882E0,0E0,4.687965E0,1.9072273E0,1.387867E0,3.6442852E0,7.952531E0,4.762099E0,7.939827E0,3.4149227E0,3.000574E-1,0E0,3.5345411E0,4.34472E0,5.598631E-1,0E0,0E0,1.7523193E-1,4.035057E0,8.325853E0,1.4440093E0,9.7458515E0,4.619026E0,0E0,5.2296143E0,8.348293E0,3.4514368E0,4.1624045E-1,0E0,0E0,0E0,0E0,0E0,0E0,0E0,0E0,0E0,0E0,0E0,0E0,0E0,0E0,0E0,0E0,0E0,0E0,0E0,0E0,0E0,0E0,0E0,0E0,0E0,0E0,0E0,0E0],"parents":[2147483647,0,0,1,1,2,2,3,3,4,4,5,5,6,6,7,7,9,9,11,11,12,12,13,13,14,14,17,17,19,19,20,20,21,21,22,22,23,23,24,24,25,25,26,26,27,27,29,29,30,30,31,31,34,34,35,35,36,36,37,37,38,38,39,39,41,41,42,42,43,43,44,44],"right_children":[2,4,6,8,10,12,14,16,-1,18,-1,20,22,24,26,-1,-1,28,-1,30,32,34,36,38,40,42,44,46,-1,48,50,52,-1,-1,54,56,58,60,62,64,-1,66,68,70,72,-1,-1,-1,-1,-1,-1,-1,-1,-1,-1,-1,-1,-1,-1,-1,-1,-1,-1,-1,-1,-1,-1,-1,-1,-1,-1,-1,-1],"split_conditions":[-1.2121795E0,-1.4923489E0,-5.370788E-1,3.478279E-1,1.1763846E0,-9.030469E-1,7.0823145E-1,-1.5230004E0,-4.280563E-3,5.7673764E-1,5.962443E-3,-9.337496E-1,-3.5648438E-1,5.248007E-1,-1.077729E-1,-3.314729E-5,1.1812962E-2,-1.1098945E0,4.1077025E-3,-1.415098E0,5.2035487E-1,-9.729117E-1,-1.3262447E0,-5.8085984E-1,6.867922E-1,2.0607684E0,1.1880866E0,-1.5733382E0,1.0135716E-3,2.883623E-1,1.5776514E0,1.2546657E0,4.209389E-3,2.3503273E-3,-1.1581439E0,8.891154E0,-7.0829356E-1,-8.302771E-1,1.0745994E-1,7.421433E-1,9.552225E-3,8.0323464E-1,-8.8149697E-1,-2.3655682E0,1.8551742E0,-1.1811873E-3,-6.2302654E-3,-6.2030605E-3,8.405487E-3,9.797404E-3,-4.8187957E-3,-6.853823E-3,-9.5728665E-6,4.189102E-3,1.347211E-2,1.1252437E-2,-4.3059555E-3,-4.840784E-5,7.740322E-3,2.409315E-3,-6.145113E-3,5.0292406E-3,-5.50462E-4,-4.7904328E-3,6.3965437E-3,9.4016185E-3,-1.1704591E-3,1.0176344E-2,-4.9659973E-3,9.406382E-3,-2.3344865E-3,1.0140123E-2,2.2951714E-3],"split_indices":[52,74,85,88,88,61,67,75,0,33,0,85,73,79,33,0,0,67,0,75,33,88,85,61,77,85,86,37,0,35,79,41,0,0,74,100,65,83,83,52,0,78,73,41,57,0,0,0,0,0,0,0,0,0,0,0,0,0,0,0,0,0,0,0,0,0,0,0,0,0,0,0,0],"split_type":[0,0,0,0,0,0,0,0,0,0,0,0,0,0,0,0,0,0,0,0,0,0,0,0,0,0,0,0,0,0,0,0,0,0,0,0,0,0,0,0,0,0,0,0,0,0,0,0,0,0,0,0,0,0,0,0,0,0,0,0,0,0,0,0,0,0,0,0,0,0,0,0,0],"sum_hessian":[4.707118E2,4.3929256E1,4.2678253E2,6.7049E0,3.7224358E1,1.2842996E2,2.983526E2,5.3727846E0,1.3321154E0,3.5441654E1,1.7827002E0,3.3447487E1,9.498247E1,1.9778099E2,1.0057159E2,1.3383113E0,4.0344734E0,3.3214436E1,2.2272208E0,2.0109581E1,1.3337909E1,2.3375443E1,7.1607025E1,1.4310152E2,5.4679478E1,7.1123405E1,2.9448181E1,3.0988026E1,2.2264092E0,6.222289E0,1.3887291E1,1.1995466E1,1.3424418E0,1.7855293E0,2.1589914E1,1.6650076E1,5.495695E1,1.3762625E1,1.293389E2,5.289632E1,1.7831581E0,5.6833504E1,1.4289905E1,2.5405785E1,4.042397E0,1.7737417E0,2.9214285E1,4.872697E0,1.349592E0,1.2104485E1,1.7828071E0,1.0660686E1,1.3347813E0,1.3448677E0,2.0245047E1,1.5312386E1,1.3376906E0,2.4078495E1,3.0878454E1,1.7761514E0,1.1986473E1,7.762993E1,5.170896E1,4.976811E1,3.1282108E0,5.1928764E1,4.9047403E0,4.49383E0,9.796074E0,1.799462E0,2.3606321E1,2.2480621E0,1.7943347E0],"tree_param":{"num_deleted":"0","num_feature":"102","num_nodes":"73","size_leaf_vector":"1"}},{"base_weights":[-6.051882E-1,1.0525599E-3,-6.088543E-1,-6.152847E-1,-2.178432E-1,-6.291113E-1,-4.674771E-1,5.9843645E-3,-5.0318474E-1,-6.3680613E-1,-2.1310762E-1,1.3668796E-1,-5.832788E-1,-6.187907E-3,4.469023E-5,-6.405413E-1,-2.74702E-1,5.555416E-1,-6.2530655E-3,7.2730025E-3,-2.3919491E-1,1.1116292E-3,-6.321916E-1,-6.443685E-3,-2.7475115E-3,4.3687844E-3,-5.793395E-3,8.66286E-3,5.7803234E-5,-5.626788E-3,4.311127E-3,-6.5862783E-3,7.891508E-5],"categories":[],"categories_nodes":[],"categories_segments":[],"categories_sizes":[],"default_left":[0,0,0,0,0,0,0,0,0,0,0,0,0,0,0,0,0,0,0,0,0,0,0,0,0,0,0,0,0,0,0,0,0],"id":10,"left_children":[1,-1,3,5,7,9,11,-1,13,15,17,19,21,-1,-1,23,25,27,-1,-1,29,-1,31,-1,-1,-1,-1,-1,-1,-1,-1,-1,-1],"loss_changes":[1.2644348E0,0E0,1.0191345E0,6.269531E-1,2.3900998E0,1.1742554E0,3.0492573E0,0E0,4.2466378E-1,3.6680603E-1,3.1783128E0,1.8693855E0,1.28654E0,0E0,0E0,3.779602E-1,1.5208155E0,6.1828136E-1,0E0,0E0,1.417681E0,0E0,5.737686E-1,0E0,0E0,0E0,0E0,0E0,0E0,0E0,0E0,0E0,0E0],"parents":[2147483647,0,0,2,2,3,3,4,4,5,5,6,6,8,8,9,9,10,10,11,11,12,12,15,15,16,16,17,17,20,20,22,22],"right_children":[2,-1,4,6,8,10,12,-1,14,16,18,20,22,-1,-1,24,26,28,-1,-1,30,-1,32,-1,-1,-1,-1,-1,-1,-1,-1,-1,-1],"split_conditions":[-1.5767888E0,1.0525599E-3,2.8130019E0,1.2943469E0,-8.938144E-1,2.3350048E0,-4.5194066E-1,5.9843645E-3,-1.5745027E-1,1.9680774E0,3.9168748E-1,9.8111194E-1,-1.0207025E0,-6.187907E-3,4.469023E-5,1.6934335E0,-1.6067389E0,2.6673466E-1,-6.2530655E-3,7.2730025E-3,-6.498432E-1,1.1116292E-3,2.2104876E0,-6.443685E-3,-2.7475115E-3,4.3687844E-3,-5.793395E-3,8.66286E-3,5.7803234E-5,-5.626788E-3,4.311127E-3,-6.5862783E-3,7.891508E-5],"split_indices":[37,0,61,70,38,88,49,0,32,76,84,90,85,0,0,79,35,35,0,0,49,0,46,0,0,0,0,0,0,0,0,0,0],"split_type":[0,0,0,0,0,0,0,0,0,0,0,0,0,0,0,0,0,0,0,0,0,0,0,0,0,0,0,0,0,0,0,0,0],"sum_hessian":[4.5986105E2,2.218572E0,4.576425E2,4.496738E2,7.968699E0,4.0822968E2,4.1444103E1,1.7798365E0,6.1888623E0,4.002947E2,7.934987E0,6.636986E0,3.4807117E1,4.8625994E0,1.3262631E0,3.954466E2,4.848091E0,2.6484783E0,5.286509E0,2.2176125E0,4.4193735E0,2.206571E0,3.2600548E1,3.9059827E2,4.848334E0,1.3232095E0,3.5248814E0,1.3242283E0,1.32425E0,3.0891473E0,1.3302262E0,3.127968E1,1.3208666E0],"tree_param":{"num_deleted":"0","num_feature":"102","num_nodes":"33","size_leaf_vector":"1"}},{"base_weights":[3.3700755E-1,5.6317996E-2,4.2632696E-1,1.1033161E-2,-9.311555E-3,7.463234E-1,3.1499788E-1,-4.8788393E-1,1.0826275E-1,8.4504075E-2,9.0347624E-1,-1.7744198E-1,3.8971105E-1,-6.609285E-1,7.1415594E-3,8.9177907E-1,-2.046121E-2,7.6944244E-1,-3.5835648E-1,1.0006486E0,3.7823964E-2,5.106852E-1,-3.514791E-1,5.229358E-1,3.2706667E-2,-4.4257216E-5,-7.0869788E-3,1.0857279E0,-4.2830235E-3,4.0390918E-1,-1.3783145E-1,-1.2143151E-3,1.0574212E-2,-6.5638158E-3,1.9429639E-1,1.0365437E0,-4.32571E-3,8.529153E-3,-2.3115095E-1,1.0178889E-2,-5.149165E-3,-5.880907E-1,4.548777E-1,5.7821566E-1,-6.5640113E-3,5.3337735E-1,-2.1252412E-1,-1.2106082E-3,1.324586E-2,-3.9039357E-3,9.49658E-3,-5.102949E-3,9.895284E-4,9.42683E-3,-5.1634084E-3,1.0889928E-2,1.8866461E-3,2.7037798E-3,-5.8481577E-3,-6.238187E-3,-1.826595E-5,-5.1572453E-3,9.853299E-3,9.123641E-3,3.8178684E-3,8.516831E-3,-3.401901E-5,-5.46329E-3,1.5145825E-3],"categories":[],"categories_nodes":[],"categories_segments":[],"categories_sizes":[],"default_left":[0,0,0,0,0,0,0,0,0,0,0,0,0,0,0,0,0,0,0,0,0,0,0,0,0,0,0,0,0,0,0,0,0,0,0,0,0,0,0,0,0,0,0,0,0,0,0,0,0,0,0,0,0,0,0,0,0,0,0,0,0,0,0,0,0,0,0,0,0],"id":11,"left_children":[1,3,5,-1,7,9,11,13,15,17,19,21,23,25,-1,27,29,31,33,35,37,39,41,43,45,-1,-1,47,-1,49,51,-1,-1,-1,53,55,-1,-1,57,-1,-1,59,61,63,-1,65,67,-1,-1,-1,-1,-1,-1,-1,-1,-1,-1,-1,-1,-1,-1,-1,-1,-1,-1,-1,-1,-1,-1],"loss_changes":[1.1900627E1,7.978996E0,1.2613571E1,0E0,6.249056E0,9.529789E0,9.977327E0,5.027343E0,9.016784E0,5.9863544E0,6.231785E0,4.510435E0,1.1119057E1,6.135216E-1,0E0,3.6940775E0,3.9212232E0,2.1065288E0,2.123074E0,3.8938446E0,2.0741916E0,4.533579E0,5.887502E0,1.1491402E1,8.056828E0,0E0,0E0,3.4116478E0,0E0,7.7697945E0,5.477903E0,0E0,0E0,0E0,3.154551E0,2.7131882E0,0E0,0E0,1.4394835E0,0E0,0E0,4.8501015E-1,4.2389946E0,1.0372974E1,0E0,3.6858473E0,5.4458976E0,0E0,0E0,0E0,0E0,0E0,0E0,0E0,0E0,0E0,0E0,0E0,0E0,0E0,0E0,0E0,0E0,0E0,0E0,0E0,0E0,0E0,0E0],"parents":[2147483647,0,0,1,1,2,2,4,4,5,5,6,6,7,7,8,8,9,9,10,10,11,11,12,12,13,13,15,15,16,16,17,17,18,18,19,19,20,20,21,21,22,22,23,23,24,24,27,27,29,29,30,30,34,34,35,35,38,38,41,41,42,42,43,43,45,45,46,46],"right_children":[2,4,6,-1,8,10,12,14,16,18,20,22,24,26,-1,28,30,32,34,36,38,40,42,44,46,-1,-1,48,-1,50,52,-1,-1,-1,54,56,-1,-1,58,-1,-1,60,62,64,-1,66,68,-1,-1,-1,-1,-1,-1,-1,-1,-1,-1,-1,-1,-1,-1,-1,-1,-1,-1,-1,-1,-1,-1],"split_conditions":[-6.867651E-1,-1.2683579E0,-1.549927E-1,1.1033161E-2,-4.5916694E-1,-1.2348319E0,-7.608666E-1,1.4581788E0,-1.7453423E-1,-1.548443E0,1.1170703E0,-1.3680704E0,1.0099832E0,-1.3780944E0,7.1415594E-3,5.577155E-1,-1.9834939E0,-8.8942504E-1,-1.3399651E0,4.977917E0,-8.3587575E-1,-8.041695E-1,9.443987E-1,2.0845284E0,8.381313E-2,-4.4257216E-5,-7.0869788E-3,-1.1838692E0,-4.2830235E-3,4.3430632E-1,-5.335564E-1,-1.2143151E-3,1.0574212E-2,-6.5638158E-3,-1.0618694E0,1.298611E0,-4.32571E-3,8.529153E-3,-1.3930929E0,1.0178889E-2,-5.149165E-3,5.0223637E0,-5.052839E-1,4.7705185E-1,-6.5640113E-3,4.155822E-1,3.6570475E-2,-1.2106082E-3,1.324586E-2,-3.9039357E-3,9.49658E-3,-5.102949E-3,9.895284E-4,9.42683E-3,-5.1634084E-3,1.0889928E-2,1.8866461E-3,2.7037798E-3,-5.8481577E-3,-6.238187E-3,-1.826595E-5,-5.1572453E-3,9.853299E-3,9.123641E-3,3.8178684E-3,8.516831E-3,-3.401901E-5,-5.46329E-3,1.5145825E-3],"split_indices":[57,66,49,0,84,85,85,79,84,62,85,48,35,62,0,35,57,88,85,19,78,54,79,84,47,0,0,58,0,79,85,0,0,0,78,34,0,0,40,0,0,1,64,86,0,82,74,0,0,0,0,0,0,0,0,0,0,0,0,0,0,0,0,0,0,0,0,0,0],"split_type":[0,0,0,0,0,0,0,0,0,0,0,0,0,0,0,0,0,0,0,0,0,0,0,0,0,0,0,0,0,0,0,0,0,0,0,0,0,0,0,0,0,0,0,0,0,0,0,0,0,0,0,0,0,0,0,0,0,0,0,0,0,0,0,0,0,0,0,0,0],"sum_hessian":[4.7463446E2,1.1496938E2,3.5966507E2,5.8489494E0,1.0912044E2,9.136065E1,2.6830444E2,2.0899973E1,8.822046E1,1.7826292E1,7.3534355E1,3.5163593E1,2.3314084E2,1.8663372E1,2.2366009E0,1.1612107E1,7.660835E1,6.710398E0,1.1115894E1,6.597275E1,7.561609E0,6.707681E0,2.8455914E1,1.6944397E2,6.369687E1,1.3400134E0,1.7323359E1,1.0279372E1,1.3327354E0,1.6068579E1,6.0539776E1,1.780544E0,4.929854E0,7.099633E0,4.0162606E0,6.463083E1,1.3419161E0,1.3375038E0,6.224105E0,4.4931483E0,2.2145329E0,2.2209576E1,6.2463374E0,1.6234401E2,7.0999513E0,2.0555378E1,4.314149E1,1.7799009E0,8.499471E0,6.6600146E0,9.408565E0,2.3079868E1,3.7459908E1,1.7971321E0,2.2191286E0,6.0597923E1,4.0329075E0,2.6713638E0,3.552741E0,2.087345E1,1.3361261E0,2.2171822E0,4.0291553E0,5.8753185E1,1.0359083E2,1.2535357E1,8.0200205E0,2.2242304E1,2.0899189E1],"tree_param":{"num_deleted":"0","num_feature":"102","num_nodes":"69","size_leaf_vector":"1"}},{"base_weights":[2.6912972E-1,-1.8627535E-1,3.1819668E-1,-5.291166E-1,9.983938E-2,6.150516E-1,1.8607245E-1,-6.604421E-1,8.3626425E-3,4.0092328E-1,-6.508035E-3,-5.230228E-1,6.7891175E-1,5.817974E-2,4.4710052E-1,-7.0659816E-3,1.2313731E-5,-3.1223747E-1,6.855468E-1,-6.327134E-3,-1.132825E-5,5.204752E-1,1.0320991E0,2.1489395E-1,-3.0353248E-1,7.063484E-1,-3.4001533E-2,-5.95341E-3,4.228613E-3,-4.789537E-3,8.870141E-1,3.5449442E-1,1.0246817E0,3.229389E-1,1.237326E0,3.4520677E-1,-2.3802236E-1,-3.5626727E-1,9.473976E-3,-1.733412E-1,8.188493E-1,-5.845762E-1,4.1828105E-1,1.6031706E-3,1.1079559E-2,9.399556E-3,1.0675427E-3,1.141203E-2,-4.3004453E-3,-4.030572E-3,8.803916E-3,2.5691723E-3,1.3267853E-2,-3.119437E-3,5.0349534E-3,5.31E-3,-5.5027986E-3,-4.625436E-3,2.329671E-3,5.3172214E-3,-6.1715753E-3,8.690319E-3,-4.816373E-3,-6.9894097E-3,2.2890274E-3,8.6815795E-3,4.817204E-4],"categories":[],"categories_nodes":[],"categories_segments":[],"categories_sizes":[],"default_left":[0,0,0,0,0,0,0,0,0,0,0,0,0,0,0,0,0,0,0,0,0,0,0,0,0,0,0,0,0,0,0,0,0,0,0,0,0,0,0,0,0,0,0,0,0,0,0,0,0,0,0,0,0,0,0,0,0,0,0,0,0,0,0,0,0,0,0],"id":12,"left_children":[1,3,5,7,9,11,13,15,-1,17,-1,19,21,23,25,-1,-1,27,29,-1,-1,31,33,35,37,39,41,-1,-1,-1,43,45,47,49,51,53,55,57,-1,59,61,63,65,-1,-1,-1,-1,-1,-1,-1,-1,-1,-1,-1,-1,-1,-1,-1,-1,-1,-1,-1,-1,-1,-1,-1,-1],"loss_changes":[1.0841984E1,4.7186017E0,1.6985561E1,4.460604E0,6.3108726E0,1.0082806E1,1.0093731E1,6.2519455E-1,0E0,4.217764E0,0E0,4.3872547E-1,6.5790405E0,1.1663175E1,1.2438288E1,0E0,0E0,1.5656586E0,3.8057504E0,0E0,0E0,7.1525745E0,5.1839104E0,8.542126E0,4.4448776E0,6.5475883E0,9.161168E0,0E0,0E0,0E0,1.8511877E0,9.921207E0,4.171257E0,4.387258E0,2.237751E0,1.177812E1,8.124979E0,3.894575E0,0E0,2.8829234E0,4.175125E0,1.7011905E0,3.3284624E0,0E0,0E0,0E0,0E0,0E0,0E0,0E0,0E0,0E0,0E0,0E0,0E0,0E0,0E0,0E0,0E0,0E0,0E0,0E0,0E0,0E0,0E0,0E0,0E0],"parents":[2147483647,0,0,1,1,2,2,3,3,4,4,5,5,6,6,7,7,9,9,11,11,12,12,13,13,14,14,17,17,18,18,21,21,22,22,23,23,24,24,25,25,26,26,30,30,31,31,32,32,33,33,34,34,35,35,36,36,37,37,39,39,40,40,41,41,42,42],"right_children":[2,4,6,8,10,12,14,16,-1,18,-1,20,22,24,26,-1,-1,28,30,-1,-1,32,34,36,38,40,42,-1,-1,-1,44,46,48,50,52,54,56,58,-1,60,62,64,66,-1,-1,-1,-1,-1,-1,-1,-1,-1,-1,-1,-1,-1,-1,-1,-1,-1,-1,-1,-1,-1,-1,-1,-1],"split_conditions":[-1.2388622E0,3.9644685E-2,-5.1878494E-1,2.77096E-1,2.9730505E-1,-1.7378755E0,7.174434E-1,3.0852726E-1,8.3626425E-3,-4.963291E-1,-6.508035E-3,-2.7862078E-2,-6.3283527E-1,5.248007E-1,1.4574674E0,-7.0659816E-3,1.2313731E-5,2.6978734E-1,-1.4590459E0,-6.327134E-3,-1.132825E-5,9.085617E-1,-6.987081E-1,5.4600346E-1,7.185015E-1,-5.3737855E-1,1.7880859E0,-5.95341E-3,4.228613E-3,-4.789537E-3,-2.8024492E-1,-1.318518E0,5.1147547E0,-1.6019839E-1,-1.9834939E0,-5.327412E-1,-8.982219E-1,5.2448064E-1,9.473976E-3,1.39236525E-2,1.4211876E0,1.9482861E-1,-4.1224557E-1,1.6031706E-3,1.1079559E-2,9.399556E-3,1.0675427E-3,1.141203E-2,-4.3004453E-3,-4.030572E-3,8.803916E-3,2.5691723E-3,1.3267853E-2,-3.119437E-3,5.0349534E-3,5.31E-3,-5.5027986E-3,-4.625436E-3,2.329671E-3,5.3172214E-3,-6.1715753E-3,8.690319E-3,-4.816373E-3,-6.9894097E-3,2.2890274E-3,8.6815795E-3,4.817204E-4],"split_indices":[37,38,85,35,69,48,67,42,0,51,0,88,54,79,85,0,0,42,85,0,0,77,74,62,77,35,51,0,0,0,34,85,8,38,57,61,51,46,0,74,78,74,79,0,0,0,0,0,0,0,0,0,0,0,0,0,0,0,0,0,0,0,0,0,0,0,0],"split_type":[0,0,0,0,0,0,0,0,0,0,0,0,0,0,0,0,0,0,0,0,0,0,0,0,0,0,0,0,0,0,0,0,0,0,0,0,0,0,0,0,0,0,0,0,0,0,0,0,0,0,0,0,0,0,0,0,0,0,0,0,0,0,0,0,0,0,0],"sum_hessian":[4.8154822E2,4.6565334E1,4.3498288E2,2.0796412E1,2.5768925E1,1.328476E2,3.0213528E2,1.9442665E1,1.3537462E0,1.8724426E1,7.044499E0,6.67632E0,1.2617127E2,2.0360185E2,9.8533424E1,1.8111382E1,1.3312829E0,5.3135724E0,1.3410853E1,5.3413305E0,1.3349898E0,8.880696E1,3.7364315E1,1.4233861E2,6.1263245E1,6.3725792E1,3.4807636E1,3.9734323E0,1.3401399E0,1.7748307E0,1.1636023E1,6.809402E1,2.0712942E1,8.96374E0,2.8400576E1,1.1072011E2,3.161851E1,5.9471344E1,1.7919029E0,7.164318E0,5.6561474E1,1.5566117E1,1.9241518E1,3.115262E0,8.520761E0,1.9415964E1,4.8678055E1,1.937644E1,1.3365028E0,4.0136056E0,4.950135E0,2.6985302E0,2.5702045E1,2.1303947E1,8.941616E1,8.928654E0,2.2689856E1,5.056608E1,8.905263E0,2.6910872E0,4.473231E0,5.477943E1,1.7820413E0,1.3770904E1,1.7952138E0,8.077469E0,1.1164049E1],"tree_param":{"num_deleted":"0","num_feature":"102","num_nodes":"67","size_leaf_vector":"1"}},{"base_weights":[-5.8926916E-1,-5.9968865E-1,-2.2946616E-1,-6.175962E-1,-4.2639995E-1,6.0855774E-3,-3.8633835E-1,-1.4587231E-1,-6.23265E-1,-1.9047024E-2,-5.325002E-1,-5.847971E-1,4.2022015E-3,-5.7550943E-3,6.052628E-3,-6.2724143E-1,-7.09275E-2,-3.610571E-1,5.2755505E-1,-1.3009495E-1,-6.4544946E-1,-6.659132E-3,1.0157498E-4,-1.440897E-1,-6.3317055E-1,-4.740133E-3,4.3933196E-3,-6.151974E-3,4.3014195E-3,9.722066E-3,-1.0966671E-3,-3.8226202E-1,6.1074933E-3,-7.1167476E-3,-1.3314375E-1,-5.3654145E-3,2.8752082E-3,-6.86297E-3,-5.801826E-3,2.4881938E-3,-6.1546993E-3,4.398954E-3,-5.079728E-3],"categories":[],"categories_nodes":[],"categories_segments":[],"categories_sizes":[],"default_left":[0,0,0,0,0,0,0,0,0,0,0,0,0,0,0,0,0,0,0,0,0,0,0,0,0,0,0,0,0,0,0,0,0,0,0,0,0,0,0,0,0,0,0],"id":13,"left_children":[1,3,5,7,9,-1,11,13,15,17,19,21,-1,-1,-1,23,25,27,29,31,33,-1,-1,35,37,-1,-1,-1,-1,-1,-1,39,-1,-1,41,-1,-1,-1,-1,-1,-1,-1,-1],"loss_changes":[1.6555786E0,1.1772919E0,2.2177718E0,1.0282745E0,2.0087156E0,0E0,2.377093E0,2.3735085E0,8.631439E-1,2.1888046E0,1.5987082E0,5.426481E-1,0E0,0E0,0E0,1.0837555E0,1.047686E0,1.7061296E0,1.3874626E0,1.983258E0,8.774433E-1,0E0,0E0,1.2158263E0,7.416382E-1,0E0,0E0,0E0,0E0,0E0,0E0,1.272084E0,0E0,0E0,1.1922375E0,0E0,0E0,0E0,0E0,0E0,0E0,0E0,0E0],"parents":[2147483647,0,0,1,1,2,2,3,3,4,4,6,6,7,7,8,8,9,9,10,10,11,11,15,15,16,16,17,17,18,18,19,19,20,20,23,23,24,24,31,31,34,34],"right_children":[2,4,6,8,10,-1,12,14,16,18,20,22,-1,-1,-1,24,26,28,30,32,34,-1,-1,36,38,-1,-1,-1,-1,-1,-1,40,-1,-1,42,-1,-1,-1,-1,-1,-1,-1,-1],"split_conditions":[2.3350048E0,1.4578282E0,1.9072485E-1,-1.539214E0,8.764099E-1,6.0855774E-3,2.519586E0,-9.893593E-2,1.6934335E0,-1.5587856E-1,-9.1577417E-1,1.545146E0,4.2022015E-3,-5.7550943E-3,6.052628E-3,-2.1212664E0,-1.6532063E0,8.891154E0,8.0323464E-1,-1.1389654E0,8.381407E-1,-6.659132E-3,1.0157498E-4,-1.7538391E0,-1.567258E-1,-4.740133E-3,4.3933196E-3,-6.151974E-3,4.3014195E-3,9.722066E-3,-1.0966671E-3,-1.7618799E0,6.1074933E-3,-7.1167476E-3,-2.5505555E-1,-5.3654145E-3,2.8752082E-3,-6.86297E-3,-5.801826E-3,2.4881938E-3,-6.1546993E-3,4.398954E-3,-5.079728E-3],"split_indices":[88,72,51,74,50,0,81,72,79,32,54,79,0,0,0,50,50,100,78,36,36,0,0,78,50,0,0,0,0,0,0,73,0,0,35,0,0,0,0,0,0,0,0],"split_type":[0,0,0,0,0,0,0,0,0,0,0,0,0,0,0,0,0,0,0,0,0,0,0,0,0,0,0,0,0,0,0,0,0,0,0,0,0,0,0,0,0,0,0],"sum_hessian":[4.7731998E2,4.6323843E2,1.4081563E1,4.1752747E2,4.5710953E1,1.7663355E0,1.23152275E1,5.275416E0,4.1225204E2,9.689475E0,3.602148E1,1.0104019E1,2.2112086E0,3.5046353E0,1.7707808E0,4.0917075E2,3.0813086E0,6.1689816E0,3.5204937E0,8.366363E0,2.7655115E1,8.786764E0,1.3172553E0,5.267091E0,4.0390366E2,1.7611227E0,1.3201859E0,4.837562E0,1.3314196E0,1.7639314E0,1.7565622E0,6.6028996E0,1.7634633E0,2.4144781E1,3.510334E0,2.6313555E0,2.6357355E0,1.9571985E2,2.081838E2,1.7635727E0,4.839327E0,1.3194965E0,2.1908374E0],"tree_param":{"num_deleted":"0","num_feature":"102","num_nodes":"43","size_leaf_vector":"1"}},{"base_weights":[3.250725E-1,7.063726E-1,2.3973346E-1,-3.1324604E-1,7.770707E-1,3.1557167E-1,-1.2922546E-1,-5.9592556E-3,4.211894E-3,1.1214745E0,5.792446E-1,-3.8003866E-4,3.9919558E-1,9.1737926E-1,-2.3566324E-1,9.4501924E-4,1.2053452E0,-5.6398404E-3,6.604586E-1,5.9773993E-1,-2.3696445E-1,5.731051E-1,1.9382383E-1,1.1647962E-2,-8.03018E-5,-5.8425593E-1,-2.6842969E-2,1.2666417E0,2.3389787E-3,-4.0665996E-1,7.61713E-1,-4.265205E-1,9.214195E-1,-6.4120877E-1,-4.3612007E-2,-9.834332E-2,7.0898587E-1,-4.9020104E-2,3.8732985E-1,-1.9655997E-1,-7.0211547E-3,-2.7244005E-1,4.4554576E-1,4.120775E-3,1.2987756E-2,-5.5062994E-3,-6.655543E-5,-5.4790587E-3,8.542149E-3,5.0843253E-5,-5.6699207E-3,3.1213553E-3,1.307331E-2,2.611132E-5,-6.9929827E-3,1.1128747E-2,-1.9321911E-3,9.551623E-3,-4.880324E-3,-3.4979521E-3,7.6850024E-3,7.2677E-3,-1.9300435E-3,5.2908794E-3,-4.7348174E-3,-5.830784E-3,4.0755738E-3,8.838735E-3,-4.6283086E-3,-5.474172E-3,7.292697E-3],"categories":[],"categories_nodes":[],"categories_segments":[],"categories_sizes":[],"default_left":[0,0,0,0,0,0,0,0,0,0,0,0,0,0,0,0,0,0,0,0,0,0,0,0,0,0,0,0,0,0,0,0,0,0,0,0,0,0,0,0,0,0,0,0,0,0,0,0,0,0,0,0,0,0,0,0,0,0,0,0,0,0,0,0,0,0,0,0,0,0,0],"id":14,"left_children":[1,3,5,7,9,11,13,-1,-1,15,17,19,21,23,25,-1,27,-1,29,31,33,35,37,-1,-1,39,41,43,-1,45,47,49,51,53,55,57,59,61,63,65,-1,67,69,-1,-1,-1,-1,-1,-1,-1,-1,-1,-1,-1,-1,-1,-1,-1,-1,-1,-1,-1,-1,-1,-1,-1,-1,-1,-1,-1,-1],"loss_changes":[1.5306484E1,6.4761505E0,1.0957182E1,1.5629162E0,4.8789215E0,8.558113E0,7.705221E0,0E0,0E0,2.3440094E0,5.3497944E0,9.875368E0,9.036507E0,1.4770408E0,4.4841995E0,0E0,1.2696037E0,0E0,5.7677097E0,6.9508605E0,3.8806071E0,1.2676067E1,5.608558E0,0E0,0E0,9.1797733E-1,4.728111E0,1.3784409E-1,0E0,2.859795E-1,6.09914E0,3.3230227E-1,3.2004747E0,6.041975E-1,6.253331E0,1.0373989E1,7.517662E0,6.1315966E0,8.342243E0,1.8199506E0,0E0,6.297117E0,4.332655E0,0E0,0E0,0E0,0E0,0E0,0E0,0E0,0E0,0E0,0E0,0E0,0E0,0E0,0E0,0E0,0E0,0E0,0E0,0E0,0E0,0E0,0E0,0E0,0E0,0E0,0E0,0E0,0E0],"parents":[2147483647,0,0,1,1,2,2,3,3,4,4,5,5,6,6,9,9,10,10,11,11,12,12,13,13,14,14,16,16,18,18,19,19,20,20,21,21,22,22,25,25,26,26,27,27,29,29,30,30,31,31,32,32,33,33,34,34,35,35,36,36,37,37,38,38,39,39,41,41,42,42],"right_children":[2,4,6,8,10,12,14,-1,-1,16,18,20,22,24,26,-1,28,-1,30,32,34,36,38,-1,-1,40,42,44,-1,46,48,50,52,54,56,58,60,62,64,66,-1,68,70,-1,-1,-1,-1,-1,-1,-1,-1,-1,-1,-1,-1,-1,-1,-1,-1,-1,-1,-1,-1,-1,-1,-1,-1,-1,-1,-1,-1],"split_conditions":[-1.2576444E0,-1.0887631E0,8.8645446E-1,1.3546336E0,-4.628764E-2,-6.935997E-1,-1.4167434E0,-5.9592556E-3,4.211894E-3,-1.090119E0,-1.2889183E0,-5.5496556E-1,2.348593E-1,1.4590342E0,-5.0546217E-1,9.4501924E-4,1.2744399E0,-5.6398404E-3,-8.7869984E-1,-9.385578E-1,8.0612466E-2,-1.3262447E0,-1.7487504E-1,1.1647962E-2,-8.03018E-5,-8.0135304E-1,-7.3659855E-1,-1.2510729E0,2.3389787E-3,2.778793E-2,-6.635267E-1,-1.051651E0,-2.1086795E0,-1.0117427E0,1.8305889E-1,-1.4875196E0,-1.5085158E0,-8.98515E-1,1.935376E0,-9.5340204E-1,-7.0211547E-3,-3.9262962E-1,-8.5737896E-1,4.120775E-3,1.2987756E-2,-5.5062994E-3,-6.655543E-5,-5.4790587E-3,8.542149E-3,5.0843253E-5,-5.6699207E-3,3.1213553E-3,1.307331E-2,2.611132E-5,-6.9929827E-3,1.1128747E-2,-1.9321911E-3,9.551623E-3,-4.880324E-3,-3.4979521E-3,7.6850024E-3,7.2677E-3,-1.9300435E-3,5.2908794E-3,-4.7348174E-3,-5.830784E-3,4.0755738E-3,8.838735E-3,-4.6283086E-3,-5.474172E-3,7.292697E-3],"split_indices":[35,42,70,79,42,57,83,0,0,40,85,81,40,40,85,0,70,0,74,62,54,85,64,0,0,74,73,74,0,85,57,36,57,88,62,54,74,83,41,74,0,66,74,0,0,0,0,0,0,0,0,0,0,0,0,0,0,0,0,0,0,0,0,0,0,0,0,0,0,0,0],"split_type":[0,0,0,0,0,0,0,0,0,0,0,0,0,0,0,0,0,0,0,0,0,0,0,0,0,0,0,0,0,0,0,0,0,0,0,0,0,0,0,0,0,0,0,0,0,0,0,0,0,0,0,0,0,0,0,0,0,0,0,0,0,0,0,0,0,0,0,0,0,0,0],"sum_hessian":[4.7459714E2,8.5463524E1,3.8913364E2,5.319154E0,8.014437E1,3.229061E2,6.6227516E1,3.977018E0,1.3421354E0,2.7536297E1,5.2608074E1,6.778672E1,2.5511938E2,5.410179E0,6.0817333E1,2.239616E0,2.529668E1,3.0950768E0,4.9512997E1,1.8780453E1,4.900627E1,1.3717151E2,1.17947876E2,4.0647483E0,1.345431E0,2.2110098E1,3.8707237E1,2.3509409E1,1.7872716E0,4.029537E0,4.548346E1,4.4334373E0,1.4347015E1,1.510655E1,3.389972E1,2.3133696E1,1.1403782E2,5.26369E1,6.5310974E1,5.7764277E0,1.633367E1,2.574537E1,1.2961865E1,1.3529518E0,2.2156458E1,2.6861687E0,1.3433684E0,2.6758773E0,4.2807583E1,1.3252764E0,3.108161E0,6.2648253E0,8.08219E0,1.3292458E0,1.3777305E1,3.1455407E0,3.075418E1,5.854702E0,1.7278994E1,5.809387E0,1.0822843E2,7.606321E0,4.5030582E1,5.640722E1,8.903755E0,3.5438647E0,2.232563E0,3.1248133E0,2.2620558E1,2.6740298E0,1.0287836E1],"tree_param":{"num_deleted":"0","num_feature":"102","num_nodes":"71","size_leaf_vector":"1"}},{"base_weights":[2.681976E-1,-3.2280204E-1,3.102528E-1,5.5892783E-1,-5.955757E-1,5.49418E-1,2.0337658E-1,-5.1309364E-3,1.0418129E-2,4.1808174E-3,-6.701751E-1,-4.135879E-1,6.294226E-1,8.930295E-2,5.4318535E-1,-7.1017607E-3,7.3022486E-5,4.1234023E-3,-6.6427714E-3,5.023098E-1,1.0897692E0,-6.514452E-2,3.7976575E-1,3.6871007E-1,1.1810223E0,-2.7793387E-1,6.0088545E-1,1.1835699E0,-1.3466569E-3,-1.5288234E-1,7.6144826E-1,6.091658E-1,-1.674171E-2,1.9191557E-1,1.1525474E0,-9.530953E-5,1.2886578E0,3.9596995E-3,-5.562085E-3,1.2245107E-2,4.025448E-3,1.2828815E-2,3.7885613E-3,-3.4569933E-3,1.1140524E-3,-2.7439413E-3,1.009025E-2,8.119681E-3,7.4937847E-4,-3.8298648E-3,4.80611E-3,-4.3226266E-3,4.262957E-3,1.3099765E-2,-9.963844E-5,1.3452298E-2,4.1265455E-3],"categories":[],"categories_nodes":[],"categories_segments":[],"categories_sizes":[],"default_left":[0,0,0,0,0,0,0,0,0,0,0,0,0,0,0,0,0,0,0,0,0,0,0,0,0,0,0,0,0,0,0,0,0,0,0,0,0,0,0,0,0,0,0,0,0,0,0,0,0,0,0,0,0,0,0,0,0],"id":15,"left_children":[1,3,5,7,9,11,13,-1,-1,-1,15,17,19,21,23,-1,-1,-1,-1,25,27,29,31,33,35,37,39,41,-1,43,45,47,49,51,53,-1,55,-1,-1,-1,-1,-1,-1,-1,-1,-1,-1,-1,-1,-1,-1,-1,-1,-1,-1,-1,-1],"loss_changes":[1.2042629E1,8.127975E0,1.1367306E1,4.7656326E0,2.1885567E0,1.0901257E1,1.2044446E1,0E0,0E0,0E0,6.526289E-1,2.59237E0,6.9377213E0,1.055635E1,8.268305E0,0E0,0E0,0E0,0E0,8.019266E0,3.2400837E0,1.1293585E1,7.436219E0,8.490581E0,2.1067924E0,2.4959817E0,1.0757637E1,1.5132332E0,0E0,7.1810436E0,4.112383E0,5.5454597E0,5.811776E0,7.8640947E0,2.0939054E0,0E0,1.8808937E-1,0E0,0E0,0E0,0E0,0E0,0E0,0E0,0E0,0E0,0E0,0E0,0E0,0E0,0E0,0E0,0E0,0E0,0E0,0E0,0E0],"parents":[2147483647,0,0,1,1,2,2,3,3,4,4,5,5,6,6,10,10,11,11,12,12,13,13,14,14,19,19,20,20,21,21,22,22,23,23,24,24,25,25,26,26,27,27,29,29,30,30,31,31,32,32,33,33,34,34,36,36],"right_children":[2,4,6,8,10,12,14,-1,-1,-1,16,18,20,22,24,-1,-1,-1,-1,26,28,30,32,34,36,38,40,42,-1,44,46,48,50,52,54,-1,56,-1,-1,-1,-1,-1,-1,-1,-1,-1,-1,-1,-1,-1,-1,-1,-1,-1,-1,-1,-1],"split_conditions":[-1.2683579E0,-1.4923489E0,-5.8775634E-1,-1.4590459E0,-1.571272E0,-1.7417741E0,1.0099832E0,-5.1309364E-3,1.0418129E-2,4.1808174E-3,5.9341626E0,-3.484183E-1,-6.1307997E-1,7.052504E-1,6.171477E-1,-7.1017607E-3,7.3022486E-5,4.1234023E-3,-6.6427714E-3,-1.421947E0,1.5683185E-1,1.1335647E0,1.7092074E0,6.435801E-1,-1.0243628E0,-5.977071E-1,-1.2704539E0,1.1487897E-1,-1.3466569E-3,4.8439932E-1,-9.107106E-1,2.803925E-1,1.3626117E0,-3.0009308E-1,-1.02935806E-1,-9.530953E-5,1.4341253E0,3.9596995E-3,-5.562085E-3,1.2245107E-2,4.025448E-3,1.2828815E-2,3.7885613E-3,-3.4569933E-3,1.1140524E-3,-2.7439413E-3,1.009025E-2,8.119681E-3,7.4937847E-4,-3.8298648E-3,4.80611E-3,-4.3226266E-3,4.262957E-3,1.3099765E-2,-9.963844E-5,1.3452298E-2,4.1265455E-3],"split_indices":[66,74,85,85,54,48,35,0,0,0,18,57,62,37,40,0,0,0,0,72,61,70,85,36,88,88,85,33,0,86,36,50,69,78,32,0,88,0,0,0,0,0,0,0,0,0,0,0,0,0,0,0,0,0,0,0,0],"split_type":[0,0,0,0,0,0,0,0,0,0,0,0,0,0,0,0,0,0,0,0,0,0,0,0,0,0,0,0,0,0,0,0,0,0,0,0,0,0,0,0,0,0,0,0,0,0,0,0,0,0,0,0,0,0,0,0,0],"sum_hessian":[4.794935E2,3.1410316E1,4.480832E2,7.173432E0,2.4236885E1,1.3711336E2,3.1096982E2,2.2083223E0,4.96511E0,1.3457983E0,2.2891087E1,1.0197524E1,1.2691583E2,2.3375966E2,7.721018E1,2.1569283E1,1.3218044E0,2.2243361E0,7.973188E0,1.0109282E2,2.5823008E1,1.5311807E2,8.064158E1,6.1865437E1,1.5344745E1,1.1135313E1,8.995751E1,2.4016539E1,1.806468E0,1.3916193E2,1.3956151E1,5.0746048E1,2.9895533E1,5.1495472E1,1.0369963E1,1.3478348E0,1.399691E1,3.1306949E0,8.004618E0,2.0458336E1,6.9499176E1,2.0849274E1,3.1672647E0,8.028219E1,5.8879734E1,2.6713028E0,1.1284848E1,3.640585E1,1.4340197E1,1.7349508E1,1.2546025E1,1.3827401E1,3.766807E1,9.021417E0,1.3485458E0,1.2644675E1,1.3522348E0],"tree_param":{"num_deleted":"0","num_feature":"102","num_nodes":"57","size_leaf_vector":"1"}},{"base_weights":[-5.930992E-1,-5.9670436E-1,1.0966616E-3,-2.6408902E-1,-6.058812E-1,1.4561945E-1,-6.4078146E-3,-6.9201654E-1,-5.7920897E-1,-1.4577094E-1,8.712005E-3,-7.011002E-1,-1.9435877E-3,4.261899E-3,-5.8683723E-1,4.286234E-3,-5.602911E-3,-3.5181028E-1,-7.1024694E-3,-2.3336121E-1,-6.0352737E-1,-5.071934E-3,1.5040301E-4,-5.886951E-3,4.1073887E-3,-4.248351E-3,-6.2420806E-3],"categories":[],"categories_nodes":[],"categories_segments":[],"categories_sizes":[],"default_left":[0,0,0,0,0,0,0,0,0,0,0,0,0,0,0,0,0,0,0,0,0,0,0,0,0,0,0],"id":16,"left_children":[1,3,-1,5,7,9,-1,11,13,15,-1,17,-1,-1,19,-1,-1,21,-1,23,25,-1,-1,-1,-1,-1,-1],"loss_changes":[1.2393188E0,1.2474518E0,0E0,2.277608E0,6.283264E-1,1.7326288E0,0E0,3.1932068E-1,2.920433E0,1.7342076E0,0E0,6.510925E-2,0E0,0E0,1.9002533E0,0E0,0E0,2.639916E-1,0E0,4.185198E0,9.53392E-1,0E0,0E0,0E0,0E0,0E0,0E0],"parents":[2147483647,0,0,1,1,3,3,4,4,5,5,7,7,8,8,9,9,11,11,14,14,17,17,19,19,20,20],"right_children":[2,4,-1,6,8,10,-1,12,14,16,-1,18,-1,-1,20,-1,-1,22,-1,24,26,-1,-1,-1,-1,-1,-1],"split_conditions":[2.949016E0,-1.4802444E0,1.0966616E-3,-1.5878804E-1,-8.084497E-1,-3.622022E-2,-6.4078146E-3,5.315073E0,-9.577252E-1,-2.9390308E-1,8.712005E-3,-1.6197433E-1,-1.9435877E-3,4.261899E-3,-9.561036E-1,4.286234E-3,-5.602911E-3,-8.7451935E-1,-7.1024694E-3,-9.843785E-1,-1.1093163E0,-5.071934E-3,1.5040301E-4,-5.886951E-3,4.1073887E-3,-4.248351E-3,-6.2420806E-3],"split_indices":[75,74,0,32,84,46,0,30,83,51,0,32,0,0,62,0,0,36,0,42,35,0,0,0,0,0,0],"split_type":[0,0,0,0,0,0,0,0,0,0,0,0,0,0,0,0,0,0,0,0,0,0,0,0,0,0,0],"sum_hessian":[4.623195E2,4.6011002E2,2.2094643E0,1.315305E1,4.4695697E2,6.5942545E0,6.5587955E0,9.978049E1,3.4717648E2,5.274953E0,1.3193018E0,9.7590385E1,2.1900942E0,2.201124E0,3.4497537E2,2.196824E0,3.0781288E0,3.4974132E0,9.409298E1,1.6229815E1,3.2874554E2,2.1880727E0,1.3093405E0,1.0514981E1,5.7148333E0,3.6335003E1,2.9241055E2],"tree_param":{"num_deleted":"0","num_feature":"102","num_nodes":"27","size_leaf_vector":"1"}},{"base_weights":[3.070374E-1,3.367924E-1,-3.2329202E-1,3.0642268E-1,9.9673676E-1,2.8448978E-1,-4.5113665E-1,2.2313939E-1,4.837011E-1,-5.0994693E-3,1.2071881E0,9.407287E-3,-4.795797E-3,4.2467527E-3,-5.403911E-1,-1.5051644E-1,2.6659828E-1,1.7869563E-1,6.794809E-1,1.304187E0,-5.2451225E-5,-6.272076E-1,-1.4977513E-1,-4.6140143E-1,3.083444E-1,5.595275E-1,1.831259E-1,1.1547719E0,1.6078683E-2,8.055752E-1,1.8107253E-1,1.3550691E-2,4.1437205E-3,-6.9174217E-3,1.5075307E-5,-5.1598474E-3,4.157338E-3,8.772455E-4,-6.9219302E-3,6.0980767E-3,-5.637768E-3,6.412966E-3,-1.9401655E-3,8.257449E-3,1.4559644E-3,4.0824837E-3,1.2429206E-2,1.1520792E-2,-1.0893409E-3,3.693567E-3,9.872379E-3,-6.2748888E-3,5.098069E-3],"categories":[],"categories_nodes":[],"categories_segments":[],"categories_sizes":[],"default_left":[0,0,0,0,0,0,0,0,0,0,0,0,0,0,0,0,0,0,0,0,0,0,0,0,0,0,0,0,0,0,0,0,0,0,0,0,0,0,0,0,0,0,0,0,0,0,0,0,0,0,0,0,0],"id":17,"left_children":[1,3,5,7,9,11,13,15,17,-1,19,-1,-1,-1,21,23,25,27,29,31,-1,33,35,37,39,41,43,45,47,49,51,-1,-1,-1,-1,-1,-1,-1,-1,-1,-1,-1,-1,-1,-1,-1,-1,-1,-1,-1,-1,-1,-1],"loss_changes":[9.383472E0,9.168591E0,1.9000292E0,6.585449E0,7.068924E0,2.7455568E0,1.7323303E0,5.0789986E0,8.480202E0,0E0,2.141922E0,0E0,0E0,0E0,5.1265097E-1,4.845421E0,6.7031612E0,9.135424E0,5.3453827E0,1.9975853E-1,0E0,5.8209705E-1,1.1601764E0,2.60226E0,4.0022264E0,3.897667E0,5.139585E0,3.3626556E-2,7.2900653E0,5.138397E0,5.3520904E0,0E0,0E0,0E0,0E0,0E0,0E0,0E0,0E0,0E0,0E0,0E0,0E0,0E0,0E0,0E0,0E0,0E0,0E0,0E0,0E0,0E0,0E0],"parents":[2147483647,0,0,1,1,2,2,3,3,4,4,5,5,6,6,7,7,8,8,10,10,14,14,15,15,16,16,17,17,18,18,19,19,21,21,22,22,23,23,24,24,25,25,26,26,27,27,28,28,29,29,30,30],"right_children":[2,4,6,8,10,12,14,16,18,-1,20,-1,-1,-1,22,24,26,28,30,32,-1,34,36,38,40,42,44,46,48,50,52,-1,-1,-1,-1,-1,-1,-1,-1,-1,-1,-1,-1,-1,-1,-1,-1,-1,-1,-1,-1,-1,-1],"split_conditions":[1.8889043E0,1.6094062E0,-1.2072423E0,7.767287E-1,-1.1272159E0,3.133654E-1,-2.2956225E-1,-1.0887631E0,-6.6399693E-1,-5.0994693E-3,2.0381136E0,9.407287E-3,-4.795797E-3,4.2467527E-3,1.5634524E0,6.794878E-2,-4.6187196E-2,-1.9834939E0,7.020458E-1,1.6496708E0,-5.2451225E-5,1.7880261E0,-1.5465084E-1,-1.638476E0,1.2443371E0,1.2123426E0,-1.53323E0,-1.4124357E0,-1.2499589E0,-7.0415205E-1,1.5301538E-1,1.3550691E-2,4.1437205E-3,-6.9174217E-3,1.5075307E-5,-5.1598474E-3,4.157338E-3,8.772455E-4,-6.9219302E-3,6.0980767E-3,-5.637768E-3,6.412966E-3,-1.9401655E-3,8.257449E-3,1.4559644E-3,4.0824837E-3,1.2429206E-2,1.1520792E-2,-1.0893409E-3,3.693567E-3,9.872379E-3,-6.2748888E-3,5.098069E-3],"split_indices":[72,78,35,79,49,88,70,42,69,0,77,0,0,0,77,62,40,57,67,39,0,42,32,47,54,78,83,78,46,62,64,0,0,0,0,0,0,0,0,0,0,0,0,0,0,0,0,0,0,0,0,0,0],"split_type":[0,0,0,0,0,0,0,0,0,0,0,0,0,0,0,0,0,0,0,0,0,0,0,0,0,0,0,0,0,0,0,0,0,0,0,0,0,0,0,0,0,0,0,0,0,0,0,0,0,0,0,0,0],"sum_hessian":[4.9350128E2,4.7170016E2,2.180113E1,4.5234805E2,1.935211E1,3.5758803E0,1.822525E1,3.0930084E2,1.430472E2,2.197371E0,1.715474E1,1.7993007E0,1.7765797E0,1.3380053E0,1.6887245E1,3.1969175E1,2.7733167E2,5.667145E1,8.637574E1,1.5813894E1,1.3408452E0,1.3320911E1,3.566333E0,1.9054163E1,1.2915013E1,6.023746E1,2.1709422E2,7.221948E0,4.94495E1,6.8443634E1,1.793211E1,1.4463941E1,1.3499535E0,1.1989953E1,1.3309586E0,2.2177482E0,1.3485848E0,5.821908E0,1.3232255E1,9.820998E0,3.0940154E0,5.447517E1,5.762289E0,1.0820009E1,2.0627422E2,1.3574221E0,5.8645263E0,4.087786E0,4.5361717E1,2.101484E1,4.742879E1,4.9205723E0,1.3011537E1],"tree_param":{"num_deleted":"0","num_feature":"102","num_nodes":"53","size_leaf_vector":"1"}},{"base_weights":[2.5077915E-1,-4.4020256E-1,2.991614E-1,5.210712E-1,-5.4723936E-1,6.401004E-1,2.0779388E-1,8.250243E-3,-7.7031786E-5,5.7607014E-3,-6.424528E-1,1.2354753E0,5.4815507E-1,1.1951587E-1,5.415347E-1,-7.1258936E-3,1.0653859E-3,1.3038934E-2,4.0668356E-3,2.421513E-1,7.490456E-1,7.9094255E-1,5.28929E-2,3.7517166E-1,1.0675081E0,-6.3443673E-3,4.2359173E-1,3.0691704E-1,9.2494386E-1,-5.719989E-2,1.0440346E0,-3.9583754E-2,6.5886664E-1,1.4715746E-1,8.1913173E-1,1.3040934E-2,6.120934E-1,6.3035088E-3,-3.5196017E-3,-2.3169066E-3,6.8268506E-3,1.0566738E-2,-3.2888288E-3,-5.4376614E-3,3.8538822E-3,1.17601035E-2,-4.3413816E-3,-8.5336965E-4,8.692919E-3,-5.637146E-3,7.979236E-3,-9.1882696E-4,6.8616956E-3,1.2586781E-2,-1.1914297E-4,-2.8683494E-3,1.1456048E-2],"categories":[],"categories_nodes":[],"categories_segments":[],"categories_sizes":[],"default_left":[0,0,0,0,0,0,0,0,0,0,0,0,0,0,0,0,0,0,0,0,0,0,0,0,0,0,0,0,0,0,0,0,0,0,0,0,0,0,0,0,0,0,0,0,0,0,0,0,0,0,0,0,0,0,0,0,0],"id":18,"left_children":[1,3,5,7,9,11,13,-1,-1,-1,15,17,19,21,23,-1,-1,-1,-1,25,27,29,31,33,35,-1,37,39,41,43,45,47,49,51,53,-1,55,-1,-1,-1,-1,-1,-1,-1,-1,-1,-1,-1,-1,-1,-1,-1,-1,-1,-1,-1,-1],"loss_changes":[1.6225956E1,3.5681386E0,1.39006195E1,6.024941E-1,3.4929533E0,4.508667E0,1.0446525E1,0E0,0E0,0E0,1.5147305E0,1.4311028E-1,4.973654E0,1.2636528E1,6.105028E0,0E0,0E0,0E0,0E0,5.789648E0,3.6159592E0,5.5362816E0,1.4535193E1,5.753149E0,1.0682354E0,0E0,4.9296427E0,3.3496456E0,6.190666E0,1.6764271E0,4.3539505E0,9.454537E0,6.287467E0,5.1594157E0,7.126914E0,0E0,4.0727663E0,0E0,0E0,0E0,0E0,0E0,0E0,0E0,0E0,0E0,0E0,0E0,0E0,0E0,0E0,0E0,0E0,0E0,0E0,0E0,0E0],"parents":[2147483647,0,0,1,1,2,2,3,3,4,4,5,5,6,6,10,10,11,11,12,12,13,13,14,14,19,19,20,20,21,21,22,22,23,23,24,24,26,26,27,27,28,28,29,29,30,30,31,31,32,32,33,33,34,34,36,36],"right_children":[2,4,6,8,10,12,14,-1,-1,-1,16,18,20,22,24,-1,-1,-1,-1,26,28,30,32,34,36,-1,38,40,42,44,46,48,50,52,54,-1,56,-1,-1,-1,-1,-1,-1,-1,-1,-1,-1,-1,-1,-1,-1,-1,-1,-1,-1,-1,-1],"split_conditions":[-1.2683579E0,-1.5540744E0,-7.208925E-1,-1.471397E0,-1.571272E0,-7.626125E-1,1.0099832E0,8.250243E-3,-7.7031786E-5,5.7607014E-3,3.2849197E0,7.3728323E-1,4.1517717E-1,-1.3262447E0,6.171477E-1,-7.1258936E-3,1.0653859E-3,1.3038934E-2,4.0668356E-3,-2.2462624E-1,-1.7175987E0,-4.5194066E-1,1.1938083E0,4.4619134E-1,9.8396164E-1,-6.3443673E-3,8.3936465E-1,-7.001234E-1,4.5893016E-1,-6.8499297E-1,8.891154E0,2.369241E0,-1.4274187E0,5.339796E-1,4.484624E-1,1.3040934E-2,1.6956451E0,6.3035088E-3,-3.5196017E-3,-2.3169066E-3,6.8268506E-3,1.0566738E-2,-3.2888288E-3,-5.4376614E-3,3.8538822E-3,1.17601035E-2,-4.3413816E-3,-8.5336965E-4,8.692919E-3,-5.637146E-3,7.979236E-3,-9.1882696E-4,6.8616956E-3,1.2586781E-2,-1.1914297E-4,-2.8683494E-3,1.1456048E-2],"split_indices":[66,74,57,66,54,73,35,0,0,0,22,71,73,85,40,0,0,0,0,77,57,49,70,77,40,0,84,78,70,77,100,64,35,46,85,0,76,0,0,0,0,0,0,0,0,0,0,0,0,0,0,0,0,0,0,0,0],"split_type":[0,0,0,0,0,0,0,0,0,0,0,0,0,0,0,0,0,0,0,0,0,0,0,0,0,0,0,0,0,0,0,0,0,0,0,0,0,0,0,0,0,0,0,0,0,0,0,0,0,0,0,0,0,0,0,0,0],"sum_hessian":[4.80414E2,3.0907217E1,4.495068E2,2.7091146E0,2.8198101E1,9.373347E1,3.5577332E2,1.3645041E0,1.3446103E0,1.8087308E0,2.6389372E1,1.087532E1,8.285815E1,2.824266E2,7.3346725E1,2.417426E1,2.215112E0,9.516472E0,1.3588483E0,3.3712086E1,4.914606E1,2.4512957E1,2.5791364E2,5.702368E1,1.6323048E1,5.353106E0,2.8358978E1,1.4768808E1,3.4377254E1,5.811594E0,1.8701363E1,2.2457613E2,3.3337513E1,3.855409E1,1.8469593E1,9.516009E0,6.807038E0,2.253773E1,5.8212485E0,6.2268972E0,8.541911E0,3.1251171E1,3.1260834E0,2.659369E0,3.152225E0,1.7356169E1,1.3451952E0,2.1467537E2,9.900749E0,3.0927124E0,3.02448E1,2.7283834E1,1.1270252E1,1.1743695E1,6.725898E0,2.707485E0,4.0995526E0],"tree_param":{"num_deleted":"0","num_feature":"102","num_nodes":"57","size_leaf_vector":"1"}},{"base_weights":[-5.9334683E-1,-5.998362E-1,-1.1920495E-1,-4.2185855E-1,-6.1531657E-1,4.189208E-3,-4.1797525E-1,-5.587632E-1,1.1134398E-2,-6.2077945E-1,-1.8167566E-1,-5.584539E-3,8.7106055E-5,4.449288E-3,-6.072386E-1,-6.2636286E-1,-1.8451157E-1,4.270572E-3,-5.7429248E-3,-1.822946E-1,-6.531048E-1,-6.3617146E-1,-3.9966017E-1,4.230692E-3,-5.7586525E-3,-5.326446E-3,4.435952E-3,-6.8154987E-3,1.1328621E-4,1.1070792E-4,-6.3836533E-3,2.171703E-3,-5.6669316E-3],"categories":[],"categories_nodes":[],"categories_segments":[],"categories_sizes":[],"default_left":[0,0,0,0,0,0,0,0,0,0,0,0,0,0,0,0,0,0,0,0,0,0,0,0,0,0,0,0,0,0,0,0,0],"id":19,"left_children":[1,3,5,7,9,-1,11,13,-1,15,17,-1,-1,-1,19,21,23,-1,-1,25,27,29,31,-1,-1,-1,-1,-1,-1,-1,-1,-1,-1],"loss_changes":[1.3766022E0,1.0189362E0,1.397394E0,9.095524E0,8.933716E-1,0E0,3.2788074E-1,2.1033983E0,0E0,9.0512085E-1,1.8460106E0,0E0,0E0,0E0,5.897236E-1,6.6482544E-1,1.839749E0,0E0,0E0,1.3173081E0,6.207485E-1,5.672302E-1,2.166274E0,0E0,0E0,0E0,0E0,0E0,0E0,0E0,0E0,0E0,0E0],"parents":[2147483647,0,0,1,1,2,2,3,3,4,4,6,6,7,7,9,9,10,10,14,14,15,15,16,16,19,19,20,20,21,21,22,22],"right_children":[2,4,6,8,10,-1,12,14,-1,16,18,-1,-1,-1,20,22,24,-1,-1,26,28,30,32,-1,-1,-1,-1,-1,-1,-1,-1,-1,-1],"split_conditions":[2.8130019E0,-1.2510729E0,-8.938144E-1,4.0723196E-1,1.9680774E0,4.189208E-3,4.5486304E-1,-8.109552E-1,1.1134398E-2,8.891154E0,1.087091E0,-5.584539E-3,8.7106055E-5,4.449288E-3,-5.5587596E-1,4.977917E0,-1.6933207E-1,4.270572E-3,-5.7429248E-3,8.441408E-2,3.0355394E-1,-1.705137E-1,-5.5587596E-1,4.230692E-3,-5.7586525E-3,-5.326446E-3,4.435952E-3,-6.8154987E-3,1.1328621E-4,1.1070792E-4,-6.3836533E-3,2.171703E-3,-5.6669316E-3],"split_indices":[61,74,38,86,76,0,50,71,0,100,49,0,0,0,49,19,33,0,0,70,39,33,49,0,0,0,0,0,0,0,0,0,0],"split_type":[0,0,0,0,0,0,0,0,0,0,0,0,0,0,0,0,0,0,0,0,0,0,0,0,0,0,0,0,0,0,0,0,0],"sum_hessian":[4.6964398E2,4.630415E2,6.6024747E0,3.9313023E1,4.237285E2,2.2135038E0,4.3889704E0,3.6678413E1,2.6346087E0,4.1803073E2,5.697754E0,3.0695565E0,1.319414E0,1.3130499E0,3.5365364E1,4.123181E2,5.7126117E0,2.1996245E0,3.4981294E0,3.929893E0,3.143547E1,3.9348715E2,1.8830967E1,2.2062871E0,3.5063245E0,2.6150594E0,1.3148336E0,3.0120228E1,1.3152436E0,1.3156012E0,3.9217157E2,3.9487178E0,1.488225E1],"tree_param":{"num_deleted":"0","num_feature":"102","num_nodes":"33","size_leaf_vector":"1"}},{"base_weights":[2.7459762E-1,-4.3973975E-2,3.719883E-1,1.2458002E-2,-1.4413825E-1,4.152104E-1,-2.8942513E-1,-3.3674368E-1,1.0209866E-1,-1.24136336E-1,4.64566E-1,6.8719834E-3,-4.280263E-1,-1.8470528E-2,-5.011521E-1,6.231043E-1,-2.9227E-1,5.570331E-1,-4.6582943E-1,6.640299E-1,2.6408732E-1,4.251255E-3,-5.077369E-1,3.6964974E-1,-5.5859524E-1,-8.0463E-2,-5.9824073E-1,-5.6913565E-3,8.655731E-1,-6.8492442E-3,-3.8232546E-2,1.0000305E0,-5.4151295E-3,1.1975924E-1,-6.3618165E-1,8.012303E-1,2.3619331E-1,3.809091E-1,-2.0609023E-1,-6.430043E-1,1.5795444E-1,-2.3850685E-3,9.6168155E-3,-6.5179635E-3,4.0847066E-5,8.337776E-3,-3.679593E-3,-6.562507E-3,4.093358E-3,1.1589766E-2,2.3067268E-3,-6.524166E-3,4.2212824E-3,1.2147685E-2,-1.2987402E-4,9.423028E-3,-5.425363E-3,-6.938909E-3,-8.723993E-6,5.424376E-3,1.1108684E-2,1.0850908E-4,1.0457711E-2,9.252726E-3,2.8878667E-3,-4.8786136E-3,3.395454E-3,-6.9780294E-3,-1.2083908E-3,5.904607E-3,-4.2751287E-3],"categories":[],"categories_nodes":[],"categories_segments":[],"categories_sizes":[],"default_left":[0,0,0,0,0,0,0,0,0,0,0,0,0,0,0,0,0,0,0,0,0,0,0,0,0,0,0,0,0,0,0,0,0,0,0,0,0,0,0,0,0,0,0,0,0,0,0,0,0,0,0,0,0,0,0,0,0,0,0,0,0,0,0,0,0,0,0,0,0,0,0],"id":20,"left_children":[1,3,5,-1,7,9,11,13,15,17,19,-1,21,23,25,27,29,31,33,35,37,-1,39,41,43,45,47,-1,49,-1,51,53,-1,55,57,59,61,63,65,67,69,-1,-1,-1,-1,-1,-1,-1,-1,-1,-1,-1,-1,-1,-1,-1,-1,-1,-1,-1,-1,-1,-1,-1,-1,-1,-1,-1,-1,-1,-1],"loss_changes":[1.4985153E1,1.4888362E1,1.0686367E1,0E0,5.087496E0,9.303936E0,3.4427469E0,3.1312027E0,9.947986E0,7.221036E0,1.2558342E1,0E0,1.6430173E0,4.7095532E0,1.566658E0,6.504491E0,2.740187E0,5.625588E0,2.1174917E0,9.141701E0,8.892869E0,0E0,1.870853E0,4.946322E0,4.9456072E-1,2.5590072E0,2.1370735E0,0E0,3.0258417E0,0E0,5.336024E0,1.7116861E0,0E0,3.4818017E0,5.863738E-1,9.008873E0,7.28896E0,6.196312E0,5.1755247E0,3.8859606E-1,1.2959651E0,0E0,0E0,0E0,0E0,0E0,0E0,0E0,0E0,0E0,0E0,0E0,0E0,0E0,0E0,0E0,0E0,0E0,0E0,0E0,0E0,0E0,0E0,0E0,0E0,0E0,0E0,0E0,0E0,0E0,0E0],"parents":[2147483647,0,0,1,1,2,2,4,4,5,5,6,6,7,7,8,8,9,9,10,10,12,12,13,13,14,14,15,15,16,16,17,17,18,18,19,19,20,20,22,22,23,23,24,24,25,25,26,26,28,28,30,30,31,31,33,33,34,34,35,35,36,36,37,37,38,38,39,39,40,40],"right_children":[2,4,6,-1,8,10,12,14,16,18,20,-1,22,24,26,28,30,32,34,36,38,-1,40,42,44,46,48,-1,50,-1,52,54,-1,56,58,60,62,64,66,68,70,-1,-1,-1,-1,-1,-1,-1,-1,-1,-1,-1,-1,-1,-1,-1,-1,-1,-1,-1,-1,-1,-1,-1,-1,-1,-1,-1,-1,-1,-1],"split_conditions":[-6.635267E-1,-1.2683579E0,1.8017474E0,1.2458002E-2,-5.335564E-1,-1.3262447E0,-1.290683E0,-1.7427686E0,2.688886E-1,-1.548443E0,3.189352E-1,6.8719834E-3,-7.205364E-2,-7.4392486E-1,-1.282083E0,-4.287443E-1,3.7831664E-1,1.1161139E0,-1.6646582E0,5.336554E-1,9.8399836E-1,4.251255E-3,2.0646975E0,-1.3366672E0,2.0646975E0,-1.0629212E0,-5.2793384E-1,-5.6913565E-3,6.0409E-1,-6.8492442E-3,-2.5255573E0,-2.4618003E-1,-5.4151295E-3,-9.441661E-2,-1.0225459E-1,4.5338514E-1,1.3941206E0,-1.1556349E0,5.4600346E-1,7.049823E0,1.2646201E0,-2.3850685E-3,9.6168155E-3,-6.5179635E-3,4.0847066E-5,8.337776E-3,-3.679593E-3,-6.562507E-3,4.093358E-3,1.1589766E-2,2.3067268E-3,-6.524166E-3,4.2212824E-3,1.2147685E-2,-1.2987402E-4,9.423028E-3,-5.425363E-3,-6.938909E-3,-8.723993E-6,5.424376E-3,1.1108684E-2,1.0850908E-4,1.0457711E-2,9.252726E-3,2.8878667E-3,-4.8786136E-3,3.395454E-3,-6.9780294E-3,-1.2083908E-3,5.904607E-3,-4.2751287E-3],"split_indices":[57,66,72,0,85,85,62,57,54,62,40,0,77,72,54,84,51,70,77,65,35,0,9,76,9,71,49,0,35,0,58,58,0,41,33,79,85,52,62,92,58,0,0,0,0,0,0,0,0,0,0,0,0,0,0,0,0,0,0,0,0,0,0,0,0,0,0,0,0,0,0],"split_type":[0,0,0,0,0,0,0,0,0,0,0,0,0,0,0,0,0,0,0,0,0,0,0,0,0,0,0,0,0,0,0,0,0,0,0,0,0,0,0,0,0,0,0,0,0,0,0,0,0,0,0,0,0,0,0,0,0,0,0,0,0,0,0,0,0,0,0,0,0,0,0],"sum_hessian":[4.814612E2,1.1285458E2,3.6860663E2,7.308497E0,1.0554609E2,3.4634583E2,2.2260794E1,5.9016266E1,4.6529823E1,2.890989E1,3.1743594E2,2.2746763E0,1.9986118E1,2.0480688E1,3.8535576E1,1.979646E1,2.6733366E1,9.446987E0,1.9462902E1,1.5796162E2,1.594743E2,1.3374858E0,1.8648632E1,1.2100902E1,8.3797865E0,7.568726E0,3.096685E1,3.1179552E0,1.6678503E1,9.83527E0,1.6898096E1,6.7960887E0,2.6508982E0,4.452916E0,1.5009986E1,1.18945076E2,3.901655E1,1.2788857E2,3.158573E1,1.5527541E1,3.1210904E0,6.26372E0,5.8371816E0,7.0531416E0,1.326645E0,1.35612E0,6.212606E0,2.9610733E1,1.3561163E0,1.0842476E1,5.8360276E0,7.060817E0,9.837279E0,5.443109E0,1.3529794E0,1.797595E0,2.6553211E0,1.3675537E1,1.3344487E0,6.629128E1,5.2653797E1,3.1313873E1,7.7026753E0,1.7201096E1,1.1068748E2,2.089912E1,1.068661E1,1.3748354E1,1.7791873E0,1.7901281E0,1.3309624E0],"tree_param":{"num_deleted":"0","num_feature":"102","num_nodes":"71","size_leaf_vector":"1"}},{"base_weights":[2.8250766E-1,-2.525266E-1,3.1465513E-1,-6.888471E-3,2.3536023E-1,5.525202E-1,1.9684485E-1,6.82168E-1,-6.0154297E-3,4.1381368E-1,1.0808458E0,7.058303E-2,4.4292408E-1,-2.0499039E-3,9.7859156E-1,8.7756413E-1,2.8017247E-1,-4.3849084E-3,1.1660529E0,-4.966106E-1,2.024529E-1,-4.4195704E-2,6.134475E-1,-2.1759139E-5,1.1977057E-2,-5.0926707E-3,1.0235685E0,8.449072E-1,1.5308367E-1,3.7980556E-1,1.2467506E0,-5.6503856E-1,5.817239E-3,-2.1229021E-1,3.4171858E-1,-3.661367E-1,7.0779055E-1,8.3013177E-1,1.2340299E-1,1.0868704E-2,-2.2978992E-4,-1.2444318E-4,1.1078159E-2,-4.5791026E-3,3.4999785E-3,-4.3113474E-3,9.165749E-3,5.0676093E-3,1.3115808E-2,4.1062594E-3,-6.395702E-3,-3.017097E-3,8.075545E-3,-2.678597E-3,4.4224537E-3,-5.3993706E-3,7.0066075E-3,5.30426E-4,1.1642051E-2,2.0683487E-3,9.534701E-3,-2.8398496E-3,6.2914137E-3],"categories":[],"categories_nodes":[],"categories_segments":[],"categories_sizes":[],"default_left":[0,0,0,0,0,0,0,0,0,0,0,0,0,0,0,0,0,0,0,0,0,0,0,0,0,0,0,0,0,0,0,0,0,0,0,0,0,0,0,0,0,0,0,0,0,0,0,0,0,0,0,0,0,0,0,0,0,0,0,0,0,0,0],"id":21,"left_children":[1,3,5,-1,7,9,11,13,-1,15,17,19,21,-1,23,25,27,-1,29,31,33,35,37,-1,-1,-1,39,41,43,45,47,49,-1,51,53,55,57,59,61,-1,-1,-1,-1,-1,-1,-1,-1,-1,-1,-1,-1,-1,-1,-1,-1,-1,-1,-1,-1,-1,-1,-1,-1],"loss_changes":[8.378593E0,6.10198E0,1.2658638E1,0E0,5.614933E0,1.0571194E1,9.484009E0,2.7100568E0,0E0,7.2353306E0,4.4786415E0,1.53280945E1,8.637676E0,0E0,1.5769367E0,5.894163E0,6.7015767E0,0E0,1.3849716E0,3.1838655E0,9.654519E0,6.9921355E0,8.057745E0,0E0,0E0,0E0,1.6374474E0,3.9048777E0,9.654591E0,2.2079802E0,5.8874893E-1,2.9453678E0,0E0,4.102888E0,7.752306E0,4.1111946E0,2.5316067E0,3.885868E0,5.275191E0,0E0,0E0,0E0,0E0,0E0,0E0,0E0,0E0,0E0,0E0,0E0,0E0,0E0,0E0,0E0,0E0,0E0,0E0,0E0,0E0,0E0,0E0,0E0,0E0],"parents":[2147483647,0,0,1,1,2,2,4,4,5,5,6,6,7,7,9,9,10,10,11,11,12,12,14,14,15,15,16,16,18,18,19,19,20,20,21,21,22,22,26,26,27,27,28,28,29,29,30,30,31,31,33,33,34,34,35,35,36,36,37,37,38,38],"right_children":[2,4,6,-1,8,10,12,14,-1,16,18,20,22,-1,24,26,28,-1,30,32,34,36,38,-1,-1,-1,40,42,44,46,48,50,-1,52,54,56,58,60,62,-1,-1,-1,-1,-1,-1,-1,-1,-1,-1,-1,-1,-1,-1,-1,-1,-1,-1,-1,-1,-1,-1,-1,-1],"split_conditions":[-1.2683579E0,9.509762E-2,-5.1878494E-1,-6.888471E-3,3.823154E-1,-5.467564E-1,7.0823145E-1,1.1492701E-1,-6.0154297E-3,-1.318518E0,-2.2389808E0,-3.130122E-1,-4.710547E-1,-2.0499039E-3,-1.2759323E-1,-1.8642849E0,-1.1575909E0,-4.3849084E-3,-8.922514E-1,7.052504E-1,-5.97016E-1,9.2325735E-1,1.6239874E0,-2.1759139E-5,1.1977057E-2,-5.0926707E-3,-7.010776E-1,-9.0323704E-1,-9.123226E-1,-1.6019839E-1,-8.98162E-1,-1.9694526E0,5.817239E-3,1.3101785E0,-5.6568646E-1,1.0591596E0,1.2031198E0,-1.2858144E0,1.2834271E0,1.0868704E-2,-2.2978992E-4,-1.2444318E-4,1.1078159E-2,-4.5791026E-3,3.4999785E-3,-4.3113474E-3,9.165749E-3,5.0676093E-3,1.3115808E-2,4.1062594E-3,-6.395702E-3,-3.017097E-3,8.075545E-3,-2.678597E-3,4.4224537E-3,-5.3993706E-3,7.0066075E-3,5.30426E-4,1.1642051E-2,2.0683487E-3,9.534701E-3,-2.8398496E-3,6.2914137E-3],"split_indices":[66,35,85,0,50,81,67,48,0,85,42,40,48,0,38,41,81,0,74,37,77,47,85,0,0,0,37,50,61,38,88,58,0,40,61,50,36,72,40,0,0,0,0,0,0,0,0,0,0,0,0,0,0,0,0,0,0,0,0,0,0,0,0],"split_type":[0,0,0,0,0,0,0,0,0,0,0,0,0,0,0,0,0,0,0,0,0,0,0,0,0,0,0,0,0,0,0,0,0,0,0,0,0,0,0,0,0,0,0,0,0,0,0,0,0,0,0,0,0,0,0,0,0,0,0,0,0,0,0],"sum_hessian":[4.8150818E2,2.6903002E1,4.546052E2,1.3984589E1,1.2918412E1,1.4935657E2,3.0524863E2,8.542574E0,4.3758383E0,1.1971093E2,2.9645632E1,2.0258849E2,1.0266014E2,2.2167063E0,6.325868E0,2.5534988E1,9.417594E1,1.3541138E0,2.8291517E1,3.769411E1,1.6489438E2,2.6811323E1,7.5848816E1,1.3359864E0,4.9898815E0,2.1952498E0,2.3339739E1,1.6262657E1,7.7913284E1,3.16463E0,2.5126888E1,3.5892487E1,1.8016241E0,4.1319027E1,1.2357535E2,1.9133137E1,7.678187E0,5.2112225E1,2.3736595E1,2.1972189E1,1.3675493E0,4.0401855E0,1.2222473E1,1.8667017E1,5.9246265E1,1.338798E0,1.8258318E0,2.7342486E0,2.239264E1,2.227233E0,3.3665253E1,3.8635635E1,2.6833932E0,1.7258434E1,1.0631692E2,1.6877378E1,2.2557564E0,3.6123364E0,4.0658503E0,9.05075E0,4.3061474E1,1.3389451E1,1.0347143E1],"tree_param":{"num_deleted":"0","num_feature":"102","num_nodes":"63","size_leaf_vector":"1"}},{"base_weights":[-5.671924E-1,-6.6778034E-2,-5.788288E-1,-3.3578485E-1,7.3365145E-3,-5.858009E-1,-3.500078E-2,4.389549E-3,-5.190608E-1,1.1109408E-3,-5.89564E-1,6.0843257E-3,-3.8797238E-1,1.0997809E-4,-6.2538306E-3,-5.9716713E-1,-2.987707E-1,-5.3509763E-3,9.469735E-5,2.1219544E-2,-6.010345E-1,8.699157E-3,-5.0250196E-1,-4.162687E-3,4.4895867E-3,-6.447043E-3,-5.2511967E-3,-5.9353065E-4,-6.4919298E-3],"categories":[],"categories_nodes":[],"categories_segments":[],"categories_sizes":[],"default_left":[0,0,0,0,0,0,0,0,0,0,0,0,0,0,0,0,0,0,0,0,0,0,0,0,0,0,0,0,0],"id":22,"left_children":[1,3,5,7,-1,9,11,-1,13,-1,15,-1,17,-1,-1,19,21,-1,-1,23,25,-1,27,-1,-1,-1,-1,-1,-1],"loss_changes":[2.6200562E0,2.7239127E0,1.6708527E0,1.5480876E0,0E0,1.2203827E0,1.759987E0,0E0,4.5646453E-1,0E0,7.903137E-1,0E0,2.9414052E-1,0E0,0E0,1.0315704E0,3.5718055E0,0E0,0E0,8.6309385E-1,1.0650482E0,0E0,7.314606E-1,0E0,0E0,0E0,0E0,0E0,0E0],"parents":[2147483647,0,0,1,1,2,2,3,3,5,5,6,6,8,8,10,10,12,12,15,15,16,16,19,19,20,20,22,22],"right_children":[2,4,6,8,-1,10,12,-1,14,-1,16,-1,18,-1,-1,20,22,-1,-1,24,26,-1,28,-1,-1,-1,-1,-1,-1],"split_conditions":[-1.7039374E-1,5.7170796E-1,2.8130019E0,-9.180629E-1,7.3365145E-3,-1.5767888E0,9.282721E-1,4.389549E-3,-8.6516273E-1,1.1109408E-3,1.668447E0,6.0843257E-3,4.5486304E-1,1.0997809E-4,-6.2538306E-3,-1.8815883E0,-1.2996398E0,-5.3509763E-3,9.469735E-5,-1.5783598E-1,3.8001865E-1,8.699157E-3,1.6328706E0,-4.162687E-3,4.4895867E-3,-6.447043E-3,-5.2511967E-3,-5.9353065E-4,-6.4919298E-3],"split_indices":[33,49,61,88,0,37,59,0,51,0,48,0,50,0,0,72,57,0,0,32,40,0,35,0,0,0,0,0,0],"split_type":[0,0,0,0,0,0,0,0,0,0,0,0,0,0,0,0,0,0,0,0,0,0,0,0,0,0,0,0,0],"sum_hessian":[4.5558374E2,1.0506372E1,4.4507736E2,8.298068E0,2.208305E0,4.3936737E2,5.7099953E0,1.3206015E0,6.9774666E0,2.20663E0,4.3716074E2,1.7663553E0,3.9436402E0,1.3155408E0,5.661926E0,4.2499527E2,1.2165468E1,2.625411E0,1.3182292E0,2.613549E0,4.223817E2,1.3205178E0,1.0844951E1,1.3053074E0,1.3082415E0,2.633807E2,1.59001E2,3.0464213E0,7.7985296E0],"tree_param":{"num_deleted":"0","num_feature":"102","num_nodes":"29","size_leaf_vector":"1"}},{"base_weights":[3.0596697E-1,3.3859825E-1,-4.2172527E-1,3.8786095E-2,4.297551E-1,1.4348808E-1,-6.319355E-1,9.4557655E-1,-9.0400055E-2,3.3100072E-1,6.7844534E-1,-5.1858416E-3,6.2229913E-1,-1.5996435E-5,-6.926969E-3,-8.909479E-2,1.2738668E-2,-1.5257367E-1,1.1442529E-2,3.5470858E-1,-6.311947E-3,7.70688E-1,7.897706E-2,-1.21463774E-4,9.318773E-3,4.1844132E-3,-4.840547E-3,2.5271162E-1,-3.0887973E-1,4.5970544E-1,9.558347E-2,9.0075195E-1,3.334325E-1,-3.2106915E-1,6.043112E-1,-1.7577076E-3,9.857901E-3,-5.0568157E-3,-5.979117E-4,1.2628136E-2,4.118635E-3,4.55688E-3,-1.4128938E-3,4.9641766E-3,1.1220388E-2,-5.002012E-3,6.914451E-3,2.483687E-3,-6.2511805E-3,-2.1575978E-3,1.0973697E-2],"categories":[],"categories_nodes":[],"categories_segments":[],"categories_sizes":[],"default_left":[0,0,0,0,0,0,0,0,0,0,0,0,0,0,0,0,0,0,0,0,0,0,0,0,0,0,0,0,0,0,0,0,0,0,0,0,0,0,0,0,0,0,0,0,0,0,0,0,0,0,0],"id":23,"left_children":[1,3,5,7,9,11,13,15,17,19,21,-1,23,-1,-1,25,-1,27,-1,29,-1,31,33,-1,-1,-1,-1,35,37,39,41,43,45,47,49,-1,-1,-1,-1,-1,-1,-1,-1,-1,-1,-1,-1,-1,-1,-1,-1],"loss_changes":[1.1266991E1,1.2252388E1,2.532435E0,1.2475718E1,8.227634E0,2.347185E0,5.7971334E-1,4.623189E0,7.3512945E0,5.8877525E0,5.295532E0,0E0,8.284949E-1,0E0,0E0,1.0309355E0,0E0,5.7725906E0,0E0,6.566307E0,0E0,4.467453E0,3.1429164E0,0E0,0E0,0E0,0E0,8.204911E0,3.1719532E0,6.1130066E0,6.147998E0,5.171768E0,6.555978E0,1.647496E0,2.8298051E0,0E0,0E0,0E0,0E0,0E0,0E0,0E0,0E0,0E0,0E0,0E0,0E0,0E0,0E0,0E0,0E0],"parents":[2147483647,0,0,1,1,2,2,3,3,4,4,5,5,6,6,7,7,8,8,9,9,10,10,12,12,15,15,17,17,19,19,21,21,22,22,27,27,28,28,29,29,30,30,31,31,32,32,33,33,34,34],"right_children":[2,4,6,8,10,12,14,16,18,20,22,-1,24,-1,-1,26,-1,28,-1,30,-1,32,34,-1,-1,-1,-1,36,38,40,42,44,46,48,50,-1,-1,-1,-1,-1,-1,-1,-1,-1,-1,-1,-1,-1,-1,-1,-1],"split_conditions":[1.8889043E0,-6.2807816E-1,-2.8729346E-1,-1.2668194E0,5.4511726E-1,1.8024476E0,-1.1812359E0,-6.939242E-1,5.862772E0,2.5525503E0,1.1999233E-2,-5.1858416E-3,-1.2719836E0,-1.5996435E-5,-6.926969E-3,-7.5118417E-1,1.2738668E-2,-1.7427686E0,1.1442529E-2,8.8660634E-1,-6.311947E-3,5.367636E-1,3.163913E-2,-1.21463774E-4,9.318773E-3,4.1844132E-3,-4.840547E-3,9.09483E-1,3.243018E-1,-1.3466924E0,2.450587E-1,-7.874655E-1,1.4472875E-1,-1.0602224E0,-3.326575E-1,-1.7577076E-3,9.857901E-3,-5.0568157E-3,-5.979117E-4,1.2628136E-2,4.118635E-3,4.55688E-3,-1.4128938E-3,4.9641766E-3,1.1220388E-2,-5.002012E-3,6.914451E-3,2.483687E-3,-6.2511805E-3,-2.1575978E-3,1.0973697E-2],"split_indices":[72,58,61,46,79,50,35,79,17,67,71,0,53,0,0,40,0,57,0,35,0,81,75,0,0,0,0,79,37,84,86,84,64,52,77,0,0,0,0,0,0,0,0,0,0,0,0,0,0,0,0],"split_type":[0,0,0,0,0,0,0,0,0,0,0,0,0,0,0,0,0,0,0,0,0,0,0,0,0,0,0,0,0,0,0,0,0,0,0,0,0,0,0,0,0,0,0,0,0,0,0,0,0,0,0],"sum_hessian":[4.6747522E2,4.4792404E2,1.955118E1,1.047686E2,3.4315546E2,5.3861904E0,1.4164989E1,1.2276591E1,9.2492004E1,2.4728864E2,9.5866806E1,2.2256389E0,3.1605515E0,1.3356254E0,1.2829364E1,3.132504E0,9.144088E0,8.8892075E1,3.599929E0,2.419583E2,5.3303423E0,8.283502E1,1.3031784E1,1.3515229E0,1.8090286E0,1.3448615E0,1.7876424E0,2.4569407E1,6.432267E1,1.7163724E2,7.032105E1,6.3027225E1,1.9807798E1,7.6188197E0,5.4129643E0,1.5985912E1,8.583493E0,3.535723E1,2.896544E1,8.221971E0,1.6341527E2,2.753594E1,4.2785114E1,2.3440386E1,3.958684E1,5.8316407E0,1.3976157E1,2.7157528E0,4.903067E0,2.2436528E0,3.1693115E0],"tree_param":{"num_deleted":"0","num_feature":"102","num_nodes":"51","size_leaf_vector":"1"}},{"base_weights":[2.572348E-1,-1.5673964E-1,3.132938E-1,-9.933561E-4,-6.8688565E-3,6.201854E-1,1.8792717E-1,-2.994221E-1,3.695861E-1,-1.6901395E-1,6.8270123E-1,5.2314915E-2,4.6700174E-1,-5.245442E-1,6.364322E-1,-5.3417096E-3,5.2657884E-1,-6.095959E-3,2.9961276E-1,-3.2360303E-1,7.3499423E-1,-3.8281482E-1,1.5705329E-1,2.1416472E-1,8.3229464E-1,-6.554127E-1,8.171243E-3,8.2317163E-4,9.94554E-3,-1.2122833E-3,8.243027E-1,1.01809595E-2,-5.1682047E-3,4.10767E-3,-6.035999E-3,-5.4951105E-3,7.723575E-1,4.4214424E-1,-5.4788166E-1,-2.3639776E-1,3.049054E-1,7.418138E-1,-6.6209905E-2,-1.8878205E-2,9.27702E-1,1.1035396E-4,-7.021481E-3,-4.4700694E-3,9.258626E-3,-1.2109613E-3,1.0038015E-2,1.241948E-2,6.6166865E-3,7.142567E-3,-4.3531684E-3,-5.984667E-3,2.3712593E-3,-3.0531501E-3,9.459823E-3,3.575315E-3,-6.4129117E-3,5.6336203E-4,1.0978129E-2,-6.718617E-3,1.256662E-3,-5.5361544E-3,8.251759E-3,-1.0023471E-3,1.0285297E-2],"categories":[],"categories_nodes":[],"categories_segments":[],"categories_sizes":[],"default_left":[0,0,0,0,0,0,0,0,0,0,0,0,0,0,0,0,0,0,0,0,0,0,0,0,0,0,0,0,0,0,0,0,0,0,0,0,0,0,0,0,0,0,0,0,0,0,0,0,0,0,0,0,0,0,0,0,0,0,0,0,0,0,0,0,0,0,0,0,0],"id":24,"left_children":[1,3,5,7,-1,9,11,13,15,17,19,21,23,25,27,-1,29,-1,31,33,35,37,39,41,43,45,-1,-1,-1,47,49,-1,-1,-1,-1,-1,51,53,55,57,59,61,63,65,67,-1,-1,-1,-1,-1,-1,-1,-1,-1,-1,-1,-1,-1,-1,-1,-1,-1,-1,-1,-1,-1,-1,-1,-1],"loss_changes":[1.1331211E1,4.8417683E0,1.6369675E1,5.2345963E0,0E0,6.2254753E0,1.1543572E1,5.8572445E0,3.2771769E0,2.2249494E0,6.2868843E0,9.486285E0,9.042185E0,4.342419E0,1.0165918E0,0E0,2.907024E0,0E0,3.7311566E0,1.5583054E0,5.6834564E0,5.745984E0,9.810827E0,8.976313E0,3.3054981E0,6.4032173E-1,0E0,0E0,0E0,3.58307E0,2.1282978E0,0E0,0E0,0E0,0E0,0E0,4.734577E0,2.05206E0,1.4970055E0,4.060845E0,6.310259E0,5.0677624E0,4.7703886E0,2.741071E0,3.8785954E0,0E0,0E0,0E0,0E0,0E0,0E0,0E0,0E0,0E0,0E0,0E0,0E0,0E0,0E0,0E0,0E0,0E0,0E0,0E0,0E0,0E0,0E0,0E0,0E0],"parents":[2147483647,0,0,1,1,2,2,3,3,5,5,6,6,7,7,8,8,9,9,10,10,11,11,12,12,13,13,14,14,16,16,18,18,19,19,20,20,21,21,22,22,23,23,24,24,25,25,29,29,30,30,36,36,37,37,38,38,39,39,40,40,41,41,42,42,43,43,44,44],"right_children":[2,4,6,8,-1,10,12,14,16,18,20,22,24,26,28,-1,30,-1,32,34,36,38,40,42,44,46,-1,-1,-1,48,50,-1,-1,-1,-1,-1,52,54,56,58,60,62,64,66,68,-1,-1,-1,-1,-1,-1,-1,-1,-1,-1,-1,-1,-1,-1,-1,-1,-1,-1,-1,-1,-1,-1,-1,-1],"split_conditions":[-1.1300241E0,4.2689663E-1,-5.1878494E-1,3.9644685E-2,-6.8688565E-3,-1.7378755E0,7.174434E-1,-1.2499589E0,-1.3753299E0,-5.97016E-1,-2.1473856E0,-3.2529157E-1,1.0999501E-2,1.1938083E0,-1.0629212E0,-5.3417096E-3,-1.6005282E-1,-6.095959E-3,-2.4694545E-2,-2.3468497E0,-2.1161587E0,-1.5403197E0,-5.529664E-1,-8.2366985E-1,-1.0618694E0,-8.0465895E-1,8.171243E-3,8.2317163E-4,9.94554E-3,1.7872518E-1,-1.4590459E0,1.01809595E-2,-5.1682047E-3,4.10767E-3,-6.035999E-3,-5.4951105E-3,-9.35183E-1,2.0646975E0,1.396149E0,1.3101785E0,9.246151E-1,-1.2858144E0,1.745903E-1,2.1390812E0,7.5056635E-2,1.1035396E-4,-7.021481E-3,-4.4700694E-3,9.258626E-3,-1.2109613E-3,1.0038015E-2,1.241948E-2,6.6166865E-3,7.142567E-3,-4.3531684E-3,-5.984667E-3,2.3712593E-3,-3.0531501E-3,9.459823E-3,3.575315E-3,-6.4129117E-3,5.6336203E-4,1.0978129E-2,-6.718617E-3,1.256662E-3,-5.5361544E-3,8.251759E-3,-1.0023471E-3,1.0285297E-2],"split_indices":[82,58,85,38,0,48,67,46,84,77,76,40,35,70,71,0,32,0,77,38,41,40,77,40,78,51,0,0,0,40,85,0,0,0,0,0,52,9,49,40,85,72,40,35,85,0,0,0,0,0,0,0,0,0,0,0,0,0,0,0,0,0,0,0,0,0,0,0,0],"split_type":[0,0,0,0,0,0,0,0,0,0,0,0,0,0,0,0,0,0,0,0,0,0,0,0,0,0,0,0,0,0,0,0,0,0,0,0,0,0,0,0,0,0,0,0,0,0,0,0,0,0,0,0,0,0,0,0,0,0,0,0,0,0,0,0,0,0,0,0,0],"sum_hessian":[4.8515112E2,5.7647835E1,4.275033E2,4.5332058E1,1.2315777E1,1.2284285E2,3.0466043E2,2.5216862E1,2.0115196E1,8.891614E0,1.1395123E2,2.0582849E2,9.883193E1,2.06814E1,4.5354614E0,2.6215053E0,1.749369E1,4.427893E0,4.4637213E0,5.3727164E0,1.0857852E2,3.9417156E1,1.6641135E2,5.9343613E1,3.948832E1,1.9309423E1,1.3719779E0,2.263323E0,2.272138E0,6.668322E0,1.0825368E1,2.2429023E0,2.220819E0,1.3541192E0,4.018597E0,2.6815848E0,1.05896935E2,6.292146E0,3.312501E1,4.529019E1,1.2112115E2,2.0020458E1,3.9323154E1,4.0609393E0,3.542738E1,1.315418E0,1.7994005E1,4.852684E0,1.8156383E0,1.7793119E0,9.046056E0,1.8250431E1,8.764651E1,4.944719E0,1.3474276E0,3.1342932E1,1.7820791E0,4.3496685E1,1.7935079E0,1.1532886E2,5.792287E0,7.239337E0,1.2781122E1,8.85886E0,3.0464294E1,2.6966307E0,1.3643084E0,3.1651025E0,3.2262276E1],"tree_param":{"num_deleted":"0","num_feature":"102","num_nodes":"69","size_leaf_vector":"1"}},{"base_weights":[-5.81879E-1,4.3253703E-3,-5.856466E-1,-2.1147637E-1,-5.947674E-1,1.0002743E-1,-6.070833E-3,-6.4336365E-1,-5.17856E-1,-5.3033E-3,5.0146157E-1,-6.680027E-1,-4.4387856E-1,-1.6875384E-2,-5.375491E-1,8.997282E-3,-4.2021633E-3,-6.717133E-1,1.273157E-4,6.729658E-2,-5.9087604E-1,1.0555914E-2,-6.070271E-3,-2.5295353E-1,-5.7059425E-1,-6.8194633E-3,-3.805655E-3,-4.323487E-3,8.433731E-3,-1.2487328E-3,-6.5685706E-3,4.35516E-3,-3.6085993E-3,-6.628521E-3,-4.225949E-3],"categories":[],"categories_nodes":[],"categories_segments":[],"categories_sizes":[],"default_left":[0,0,0,0,0,0,0,0,0,0,0,0,0,0,0,0,0,0,0,0,0,0,0,0,0,0,0,0,0,0,0,0,0,0,0],"id":25,"left_children":[1,-1,3,5,7,9,-1,11,13,-1,15,17,19,21,23,-1,-1,25,-1,27,29,-1,-1,31,33,-1,-1,-1,-1,-1,-1,-1,-1,-1,-1],"loss_changes":[2.0642548E0,0E0,1.4867401E0,1.637533E0,1.3887634E0,2.2946527E0,0E0,1.0708542E0,1.8014145E0,0E0,2.3646603E0,6.289978E-1,2.5618014E0,5.6871567E0,1.5159149E0,0E0,0E0,4.683838E-1,0E0,3.6195016E0,7.226305E-1,0E0,0E0,1.6550064E0,1.8686981E0,0E0,0E0,0E0,0E0,0E0,0E0,0E0,0E0,0E0,0E0],"parents":[2147483647,0,0,2,2,3,3,4,4,5,5,7,7,8,8,10,10,11,11,12,12,13,13,14,14,17,17,19,19,20,20,23,23,24,24],"right_children":[2,-1,4,6,8,10,-1,12,14,-1,16,18,20,22,24,-1,-1,26,-1,28,30,-1,-1,32,34,-1,-1,-1,-1,-1,-1,-1,-1,-1,-1],"split_conditions":[-1.5767888E0,4.3253703E-3,-1.7039374E-1,3.4004322E-1,3.0565345E-1,-7.414046E-1,-6.070833E-3,1.1353569E0,-1.2510729E0,-5.3033E-3,2.8634746E-2,2.8130019E0,1.2556298E0,-6.1090726E-1,-9.030469E-1,8.997282E-3,-4.2021633E-3,4.977917E0,1.273157E-4,8.717478E-2,-1.4107546E0,1.0555914E-2,-6.070271E-3,-1.6979392E-1,-4.463765E-1,-6.8194633E-3,-3.805655E-3,-4.323487E-3,8.433731E-3,-1.2487328E-3,-6.5685706E-3,4.35516E-3,-3.6085993E-3,-6.628521E-3,-4.225949E-3],"split_indices":[37,0,33,83,40,73,0,77,74,0,64,61,77,78,61,0,0,19,0,88,85,0,0,33,73,0,0,0,0,0,0,0,0,0,0],"split_type":[0,0,0,0,0,0,0,0,0,0,0,0,0,0,0,0,0,0,0,0,0,0,0,0,0,0,0,0,0,0,0,0,0,0,0],"sum_hessian":[4.7282996E2,1.328507E0,4.7150143E2,1.179533E1,4.5970612E2,7.017139E0,4.7781916E0,2.7719565E2,1.8251045E2,2.6051998E0,4.411939E0,2.4463179E2,3.256387E1,6.973203E0,1.7553725E2,3.097355E0,1.3145843E0,2.4331874E2,1.3130375E0,7.393968E0,2.5169903E1,2.1952171E0,4.777986E0,1.9162075E1,1.5637517E2,2.337604E2,9.558343E0,4.767507E0,2.6264608E0,3.4805393E0,2.1689363E1,2.1850247E0,1.697705E1,9.418479E1,6.2190376E1],"tree_param":{"num_deleted":"0","num_feature":"102","num_nodes":"35","size_leaf_vector":"1"}},{"base_weights":[2.8063604E-1,3.169228E-1,-4.8571795E-1,3.2751244E-2,4.0029877E-1,-1.053717E-2,-6.4013636E-1,7.173536E-1,-7.850585E-2,5.894684E-1,2.1451256E-1,-5.432811E-3,5.164443E-1,1.8765755E-5,-6.9666784E-3,-2.8494927E-1,1.2502496E-2,-3.0276477E-1,2.0767443E-1,-1.4799601E-1,6.700019E-1,3.281068E-1,-1.6257964E-1,-1.9128302E-4,8.341536E-3,2.3456924E-3,-5.6769596E-3,-4.8863137E-1,2.070027E-1,-5.0960827E-1,4.8114398E-1,9.762755E-3,-5.477915E-1,8.0498093E-1,2.8989214E-1,3.7516657E-1,-6.3731777E-3,9.201747E-1,-3.476321E-1,-5.777969E-3,2.828627E-3,7.987731E-3,-4.9916715E-3,2.361984E-3,-6.690068E-3,-4.883867E-3,7.345716E-3,-6.854098E-3,4.175376E-3,1.2118914E-2,6.425586E-3,1.1950521E-2,1.2351755E-3,-6.319094E-3,4.2267004E-3,-5.2195246E-5,1.1664437E-2,-6.684142E-3,9.993684E-4],"categories":[],"categories_nodes":[],"categories_segments":[],"categories_sizes":[],"default_left":[0,0,0,0,0,0,0,0,0,0,0,0,0,0,0,0,0,0,0,0,0,0,0,0,0,0,0,0,0,0,0,0,0,0,0,0,0,0,0,0,0,0,0,0,0,0,0,0,0,0,0,0,0,0,0,0,0,0,0],"id":26,"left_children":[1,3,5,7,9,11,13,15,17,19,21,-1,23,-1,-1,25,-1,27,29,31,33,35,37,-1,-1,-1,-1,39,41,43,45,-1,47,49,51,53,-1,55,57,-1,-1,-1,-1,-1,-1,-1,-1,-1,-1,-1,-1,-1,-1,-1,-1,-1,-1,-1,-1],"loss_changes":[1.3349281E1,1.07355E1,1.5963111E0,7.9776163E0,1.2197578E1,2.070338E0,5.991392E-1,8.174332E0,5.862177E0,1.0384205E1,7.6988287E0,0E0,6.485135E-1,0E0,0E0,9.9912804E-1,0E0,4.9398537E0,8.148921E0,8.566366E0,7.7863083E0,6.4859457E0,8.732868E0,0E0,0E0,0E0,0E0,2.7583122E0,6.3944077E0,1.5379202E0,7.6527314E0,0E0,2.1223788E0,6.807556E0,6.2562027E0,6.5692616E0,0E0,1.4652796E0,5.319406E0,0E0,0E0,0E0,0E0,0E0,0E0,0E0,0E0,0E0,0E0,0E0,0E0,0E0,0E0,0E0,0E0,0E0,0E0,0E0,0E0],"parents":[2147483647,0,0,1,1,2,2,3,3,4,4,5,5,6,6,7,7,8,8,9,9,10,10,12,12,15,15,17,17,18,18,19,19,20,20,21,21,22,22,27,27,28,28,29,29,30,30,32,32,33,33,34,34,35,35,37,37,38,38],"right_children":[2,4,6,8,10,12,14,16,18,20,22,-1,24,-1,-1,26,-1,28,30,32,34,36,38,-1,-1,-1,-1,40,42,44,46,-1,48,50,52,54,-1,56,58,-1,-1,-1,-1,-1,-1,-1,-1,-1,-1,-1,-1,-1,-1,-1,-1,-1,-1,-1,-1],"split_conditions":[1.8889043E0,-6.3591427E-1,-2.8729346E-1,-1.2668194E0,2.7232382E-1,1.2569739E0,-2.542115E-1,-5.6115586E-1,2.3539418E-1,-1.3262447E0,6.71549E-1,-5.432811E-3,2.0037637E0,1.8765755E-5,-6.9666784E-3,-7.5118417E-1,1.2502496E-2,3.032877E-1,2.8137892E-2,-5.8574736E-1,4.3877697E-1,2.5525503E0,2.7104118E-1,-1.9128302E-4,8.341536E-3,2.3456924E-3,-5.6769596E-3,1.6407428E0,7.610118E-1,-1.9448524E0,-2.362314E0,9.762755E-3,4.977917E0,-1.98254E-1,-2.5505555E-1,-6.493062E-1,-6.3731777E-3,6.920486E-2,4.184397E-1,-5.777969E-3,2.828627E-3,7.987731E-3,-4.9916715E-3,2.361984E-3,-6.690068E-3,-4.883867E-3,7.345716E-3,-6.854098E-3,4.175376E-3,1.2118914E-2,6.425586E-3,1.1950521E-2,1.2351755E-3,-6.319094E-3,4.2267004E-3,-5.2195246E-5,1.1664437E-2,-6.684142E-3,9.993684E-4],"split_indices":[72,69,61,46,40,86,41,79,64,85,48,0,72,0,0,40,0,70,73,47,75,67,86,0,0,0,0,79,78,49,39,0,19,41,35,57,0,85,39,0,0,0,0,0,0,0,0,0,0,0,0,0,0,0,0,0,0,0,0],"split_type":[0,0,0,0,0,0,0,0,0,0,0,0,0,0,0,0,0,0,0,0,0,0,0,0,0,0,0,0,0,0,0,0,0,0,0,0,0,0,0,0,0,0,0,0,0,0,0,0,0,0,0,0,0,0,0,0,0,0,0],"sum_hessian":[4.7350745E2,4.5266046E2,2.0846964E1,1.0299928E2,3.496612E2,5.375023E0,1.5471941E1,1.3637213E1,8.936207E1,1.721764E2,1.7748479E2,2.6575167E0,2.7175064E0,1.3303478E0,1.4141593E1,4.8952374E0,8.741976E0,5.0068798E1,3.929327E1,1.6868637E1,1.5530777E2,1.3649678E2,4.0988018E1,1.3617516E0,1.3557547E0,1.7853068E0,3.1099305E0,3.672129E1,1.3347507E1,1.060747E1,2.8685802E1,4.046755E0,1.2821882E1,1.1378453E2,4.152323E1,1.3073544E2,5.7613235E0,5.4028826E0,3.5585136E1,3.3141968E1,3.5793226E0,7.190627E0,6.156881E0,1.7830378E0,8.824431E0,5.752294E0,2.2933508E1,1.1475847E1,1.346035E0,3.0617723E1,8.316681E1,5.487208E0,3.6036026E1,5.3348117E0,1.25400635E2,1.341351E0,4.061531E0,2.044112E1,1.5144017E1],"tree_param":{"num_deleted":"0","num_feature":"102","num_nodes":"59","size_leaf_vector":"1"}},{"base_weights":[2.544521E-1,-2.756876E-1,3.1260777E-1,2.3744585E-2,-5.5249095E-1,2.4386491E-1,7.912985E-1,7.0387197E-1,-3.366891E-1,-2.2211394E-1,-6.482526E-1,6.0803705E-1,1.7839445E-1,9.541623E-1,3.2061547E-1,-2.0446687E-3,1.0460279E-2,-4.9616006E-1,8.231548E-3,-5.8881603E-3,4.0623294E-3,-6.954854E-3,-1.9787347E-3,-5.7450105E-3,6.946882E-1,-1.6039066E-1,2.9863158E-1,3.59959E-1,1.0467856E0,-2.965613E-1,8.898565E-1,4.095595E-3,-6.153045E-1,7.860632E-1,-2.5945005E-1,-4.9373376E-1,1.0877387E-1,1.7839448E-1,6.47213E-1,-4.896959E-3,7.570442E-1,1.0918665E0,-1.8445172E-4,2.259664E-3,-4.7966975E-1,1.1850124E-2,7.594063E-4,1.052308E-5,-6.814685E-3,8.431186E-3,-4.821437E-3,4.0247887E-3,-5.7464503E-3,4.0008263E-3,-5.59961E-3,2.6480812E-3,-5.6352923E-3,1.9537138E-4,5.9338273E-3,8.240569E-3,-2.9834227E-3,-1.2090177E-4,1.0379699E-2,1.1601355E-2,2.4913903E-3,-7.599656E-5,-6.0451822E-3],"categories":[],"categories_nodes":[],"categories_segments":[],"categories_sizes":[],"default_left":[0,0,0,0,0,0,0,0,0,0,0,0,0,0,0,0,0,0,0,0,0,0,0,0,0,0,0,0,0,0,0,0,0,0,0,0,0,0,0,0,0,0,0,0,0,0,0,0,0,0,0,0,0,0,0,0,0,0,0,0,0,0,0,0,0,0,0],"id":27,"left_children":[1,3,5,7,9,11,13,15,17,19,21,23,25,27,29,-1,-1,31,-1,-1,-1,-1,-1,-1,33,35,37,39,41,43,45,-1,47,49,51,53,55,57,59,-1,61,63,-1,-1,65,-1,-1,-1,-1,-1,-1,-1,-1,-1,-1,-1,-1,-1,-1,-1,-1,-1,-1,-1,-1,-1,-1],"loss_changes":[1.4978613E1,4.0149236E0,1.4146336E1,6.157582E0,6.51072E-1,9.010912E0,3.854576E0,2.9144773E0,3.4533346E0,1.8909315E0,2.6574945E-1,6.328844E0,1.331168E1,1.8145485E0,5.6946735E0,0E0,0E0,1.8810885E0,0E0,0E0,0E0,0E0,0E0,0E0,4.944231E0,7.7648487E0,9.971697E0,2.6964982E0,1.649147E0,8.897826E-1,1.9018435E0,0E0,5.610876E-1,4.0147915E0,1.3795573E0,2.5074568E0,5.223156E0,1.1876335E1,1.0503584E1,0E0,1.1125016E0,1.5843086E0,0E0,0E0,3.7070644E-1,0E0,0E0,0E0,0E0,