tree
version=v4
num_class=3
num_tree_per_iteration=3
label_index=0
max_feature_idx=101
objective=multiclass num_class:3
feature_names=Column_0 Column_1 Column_2 Column_3 Column_4 Column_5 Column_6 Column_7 Column_8 Column_9 Column_10 Column_11 Column_12 Column_13 Column_14 Column_15 Column_16 Column_17 Column_18 Column_19 Column_20 Column_21 Column_22 Column_23 Column_24 Column_25 Column_26 Column_27 Column_28 Column_29 Column_30 Column_31 Column_32 Column_33 Column_34 Column_35 Column_36 Column_37 Column_38 Column_39 Column_40 Column_41 Column_42 Column_43 Column_44 Column_45 Column_46 Column_47 Column_48 Column_49 Column_50 Column_51 Column_52 Column_53 Column_54 Column_55 Column_56 Column_57 Column_58 Column_59 Column_60 Column_61 Column_62 Column_63 Column_64 Column_65 Column_66 Column_67 Column_68 Column_69 Column_70 Column_71 Column_72 Column_73 Column_74 Column_75 Column_76 Column_77 Column_78 Column_79 Column_80 Column_81 Column_82 Column_83 Column_84 Column_85 Column_86 Column_87 Column_88 Column_89 Column_90 Column_91 Column_92 Column_93 Column_94 Column_95 Column_96 Column_97 Column_98 Column_99 Column_100 Column_101
feature_infos=[-0.13525044520011484:7.3936910042729442] [-0.20034572195207528:4.9913718658749788] [-0.13267723930930275:7.5370877869169295] none [-0.17568209223157666:5.6920997883030831] [-0.13267723930930272:7.5370877869169277] [-0.11612999900505623:8.6110394262249184] none [-0.19672508785994686:5.0832357523811265] [-0.48895467010212135:2.0451793614961145] [-0.14026530396092615:7.1293468289105233] [-0.22917462425705279:4.363484845854285] [-0.17365955839140876:5.7583930839333037] none none none none [-0.16746275899373805:5.9714769182645124] [-0.16955068052027114:5.8979415295265749] [-0.20034572195207526:4.9913718658749779] none [-0.36769059632027107:2.7196779303242393] [-0.3064089797673954:3.2636119240341177] [-0.19489336934427667:5.1310108874638658] [-0.13267723930930272:7.5370877869169277] [-0.20916500663351886:4.7809144373375743] [-0.16321563730934324:6.1268639236122695] [-0.1566520899975915:6.3835726674018538] none [-0.16535138334062682:6.0477268456834263] [-0.1835759721520816:5.4473359899821769] none [-0.16239536978838218:25.169989469216972] [-0.17094894767997346:24.322263825150831] [-0.28426861367398215:14.979477056853963] [-1.2870452746078087:1.7183914985385931] [-1.7099443325333512:3.5271013467915124] [-1.7318137690575577:3.5355120457761626] [-3.2716052274135161:7.9037866240740176] [-3.1185953491407314:6.6728899678198585] [-3.4871734268031065:6.8662347248402158] [-2.6563356062442263:5.9944779461511555] [-3.1449907326135196:6.8194627476004008] [-0.87530421100874167:1.1424599441233729] [-0.86468168628961428:1.1564949458927969] [-0.929927022937862:1.0753532001261359] [-1.7503713877136649:3.4021199285379544] [-2.7962797272139186:7.4785571921640912] [-1.2998727610397807:1.6885811077819075] [-3.1592633124054812:1.7324035093206629] [-2.5489974136747819:3.1708123698323725] [-1.1252621970052348:6.1491305204778106] [-1.8006807803400826:3.5219854100903185] [-1.7099443325333512:3.5271013467915124] [-1.7638100018355938:3.6128983617768293] [-0.77061625778012055:1.2976627340833098] [-0.99138771639638357:1.0086870993670587] [-3.1695981974347056:1.7368625889281932] [-2.7905471349707494:7.4710354897512667] [-0.8128797455115877:1.2301942636922856] [-1.7098356431333297:3.5217393589013062] [-1.6612820972112894:3.9176495962600972] [-1.841913962633865:3.7305470709287603] [-0.84949954946196549:1.1771636613972951] [-1.1699581949334905:7.0122347502254456] [-1.7178668976430131:3.4931175076872387] [-1.6744589379127193:3.4924990804650511] [-1.8212173394923838:3.2677989657156399] [-2.8871292580937613:7.4403491318574595] [-2.6045564955779295:6.3703503474974248] [-4.3587540268880414:7.1511162020619006] [-3.0968316810264249:9.3539835378231704] [-2.2309698477742899:3.7684159372765924] [-2.2160612088227691:3.5027428307717576] [-1.7043439230448161:3.7144954751832229] [-1.7330958354777268:3.555471017346659] [-2.5736827957628119:3.3719668207115889] [-3.019873551204058:2.7660054103264904] [-2.7147716050059922:2.4898934164923099] [-2.0373334011507125:1.3678446166977625] none [-1.7577859109885383:3.6321017947223901] [-1.755146155401422:3.6430225801378859] [-1.7449596436582357:3.6603895871322338] [-1.9541182946468005:3.3512742849202808] [-1.817401740977781:4.2521458313135545] [-2.2240018729617206:4.7645516509417742] [-0.78493887166967635:1.2739845561130869] [-1.0118332214701147:7.5571773937093507] [-0.9374166629626336:1.0667614941253298] [-0.94118108346349094:1.0624947925218164] none [-0.20213541441759497:4.9471786172713061] [-0.13267723930930272:7.5370877869169277] none [-0.53657966583649352:1.8636561608071072] none none none none none none
tree_sizes=979 766 976 893 684 1005 998 782 997 1001 680 1003 894 787 999 894 784 993 997 787 1002 895 789 996 896 682 895 997 680 996 997 684 990 896 683 890 995 681 894 1000 681 1000 1000 680 893 999 683 1008 993 682 990 997 888 1001 1001 683 1006 997 795 899 892 784 999 891 786 1003 890 796 1004 1002 900 1005 1003 786 995 892 787 1001 889 896 999 1004 782 999 997 902 1001 892 785 895 996 899 999 892 783 893 996 1006 1004 888 897 1002 896 1012 1004 892 790 1001 790 1007 999 785 789 1004 896 1012 995 792 789 996 898 793 895 796 905 1000 794 1019 1002 899 792 995 997 1010 1000 791 793 890 793 1012 998 792 790 895 799 893 998 691 1007 890 1002 792 686 997 1018 998 687 893 689 689 788 785 684 1013 894 898 898 685 794 892 687 896 1016 791 576 788 581 798 1010 684 791 905 888 1005 1006 691 690 1011 891 797 1006 685 790 1014 791 686 897 890 689 1011 686 792 1011 788 997 1008 682 686 1012 586 585 1010 790 794 1006 894 687 896 582 790 1014 684 684 1013 790 793 1016 585 691 1011 685 800 786 576 789 1003 791 683 890 686 580 1014 690 898 897 794 1001 1018 587 901 896 795 681 1013 580 794 804 682 584 791 585 790 1019 685 688 893 790 792 1008 899 583 1013 584 689 910 688 789 1016 684 580 793 788 681 1011 581 799 905 684 896 1020 683 792 1003 789 900 896 900 996 1017 789 797 1002 686 689 905 993 798 1019 683 584 908 584 1000 792 580 688 904 998 897 905 1006 793 1018 686 795 908 890 791 903 582 581 1011 792 793 1019 579 689 904 687 894 1003 691 1002 1021 893 791 900 582 997 907 793 1001 903 690 898 1021 583 683 904 887 687 905 687 580 1022 784 1002 893 579 793 905 689 693 1010 994 899 1018 583 579 1017 789 1000 1016 690 578 904 687 689 1011 889 795 900 584 894 901 788 896 1009 1003 796 1010 684 998 906 896 579 909 897 793 1016 791 583 895 583 692 908 999 896 1015 576 890 1017 994 896 912 790 896 906 903 997 1019 893 796 902 999 1011 1008 1006 896 910 692 1006 903 1001 797 1021 995 786 909 691 999 901 901 898 904 789 793 909 997 1005 906 688 680 1011 693 796 1013 896 998 909 691 1003 907 582 999 1010 791 790 899 902 789 902 1002 896 900 901 786 1013 691 795 906 1003 998 801 796 794 1026 997 999 1012 996 900 908 688 795 1027 688 898 914 786 794 1024 898 1000 1016 790 894 903 896 790 1014 895 791 910 691 900 909 690 1002 1013 895 895 910 894 687 1013 791 896 914 684 581 907 897 687 1023 792 691 1010 892 895 906 891 1007 1012 797 899 907 898 1000 1024 692 892 1014 688 690 910 690 693 1017 685 791 1023 577 799 909 793 691 910 690 897 909 893 892 910 583 789 908 683 997 906 790 686 1025 998 898 1007 792 795 908 896 685 1015 793 689 909 694 796 905 795 997 1010 686 801 907 688 793 1022 1001 579 908 579 797 806 796 899 910 1007 792 912 797 692 911 689 900 917 898 789 1010 790 693 913 893 1002 1027 1003 788 910 687 1002 911 999 795 1010 793 797 1020 1004 1003 911 793 1004 1010 887 895 914 898 899 905 792 689 894 794 686 917 690 899 913 993 792 1017 1002 999 903 687 900 916 901 791 1011 996 896 921 797 895 914 900 899 1028 1015 1009 1014 1003 999 1026 685 685 1010 690 687 910 687 799 917 1004 684 910 692 896 916 794 898 1024 903 789 914 896 899 910 694 891 894 801 687 1013 899 1004 912 904 579 922 900 794 1026 580 687 915 692 684 908 798 898 918 795 896 1024 899 793 1015 1011 580 918 693 792 914 799 792 1022 693 1007 1023 685 692 909 687 998 926 1003 692 899 796 796 914 790 795 916 686 692 917 796 892 898 907 893 1013 897 689 1023 1012 898 1023 897 792 922 684 899 1024 688 1000 1015 793 894 902 899 790 920 686 896 927 904 895 809 793 787 1016 799 580 916 903 794 921 692 688 905 688 795 804 687 898 1019 1004 796 916 903 1001 1013 692 792 694 799 902 809 795 898 916 688 791 923 898 681 916 684 895 808 692 1000 904 794 688 1018 801 896 922 797 582 916 794 897 907 904 588 913 1007 892 693 897 1000 811 1007 899 915 690 1007 1015 1001 791 811 685 684 919 900

Tree=0
num_leaves=8
num_cat=0
split_feature=37 85 62 41 57 62 51
split_gain=31.6478 29.1607 23.1618 22.5478 15.7976 14.8475 10.1453
threshold=0.13224127373493785 -0.71932122257120923 -0.80872377577693177 -0.78426199647768835 1.1283615395049054 -0.85088912025491814 -0.21839382227077522
decision_type=2 2 2 2 2 2 2
left_child=1 2 -1 6 -5 -3 -2
right_child=3 5 -4 4 -6 -7 -8
leaf_value=-0.64417329011856561 -0.67744587786194566 -0.66989624504185952 -0.61805095686149847 -0.62147586553472811 -0.6446532131136038 -0.64743713218141519 -0.64155085375282095
leaf_weight=67.657914996147156 9.7188165187835676 31.025452733039856 55.696294665336609 158.49146938323975 31.773054003715515 181.29330813884735 26.166044473648071
leaf_count=181 26 83 149 424 85 485 70
internal_value=-0.638135 -0.643979 -0.632379 -0.62946 -0.625346 -0.650719 -0.651272
internal_weight=561.822 335.673 123.354 226.149 190.265 212.319 35.8849
internal_count=1503 898 330 605 509 568 96
is_linear=0
shrinkage=1


Tree=1
num_leaves=6
num_cat=0
split_feature=41 76 51 72 46
split_gain=17.9287 17.9519 8.00428 14.7896 7.98151
threshold=-1.309044761744748 -1.0096149464453812 -0.91786410163995868 -0.90434550056075891 -1.7123939344693333
decision_type=2 2 2 2 2
left_child=1 -1 3 -2 -4
right_child=2 -3 4 -5 -6
leaf_value=-4.1965239983525002 -4.1915526971828099 -4.4450890568370225 -4.3042355236957963 -4.4450890568370225 -4.4352262273829322
leaf_weight=0.60346373170614243 0.35497866570949554 0.46147226542234665 0.42597439885140431 0.49697013199329632 24.333787534385912
leaf_count=34 20 26 24 28 1371
internal_value=-4.42485 -4.30424 -4.42986 -4.33945 -4.43297
internal_weight=26.6766 1.06494 25.6117 0.851949 24.7598
internal_count=1503 60 1443 48 1395
is_linear=0
shrinkage=1


Tree=2
num_leaves=8
num_cat=0
split_feature=37 85 62 41 57 62 51
split_gain=32.5547 27.4286 24.3798 18.6753 16.8889 14.4501 12.946
threshold=0.15066625558313981 -0.71932122257120923 -0.80872377577693177 -0.78426199647768835 1.073706514605848 -0.85088912025491814 -0.21839382227077522
decision_type=2 2 2 2 2 2 2
left_child=1 2 -1 6 -5 -3 -2
right_child=3 5 -4 4 -6 -7 -8
leaf_value=-0.77050079170681451 -0.7366733917605679 -0.74603811515778318 -0.79734539720641673 -0.7953466010422684 -0.77447639592045525 -0.76806285643872629 -0.77728827087227004
leaf_weight=67.4350905418396 9.6868085861206037 31.295843124389648 55.512864589691162 135.98788976669312 46.943764686584473 187.02991962432861 26.079869270324707
leaf_count=181 26 84 149 365 126 502 70
internal_value=-0.777079 -0.771288 -0.782622 -0.786115 -0.789991 -0.764906 -0.766288
internal_weight=559.972 341.274 122.948 218.698 182.932 218.326 35.7667
internal_count=1503 916 330 587 491 586 96
is_linear=0
shrinkage=1


Tree=3
num_leaves=7
num_cat=0
split_feature=61 85 62 52 69 42
split_gain=29.3178 16.2891 22.3454 18.588 13.8164 14.184
threshold=0.41482592886516362 -0.71932122257120923 -0.80872377577693177 -0.39286547962656809 -1.2998603683453405 1.1696035618490166
decision_type=2 2 2 2 2 2
left_child=1 2 -1 -3 -2 -6
right_child=4 3 -4 -5 5 -7
leaf_value=-0.0057837935302726866 -0.018184394881185791 -0.016199823438311899 0.019888582801344538 -0.0013780756685723549 0.021365646981834647 -0.010197857773937908
leaf_weight=67.703203737735748 11.217987328767775 123.14112076163292 55.550981044769287 199.56040090322495 89.571260005235672 14.952651292085646
leaf_count=181 30 329 149 534 240 40
internal_value=1.1497e-06 -0.00349054 0.00578681 -0.00703397 0.0134547 0.0168503
internal_weight=561.698 445.956 123.254 322.702 115.742 104.524
internal_count=1503 1193 330 863 310 280
is_linear=0
shrinkage=0.03


Tree=4
num_leaves=5
num_cat=0
split_feature=69 40 0 51
split_gain=24.0447 14.2599 7.71253 7.68158
threshold=-1.3769497890642983 -1.4826809578537452 1.0000000180025095e-35 -0.91786410163995868
decision_type=2 2 2 2
left_child=1 -1 3 -2
right_child=2 -3 -4 -5
leaf_value=0.044970423034894326 0.078064051562872605 0.29275093022633064 0.12212265237517915 -0.010454759285051169
leaf_weight=0.45969830453395844 0.91523952968419209 0.38336575217545288 0.42145947366952796 24.523830080404878
leaf_count=22 47 20 24 1390
internal_value=-2.13521e-05 0.157643 -0.00516129 -0.00727005
internal_weight=26.7036 0.843064 25.8605 25.4391
internal_count=1503 42 1461 1437
is_linear=0
shrinkage=0.03


Tree=5
num_leaves=8
num_cat=0
split_feature=61 84 52 8 85 69 76
split_gain=30.8949 16.2997 17.0572 14.9688 11.2163 11.6724 4.54721
threshold=0.41482592886516362 -0.69983369487977765 -0.70500864651329886 1.0000000180025095e-35 0.7883102263711852 -1.2279931911915309 -1.1836710781719002
decision_type=2 2 2 2 2 2 2
left_child=1 2 -1 -3 6 -6 -2
right_child=4 3 -4 -5 5 -7 -8
leaf_value=0.021234949425510265 -0.0063825341730055244 -0.00092626311357036522 -0.0046750093227419104 0.033300728230341525 0.028845402103741879 -0.0098905833712823379 -0.027134496392237813
leaf_weight=77.641858458518982 11.897269099950789 322.55347925424576 32.414079606533051 11.924995332956312 8.1969983875751478 47.992420971393585 47.225479066371918
leaf_count=208 32 866 87 32 22 129 127
internal_value=-1.34308e-07 0.00358921 0.0136039 0.000294015 -0.0138372 -0.00423972 -0.0229586
internal_weight=559.847 444.534 110.056 334.478 115.312 56.1894 59.1227
internal_count=1503 1193 295 898 310 151 159
is_linear=0
shrinkage=0.03


Tree=6
num_leaves=8
num_cat=0
split_feature=37 85 41 62 57 62 74
split_gain=27.5155 25.9812 20.2655 20.2195 14.745 13.2115 9.55285
threshold=0.13224127373493785 -0.71932122257120923 -0.78426199647768835 -0.80872377577693177 1.1283615395049054 -0.85088912025491814 0.53822141311159266
decision_type=2 2 2 2 2 2 2
left_child=1 3 6 -1 -4 -3 -2
right_child=2 5 4 -5 -6 -7 -8
leaf_value=-0.0054741960567884392 -0.0031188145483048552 -0.029852152071171981 0.015766507105523197 0.018954470936598567 -0.0066359878533992188 -0.0086961815413524775 -0.037916106770564076
leaf_weight=67.749269992113113 26.172017425298691 31.119793206453323 157.95719093084335 55.453763663768768 31.758410274982452 181.55036750435829 9.7439519464969617
leaf_count=181 70 83 424 149 85 485 26
internal_value=1.85674e-06 -0.00544123 0.00810439 0.00552116 0.0120163 -0.0117919 -0.0125593
internal_weight=561.505 335.873 225.632 123.203 189.716 212.67 35.916
internal_count=1503 898 605 330 509 568 96
is_linear=0
shrinkage=0.03


Tree=7
num_leaves=6
num_cat=0
split_feature=69 41 72 47 66
split_gain=19.6307 10.2008 6.99298 15.8538 7.10324
threshold=-1.3769497890642983 -1.7890777121786019 -1.5416589731810566 -0.67041806836274864 -1.5978250906216105
decision_type=2 2 2 2 2
left_child=1 -1 3 -2 -4
right_child=2 -3 4 -5 -6
leaf_value=0.038109574902044793 -0.020236937701199612 0.23068151454965 0.10736783323180096 0.23357967465977461 -0.010370701086223604
leaf_weight=0.51351691223680973 0.59010694362223148 0.47802046686411159 0.47008601203561795 0.35455352254212158 24.316438687965267
leaf_count=23 34 19 24 19 1384
internal_value=-3.71019e-05 0.130949 -0.00508456 0.0750265 -0.00813774
internal_weight=26.7227 0.991537 25.7312 0.94466 24.7865
internal_count=1503 42 1461 53 1408
is_linear=0
shrinkage=0.03


Tree=8
num_leaves=8
num_cat=0
split_feature=61 84 52 8 42 42 55
split_gain=28.5835 15.2379 16.1738 14.3279 11.488 11.3709 4.45897
threshold=0.41482592886516362 -0.69983369487977765 -0.70500864651329886 1.0000000180025095e-35 1.1696035618490166 -1.4675030932405322 1.0000000180025095e-35
decision_type=2 2 2 2 2 2 2
left_child=1 2 -1 -3 5 -2 -6
right_child=4 3 -4 -5 6 -7 -8
leaf_value=0.020541247209060046 0.018618258455249587 -0.0009354063984499594 -0.0046837112341731758 0.032513071560313911 0.027669827116201005 -0.019863623442424871 -0.0051509334166595783
leaf_weight=77.787630259990692 7.4680044949054709 322.52825018763542 32.407368183135986 11.95302104949951 7.4427251219749433 92.612119197845459 7.4591304957866669
leaf_count=208 20 866 87 32 20 250 20
internal_value=-9.10607e-08 0.00344746 0.0131228 0.000259908 -0.013333 -0.0169921 0.0112414
internal_weight=559.658 444.676 110.195 334.481 114.982 100.08 14.9019
internal_count=1503 1193 295 898 310 270 40
is_linear=0
shrinkage=0.03


Tree=9
num_leaves=8
num_cat=0
split_feature=37 41 57 84 52 30 51
split_gain=25.6374 19.3268 14.1804 12.07 12.1004 11.9575 9.14367
threshold=0.13224127373493785 -0.78426199647768835 1.073706514605848 -0.69983369487977765 -0.70500864651329886 1.0000000180025095e-35 -0.21839382227077522
decision_type=2 2 2 2 2 2 2
left_child=3 6 -3 4 -1 -5 -2
right_child=1 2 -4 5 -6 -7 -8
leaf_value=-0.019747461119678091 -0.037146098739025038 0.016377022271214518 -0.0026236446683806204 -0.0025886170381515475 0.0018532915323575651 0.034282712101694306 -0.0031057972093806361
leaf_weight=78.341022074222565 9.7482047080993635 142.34510686993599 47.029875069856644 216.06364944577217 33.244784027338028 8.2170321643352491 26.161646097898483
leaf_count=209 26 383 126 578 89 22 70
internal_value=2.51422e-06 0.00783204 0.0116583 -0.00524919 -0.0133119 -0.00123775 -0.0123465
internal_weight=561.151 225.285 189.375 335.866 111.586 224.281 35.9099
internal_count=1503 605 509 898 298 600 96
is_linear=0
shrinkage=0.03


Tree=10
num_leaves=5
num_cat=0
split_feature=69 62 0 51
split_gain=16.4133 8.999 6.71921 6.83604
threshold=-1.3769497890642983 0.32601799371358803 1.0000000180025095e-35 -0.91786410163995868
decision_type=2 2 2 2
left_child=1 -1 3 -2
right_child=2 -3 -4 -5
leaf_value=0.19921954306214978 0.069791960549630161 0.030351869043584535 0.10736527928737916 -0.010293125638817294
leaf_weight=0.54635755717754608 0.99898375757039204 0.59149966947734356 0.4700959250330915 24.133872013539076
leaf_count=19 47 23 24 1390
internal_value=-5.31674e-05 0.111436 -0.00500801 -0.00710989
internal_weight=26.7408 1.13786 25.603 25.1329
internal_count=1503 42 1461 1437
is_linear=0
shrinkage=0.03


Tree=11
num_leaves=8
num_cat=0
split_feature=61 85 62 67 42 47 55
split_gain=27.0025 14.9322 21.2238 19.0398 10.9047 11.0365 4.32655
threshold=0.41482592886516362 -0.71932122257120923 -0.80872377577693177 -0.13009361244552883 1.1696035618490166 -0.64474084063703752 1.0000000180025095e-35
decision_type=2 2 2 2 2 2 2
left_child=1 2 -1 -3 5 -2 -6
right_child=4 3 -4 -5 6 -7 -8
leaf_value=0.0057017417576637874 -0.0025954816183761135 0.015006901310387706 -0.019383740801482925 0.00030167836713063351 0.027105087240159007 -0.02368827416528493 -0.0052102712767827216
leaf_weight=67.629498779773712 33.730217546224594 140.98764273524284 55.072963923215866 180.94465950131416 7.4568287730216962 66.031063228845596 7.4582789242267609
leaf_count=181 91 377 149 486 20 179 20
internal_value=1.9414e-08 0.0033476 -0.00555746 0.00674171 -0.0129796 -0.0165566 0.0109458
internal_weight=559.311 444.635 122.702 321.932 114.676 99.7613 14.9151
internal_count=1503 1193 330 863 310 270 40
is_linear=0
shrinkage=0.03


Tree=12
num_leaves=7
num_cat=0
split_feature=61 85 62 67 69 42
split_gain=23.9753 15.0315 18.9555 17.3363 11.6095 12.3141
threshold=0.41482592886516362 -0.71932122257120923 -0.80872377577693177 -0.13009361244552883 -1.2998603683453405 1.1696035618490166
decision_type=2 2 2 2 2 2
left_child=1 2 -1 -3 -2 -6
right_child=4 3 -4 -5 5 -7
leaf_value=-0.0048544583801637398 -0.016739460505018355 -0.014429369271011877 0.018817347030854713 -0.00041376595443740418 0.019603183654505967 -0.0098196189169809222
leaf_weight=67.807782024145126 11.240759462118147 141.26587274670601 55.252665936946869 181.45046219229698 88.740263313055038 14.960167139768599
leaf_count=181 30 377 149 486 240 40
internal_value=2.8666e-06 -0.00314713 0.0057739 -0.00654896 0.0122195 0.0153586
internal_weight=560.718 445.777 123.06 322.716 114.941 103.7
internal_count=1503 1193 330 863 310 280
is_linear=0
shrinkage=0.03


Tree=13
num_leaves=6
num_cat=0
split_feature=69 51 72 71 0
split_gain=14.1073 6.56035 6.23551 16.0526 6.26394
threshold=-1.3769497890642983 0.057032568954463965 -1.5416589731810566 -0.96176061772935684 1.0000000180025095e-35
decision_type=2 2 2 2 2
left_child=1 -1 3 -2 -4
right_child=2 -3 4 -5 -6
leaf_value=0.027755687421972021 -0.020258524194025112 0.16401671098933546 -0.010206897042353842 0.22814463303167307 0.095003417559762673
leaf_weight=0.62201354093849903 0.662092674523592 0.65062790550291538 23.927507212385539 0.36223778873682266 0.52037607505917449
leaf_count=19 36 23 1384 17 24
internal_value=-5.9086e-05 0.0974181 -0.00492923 0.0675852 -0.00796748
internal_weight=26.7449 1.27264 25.4722 1.02433 24.4479
internal_count=1503 42 1461 53 1408
is_linear=0
shrinkage=0.03


Tree=14
num_leaves=8
num_cat=0
split_feature=37 85 62 86 57 62 74
split_gain=24.6942 22.7107 19.1753 15.9433 15.838 11.6545 8.93628
threshold=0.15066625558313981 -0.71932122257120923 -0.80872377577693177 -0.77686165199357993 1.073706514605848 -0.85088912025491814 0.52569301535778745
decision_type=2 2 2 2 2 2 2
left_child=1 2 -1 6 -5 -3 -2
right_child=3 5 -4 4 -6 -7 -8
leaf_value=0.0053766404361543481 -0.0021002686356758758 0.027702028576055384 -0.018480285511929657 -0.017412304561890385 0.0029855225580839666 0.0079781972326723738 0.026241753782549743
leaf_weight=67.681142151355743 26.750366806983948 31.486885190010071 54.931750357151031 127.57818049192429 46.836155027151108 187.61775436997414 16.001633435487747
leaf_count=181 72 84 149 346 126 502 43
internal_value=-4.82946e-08 0.00502709 -0.00531149 -0.0079104 -0.0119348 0.0108127 0.00850786
internal_weight=558.884 341.718 122.613 217.166 174.414 219.105 42.752
internal_count=1503 916 330 587 472 586 115
is_linear=0
shrinkage=0.03


Tree=15
num_leaves=7
num_cat=0
split_feature=61 85 82 81 69 42
split_gain=22.5752 14.5796 19.7138 13.6642 10.8926 11.679
threshold=0.41482592886516362 0.030986405555259066 -0.46936781695463881 0.11197419325192863 -1.2998603683453405 1.1696035618490166
decision_type=2 2 2 2 2 2
left_child=1 2 -1 -3 -2 -6
right_child=4 3 -4 -5 5 -7
leaf_value=-0.0052177140608401671 -0.016167178208986731 -0.019791587300611889 0.010867586335738097 -0.0019413198878436625 0.01907725073527463 -0.0095824516701394635
leaf_weight=180.12421071529388 11.241245895624159 74.099505454301834 110.72724178433418 80.551749914884567 88.398174971342087 14.963078260421751
leaf_count=482 30 198 297 216 240 40
internal_value=3.3023e-06 -0.00305143 0.000905965 -0.0104941 0.0118782 0.0149283
internal_weight=560.105 445.503 290.851 154.651 114.602 103.361
internal_count=1503 1193 779 414 310 280
is_linear=0
shrinkage=0.03


Tree=16
num_leaves=6
num_cat=0
split_feature=69 62 72 68 0
split_gain=12.2845 6.339 5.65833 12.2335 5.56411
threshold=-1.3769497890642983 0.32601799371358803 -1.5416589731810566 -0.65235878741488673 1.0000000180025095e-35
decision_type=2 2 2 2 2
left_child=1 -1 3 -2 -4
right_child=2 -3 4 -5 -6
leaf_value=0.14985036919836855 -0.020256008799178118 0.0223911524309513 -0.010098741922954764 0.18424590469965221 0.084610548542197794
leaf_weight=0.70421389676630741 0.65586643666028976 0.70048671029508114 23.678138498216871 0.43981160782277828 0.57176219671964545
leaf_count=19 36 23 1384 17 24
internal_value=-6.66396e-05 0.0862899 -0.00485268 0.0618323 -0.00786569
internal_weight=26.7503 1.4047 25.3456 1.09568 24.2499
internal_count=1503 42 1461 53 1408
is_linear=0
shrinkage=0.03


Tree=17
num_leaves=8
num_cat=0
split_feature=61 85 82 81 33 39 47
split_gain=23.8781 14.187 18.6153 15.3699 10.2372 8.45712 1.62933
threshold=0.41482592886516362 0.030986405555259066 -0.46936781695463881 0.11197419325192863 0.71697026687777765 1.8343266219398078 -0.11424507816065547
decision_type=2 2 2 2 2 2 2
left_child=1 2 -1 -3 5 -2 -6
right_child=4 3 -4 -5 6 -7 -8
leaf_value=0.0051868777158700545 -0.018476482536955986 0.020356072502191552 -0.010467260756506839 0.0014002368380203805 0.021065439018664766 0.012068243691098912 0.0011078221613970438
leaf_weight=179.7560997903347 90.256874680519104 73.990070015192032 110.33188015222549 80.25239571928978 7.3651227653026581 8.9688469767570478 7.361218720674513
leaf_count=482 246 198 297 216 20 24 20
internal_value=-1.1989e-07 0.00314185 -0.000767007 0.0104933 -0.0122515 -0.0157156 0.0110893
internal_weight=558.283 444.33 290.088 154.242 113.952 99.2257 14.7263
internal_count=1503 1193 779 414 310 270 40
is_linear=0
shrinkage=0.03


Tree=18
num_leaves=8
num_cat=0
split_feature=37 85 41 62 57 62 51
split_gain=20.8606 22.064 17.6839 16.3939 13.0579 11.3225 8.54939
threshold=0.13224127373493785 -0.71932122257120923 -0.78426199647768835 -0.80872377577693177 1.1283615395049054 -0.85088912025491814 -0.21839382227077522
decision_type=2 2 2 2 2 2 2
left_child=1 3 6 -1 -4 -3 -2
right_child=2 5 4 -5 -6 -7 -8
leaf_value=-0.0044730898250252196 -0.036211294512994784 -0.027324729967323651 0.014325925572103177 0.017567631480729148 -0.0067899486898759477 -0.0077142846461181105 -0.0032719558340471608
leaf_weight=67.835372567176819 9.738149166107176 31.021081447601318 156.5209202170372 54.994711816310883 31.694109499454498 181.7273782491684 26.094770222902298
leaf_count=181 26 83 424 149 85 485 70
internal_value=4.01602e-06 -0.00472869 0.00709265 0.0053952 0.0107702 -0.0105737 -0.0122237
internal_weight=559.626 335.579 224.048 122.83 188.215 212.748 35.8329
internal_count=1503 898 605 330 509 568 96
is_linear=0
shrinkage=0.03


Tree=19
num_leaves=6
num_cat=0
split_feature=69 51 88 0 62
split_gain=10.7506 5.40568 8.78198 5.28445 4.7329
threshold=-1.3769497890642983 -0.91786410163995868 -0.79817493862400068 1.0000000180025095e-35 0.32601799371358803
decision_type=2 2 2 2 2
left_child=4 2 -2 -3 -1
right_child=1 3 -4 -5 -6
leaf_value=0.12642139063223229 0.14726611080197402 -0.010016844477164177 -0.020310946512587795 0.080536921354202928 0.021021589244909291
leaf_weight=0.81594431214034802 0.53677477687597275 23.494184573180977 0.59171086549759155 0.59468279406428237 0.7233598604798317
leaf_count=19 21 1390 27 23 23
internal_value=-7.67718e-05 -0.00477501 0.0593987 -0.00778134 0.0768912
internal_weight=26.7567 25.2174 1.12849 24.0889 1.5393
internal_count=1503 1461 48 1413 42
is_linear=0
shrinkage=0.03


Tree=20
num_leaves=8
num_cat=0
split_feature=61 85 62 67 33 39 38
split_gain=22.1178 13.4454 18.3389 15.9482 9.80919 7.91026 4.96223
threshold=0.41482592886516362 -0.71932122257120923 -0.80872377577693177 -0.13009361244552883 0.71697026687777765 1.8343266219398078 -0.09736683920632587
decision_type=2 2 2 2 2 2 2
left_child=1 2 -1 -3 5 -2 -6
right_child=4 3 -4 -5 6 -7 -8
leaf_value=0.0049845025988131814 -0.017911219097516126 0.013791789494327921 -0.018375853211390097 0.00033546698919378377 0.028381599958925596 0.011623406448028652 -0.0064571789494430225
leaf_weight=67.740278989076614 89.780127704143524 141.17451959848404 54.642677426338196 180.76956281065941 7.3862947523593903 8.9776240885257703 7.3320624530315381
leaf_count=181 246 377 149 486 20 24 20
internal_value=-3.46513e-07 0.00301858 -0.00544565 0.00623615 -0.0118213 -0.0152264 0.0110264
internal_weight=557.803 444.327 122.383 321.944 113.476 98.7578 14.7184
internal_count=1503 1193 330 863 310 270 40
is_linear=0
shrinkage=0.03


Tree=21
num_leaves=7
num_cat=0
split_feature=61 85 84 81 69 42
split_gain=19.6261 13.4136 18.2651 12.0787 10.2502 10.3415
threshold=0.41482592886516362 0.030986405555259066 -1.3320736305091354 0.11197419325192863 -1.3367155476857557 1.1696035618490166
decision_type=2 2 2 2 2 2
left_child=1 2 -1 -3 -2 -6
right_child=4 3 -4 -5 5 -7
leaf_value=-0.019943841088807632 -0.018307589305768375 -0.018720972303698971 0.0036684939643225113 -0.0019348030740013022 0.017748895729488991 -0.0092085346741713463
leaf_weight=33.302729696035385 9.7405702471733075 74.071015328168869 257.12914499640465 80.516448497772217 89.124885141849518 14.957093626260756
leaf_count=89 26 198 690 216 244 40
internal_value=4.35989e-06 -0.00283892 0.000960956 -0.00997794 0.0111209 0.013875
internal_weight=558.842 445.019 290.432 154.587 113.823 104.082
internal_count=1503 1193 779 414 310 284
is_linear=0
shrinkage=0.03


Tree=22
num_leaves=6
num_cat=0
split_feature=38 70 0 72 77
split_gain=9.54507 14.3193 8.58011 6.48105 2.36882
threshold=-1.1015289755707747 -0.42822828768547555 1.0000000180025095e-35 -1.5088527490998727 -0.28363061151569918
decision_type=2 2 2 2 2
left_child=1 4 3 -2 -1
right_child=2 -3 -4 -5 -6
leaf_value=-0.020274809078273798 0.062980538611430409 0.15642125683232233 0.090307681921219032 -0.012265981847261591 0.071777833823479853
leaf_weight=1.1022164234891534 1.0794256739318431 0.84706885740161197 0.81263017281889816 22.582647048868239 0.32601097598671924
leaf_count=60 44 23 27 1330 19
internal_value=-7.76102e-05 0.0586968 -0.00554159 -0.00883336 0.000737371
internal_weight=26.75 2.2753 24.4747 23.6621 1.42823
internal_count=1503 102 1401 1374 79
is_linear=0
shrinkage=0.03


Tree=23
num_leaves=8
num_cat=0
split_feature=61 85 84 81 33 39 38
split_gain=20.8236 13.0739 16.5707 14.0011 9.45716 7.46214 4.73743
threshold=0.41482592886516362 0.083561488219417973 -1.3320736305091354 0.11197419325192863 0.71697026687777765 1.8343266219398078 -0.09736683920632587
decision_type=2 2 2 2 2 2 2
left_child=1 2 -1 -3 5 -2 -6
right_child=4 3 -4 -5 6 -7 -8
leaf_value=0.019305655293573847 -0.017469575945202886 0.020760764264500176 -0.0029935959761076022 0.0016260420473348869 0.027865957169040688 0.011217978427229346 -0.0061819572094650487
leaf_weight=33.708184987306595 89.373630732297897 64.704063266515732 272.02493208646774 73.522560983896255 7.3979118764400482 8.9805369079112989 7.3143233954906446
leaf_count=90 246 173 732 198 20 24 20
internal_value=-6.47117e-07 0.00292658 -0.000535023 0.010583 -0.0114945 -0.0148502 0.0109387
internal_weight=557.026 443.96 305.733 138.227 113.066 98.3542 14.7122
internal_count=1503 1193 822 371 310 270 40
is_linear=0
shrinkage=0.03


Tree=24
num_leaves=7
num_cat=0
split_feature=61 85 62 67 76 85
split_gain=18.1657 12.5067 15.757 14.2579 9.91656 8.54403
threshold=0.41482592886516362 -0.71932122257120923 -0.80872377577693177 -0.13009361244552883 -1.4607111092156899 0.7883102263711852
decision_type=2 2 2 2 2 2
left_child=1 2 -1 -3 -2 -6
right_child=4 3 -4 -5 5 -7
leaf_value=-0.0042294217092947077 -0.022837061549716188 -0.012981783437200824 0.017411214475184345 -0.00026292196809674274 0.021460463027351703 0.0044183221981601286
leaf_weight=67.831190913915634 7.4047864675521842 141.03837421536446 54.70128470659256 181.27856311202049 53.796742886304855 52.134486824274063
leaf_count=181 20 377 149 486 148 142
internal_value=4.80799e-06 -0.00272691 0.00543145 -0.0058284 0.0107269 0.0130731
internal_weight=558.185 444.849 122.532 322.317 113.336 105.931
internal_count=1503 1193 330 863 310 290
is_linear=0
shrinkage=0.03


Tree=25
num_leaves=5
num_cat=0
split_feature=67 38 70 0
split_gain=14.343 9.31069 11.7577 8.07565
threshold=-1.7905275088769061 -1.1015289755707747 -0.92200074837453216 1.0000000180025095e-35
decision_type=2 2 2 2
left_child=-1 2 -2 -3
right_child=1 3 -4 -5
leaf_value=0.23171400596772562 -0.020272273630182632 -0.011194167969369015 0.11289528139323622 0.081087066539345068
leaf_weight=0.23810666985810058 1.0706959934905174 23.208223699592057 1.3479442810639763 0.88606498762965102
leaf_count=12 59 1362 43 27
internal_value=-8.61494e-05 -0.00216789 0.053944 -0.00780054
internal_weight=26.751 26.5129 2.41864 24.0943
internal_count=1503 1491 102 1389
is_linear=0
shrinkage=0.03


Tree=26
num_leaves=7
num_cat=0
split_feature=61 8 83 85 69 76
split_gain=19.2936 12.4959 11.3252 9.10142 8.9334 4.3514
threshold=0.41482592886516362 1.0000000180025095e-35 -1.0135917318432448 0.7883102263711852 -1.2279931911915309 -1.1836710781719002
decision_type=2 2 2 2 2 2
left_child=1 2 -1 5 -5 -2
right_child=3 -3 -4 4 -6 -7
leaf_value=0.015452332541969158 -0.003066778542441403 0.031688964167400489 0.0001842945095551732 0.026425569502560316 -0.0074536893279728081 -0.023632823680564904
leaf_weight=49.386197626590729 11.610558092594145 13.089245945215223 381.37006089091301 8.2325732707977277 46.966168075799942 45.718297719955444
leaf_count=132 32 35 1026 22 129 127
internal_value=-6.81674e-07 0.00281224 0.00193477 -0.0110958 -0.00240079 -0.0194677
internal_weight=556.373 443.846 430.756 112.528 55.1987 57.3289
internal_count=1503 1193 1158 310 151 159
is_linear=0
shrinkage=0.03


Tree=27
num_leaves=8
num_cat=0
split_feature=37 85 41 62 57 62 51
split_gain=17.4131 19.0764 16.4572 14.201 12.5482 10.3883 9.58627
threshold=0.13224127373493785 -0.71932122257120923 -0.7938953276541596 -0.80872377577693177 1.073706514605848 -0.85088912025491814 -0.21839382227077522
decision_type=2 2 2 2 2 2 2
left_child=1 3 6 -1 -4 -3 -2
right_child=2 5 4 -5 -6 -7 -8
leaf_value=-0.0040463360090444937 -0.038406865370771072 -0.025858748795515338 0.014492798874909863 0.01651591747759102 -0.0034470467797749621 -0.0070204738800236661 -0.0029047292300806602
leaf_weight=67.828645944595337 9.3417876958847028 30.814249455928802 140.96542078256607 54.531350553035736 46.720359116792679 181.66379025578499 25.61289581656456
leaf_count=181 25 83 385 149 126 485 69
internal_value=4.92016e-06 -0.00431852 0.00650712 0.0051175 0.0100271 -0.00975246 -0.0123928
internal_weight=557.478 334.838 222.64 122.36 187.686 212.478 34.9547
internal_count=1503 898 605 330 511 568 94
is_linear=0
shrinkage=0.03


Tree=28
num_leaves=5
num_cat=0
split_feature=67 69 64 62
split_gain=23.7832 8.33215 4.64705 2.57029
threshold=-1.8042201299328269 -1.3769497890642983 -0.67163806806263782 0.32601799371358803
decision_type=2 2 2 2
left_child=-1 3 -3 -2
right_child=1 2 -4 -5
leaf_value=0.37385387708384021 0.088078526962388631 0.027036482212288319 -0.011872306939132746 0.017268646462452745
leaf_weight=0.15220518037677067 1.1006569415330911 3.1694105397909977 21.525559389963739 0.79430108331143845
leaf_count=6 19 168 1287 23
internal_value=-8.6197e-05 -0.00222669 -0.00687866 0.0583975
internal_weight=26.7421 26.5899 24.695 1.89496
internal_count=1503 1497 1455 42
is_linear=0
shrinkage=0.03


Tree=29
num_leaves=8
num_cat=0
split_feature=37 85 86 57 40 84 74
split_gain=17.9955 17.8197 14.0841 14.6 13.6657 9.73769 7.6574
threshold=0.15066625558313981 -0.71932122257120923 -0.77686165199357993 1.073706514605848 0.074226323437540973 -0.74858594173277371 0.52569301535778745
decision_type=2 2 2 2 2 2 2
left_child=1 4 6 -4 -1 -3 -2
right_child=2 5 3 -5 -6 -7 -8
leaf_value=0.0019205631490044671 -0.0012267300799634292 0.020539488905089148 -0.015940692045991283 0.0037335302973795837 -0.019680642247013751 0.0058075487615236992 0.025058115660122341
leaf_weight=83.306477695703506 26.525661319494247 53.384793162345886 125.62718051671982 46.516551673412323 38.558204501867294 165.7795495390892 15.986875921487806
leaf_count=225 72 143 346 126 105 443 43
internal_value=-7.87813e-07 0.00428238 -0.00680554 -0.0106243 -0.0049141 0.009396 0.00865771
internal_weight=555.685 341.029 214.656 172.144 121.865 219.164 42.5125
internal_count=1503 916 587 472 330 586 115
is_linear=0
shrinkage=0.03


Tree=30
num_leaves=8
num_cat=0
split_feature=37 85 86 62 57 62 35
split_gain=16.1039 17.6404 14.336 13.5739 11.0963 9.88261 6.78247
threshold=0.13224127373493785 -0.71932122257120923 -1.0049750855876616 -0.80872377577693177 1.1283615395049054 -0.92965529004540293 -0.59021260679632614
decision_type=2 2 2 2 2 2 2
left_child=1 3 6 -1 -4 -3 -2
right_child=2 5 4 -5 -6 -7 -8
leaf_value=-0.0040196004421688561 -0.029072193931701712 -0.02662329672368477 0.012402081197478267 0.016104955076629297 -0.007039005026787312 -0.0069498554162335862 4.1475835879618551e-05
leaf_weight=67.830495715141296 13.386358559131624 26.217745155096054 161.48243847489357 54.321208626031876 31.592112571001053 186.0932477414608 15.58779865503311
leaf_count=181 36 71 442 149 85 497 42
internal_value=4.81956e-06 -0.00415333 0.00626807 0.00492985 0.009221 -0.00937928 -0.0134093
internal_weight=556.511 334.463 222.049 122.152 193.075 212.311 28.9742
internal_count=1503 898 605 330 527 568 78
is_linear=0
shrinkage=0.03


Tree=31
num_leaves=5
num_cat=0
split_feature=67 38 67 0
split_gain=15.7329 8.33423 9.60831 7.22589
threshold=-1.8042201299328269 -1.1015289755707747 0.76373538778211991 1.0000000180025095e-35
decision_type=2 2 2 2
left_child=-1 2 -2 -3
right_child=1 3 -4 -5
leaf_value=0.25287539916632967 -0.00050373438999510222 -0.011092436342868547 0.11649490053171006 0.072698125149304182
leaf_weight=0.21946722269058483 1.4944048952311306 22.955905762501065 1.0943246185779569 0.96522983908653159
leaf_count=6 60 1368 42 27
internal_value=-8.3736e-05 -0.00217791 0.0489547 -0.00771145
internal_weight=26.7293 26.5099 2.58873 23.9211
internal_count=1503 1497 102 1395
is_linear=0
shrinkage=0.03


Tree=32
num_leaves=8
num_cat=0
split_feature=61 85 84 81 33 39 38
split_gain=17.1065 12.058 14.3937 12.0582 9.0244 6.63653 4.37444
threshold=0.41482592886516362 0.083561488219417973 -1.3320736305091354 0.11197419325192863 0.71697026687777765 1.8343266219398078 -0.09736683920632587
decision_type=2 2 2 2 2 2 2
left_child=1 2 -1 -3 5 -2 -6
right_child=4 3 -4 -5 6 -7 -8
leaf_value=0.017836006803625699 -0.016313333816419202 0.019452650496214835 -0.002978088205633406 0.0016828944550263062 0.027757023620420821 0.010762008461724331 -0.0050823349567910604
leaf_weight=33.603152364492416 88.032215297222137 64.61066535115242 271.48722383379936 73.427142560482025 7.3690935075283051 8.9787299036979658 7.234917074441908
leaf_count=90 246 173 732 198 20 24 20
internal_value=-8.00261e-07 0.00264314 -0.00068559 0.0100003 -0.0104977 -0.0138074 0.0114882
internal_weight=554.743 443.128 305.09 138.038 111.615 97.0109 14.604
internal_count=1503 1193 822 371 310 270 40
is_linear=0
shrinkage=0.03


Tree=33
num_leaves=7
num_cat=0
split_feature=61 85 82 76 33 70
split_gain=15.1118 11.904 16.3213 8.86864 8.77392 8.58975
threshold=0.41482592886516362 0.030986405555259066 -0.46936781695463881 -1.4607111092156899 0.71697026687777765 0.18497796675833625
decision_type=2 2 2 2 2 2
left_child=1 2 -1 -2 -5 -3
right_child=3 5 -4 4 -6 -7
leaf_value=-0.0044763042881476641 -0.021877044076318856 -0.01625409337759991 0.010199296113869544 0.015547202477821678 -0.0097496885469134081 -0.0020883334439579836
leaf_weight=179.35549446940422 7.4063441753387442 77.556174159049988 110.05263149738312 90.367664068937302 14.291050374507902 76.550565749406815
leaf_count=482 20 208 297 251 39 206
internal_value=4.93784e-06 -0.00248212 0.00110436 0.00984787 0.0120929 -0.00921743
internal_weight=555.58 443.515 289.408 112.065 104.659 154.107
internal_count=1503 1193 779 310 290 414
is_linear=0
shrinkage=0.03


Tree=34
num_leaves=5
num_cat=0
split_feature=67 38 70 0
split_gain=11.9462 7.65963 8.87209 6.57117
threshold=-1.8042201299328269 -1.1015289755707747 -0.92200074837453216 1.0000000180025095e-35
decision_type=2 2 2 2
left_child=-1 2 -2 -3
right_child=1 3 -4 -5
leaf_value=0.19586786160822792 -0.020289805773846269 -0.010981290804874391 0.090109523300197406 0.066276099457183921
leaf_weight=0.27710303291678684 1.0988337546586993 22.687300300225619 1.6225057709962154 1.0360934697091568
leaf_count=6 59 1368 43 27
internal_value=-8.54706e-05 -0.00213878 0.045532 -0.00760716
internal_weight=26.7218 26.4447 2.72134 23.7234
internal_count=1503 1497 102 1395
is_linear=0
shrinkage=0.03


Tree=35
num_leaves=7
num_cat=0
split_feature=61 8 84 33 39 38
split_gain=16.0888 11.934 11.2403 8.73906 6.25496 4.18515
threshold=0.41482592886516362 1.0000000180025095e-35 -0.74858594173277371 0.71697026687777765 1.8343266219398078 -0.09736683920632587
decision_type=2 2 2 2 2 2
left_child=1 2 -1 4 -2 -5
right_child=3 -3 -4 5 -6 -7
leaf_value=0.010944054879087495 -0.01592051318644952 0.030806105375183822 -0.0008456647021203124 0.027319925120401871 0.010374662846961541 -0.0048149377919401385
leaf_weight=92.845022797584534 87.574761867523193 13.065909832715986 336.76988679170609 7.3780884742736816 8.9762057960033399 7.2139343619346601
leaf_count=250 246 35 908 20 24 20
internal_value=-8.29594e-07 0.00256125 0.00170224 -0.0102056 -0.0134759 0.0114332
internal_weight=553.824 442.681 429.615 111.143 96.551 14.592
internal_count=1503 1193 1158 310 270 40
is_linear=0
shrinkage=0.03


Tree=36
num_leaves=8
num_cat=0
split_feature=64 84 58 49 57 60 88
split_gain=14.454 13.175 15.7977 12.3736 10.4456 7.27096 0.976778
threshold=-0.4374825009156279 -0.69548852126445027 -0.60748678900123443 -1.1630164950068795 -0.55252961778510723 -1.6454062336734154 -0.24288231539915905
decision_type=2 2 2 2 2 2 2
left_child=1 5 -3 6 -5 -1 -2
right_child=3 2 -4 4 -6 -7 -8
leaf_value=-0.0013743681281404602 0.037655552555584934 -0.019544317590361845 0.003305321403431173 -0.010646242183167506 0.0045331536806574139 -0.027424674127842875 0.022605314417972044
leaf_weight=13.364424139261244 7.4180914461612693 35.707366168498993 114.72812104225159 47.38670802116394 293.5566703081131 34.629009425640106 8.1396594345569593
leaf_count=36 20 96 309 128 799 93 22
internal_value=5.15253e-06 -0.00648454 -0.00211827 0.00361732 0.00242341 -0.0201706 0.0297814
internal_weight=554.93 198.429 150.435 356.501 340.943 47.9934 15.5578
internal_count=1503 534 405 969 927 129 42
is_linear=0
shrinkage=0.03


Tree=37
num_leaves=5
num_cat=0
split_feature=67 38 50 72
split_gain=9.58749 7.08227 7.82447 6.06018
threshold=-1.8042201299328269 -1.1015289755707747 -0.84206243588570873 -1.5088527490998727
decision_type=2 2 2 2
left_child=-1 2 -2 -3
right_child=1 3 -4 -5
leaf_value=0.16027996978437101 0.0097118429608991502 0.061113795059251075 0.11786785870241111 -0.01088389124307431
leaf_weight=0.33134977146983402 1.9790072785690429 1.1039639813825584 0.86518095713109033 22.431754452176385
leaf_count=6 80 44 22 1351
internal_value=-8.87933e-05 -0.00210314 0.0426121 -0.00750678
internal_weight=26.7113 26.3799 2.84419 23.5357
internal_count=1503 1497 102 1395
is_linear=0
shrinkage=0.03


Tree=38
num_leaves=7
num_cat=0
split_feature=61 8 83 33 39 38
split_gain=14.9142 11.3704 9.32952 8.13558 6.07493 4.01146
threshold=0.41482592886516362 1.0000000180025095e-35 -1.0135917318432448 0.71697026687777765 1.8343266219398078 -0.09736683920632587
decision_type=2 2 2 2 2 2
left_child=1 2 -1 4 -2 -5
right_child=3 -3 -4 5 -6 -7
leaf_value=0.013927362477358185 -0.015455111644987691 0.030042082770222984 3.4377683757195936e-05 0.026526572621265097 0.010467430199734947 -0.0049097105512974594
leaf_weight=49.119082927703857 86.997099488973618 13.055829733610151 380.4180254638195 7.3947661221027374 8.9757871031761152 7.2204364836215955
leaf_count=132 246 35 1026 20 24 20
internal_value=-8.81145e-07 0.00246141 0.00162309 -0.00985539 -0.0130307 0.0109959
internal_weight=553.181 442.593 429.537 110.588 95.9729 14.6152
internal_count=1503 1193 1158 310 270 40
is_linear=0
shrinkage=0.03


Tree=39
num_leaves=8
num_cat=0
split_feature=37 85 41 40 57 62 51
split_gain=13.7353 16.6637 15.2484 12.7786 11.4694 9.17593 8.43945
threshold=0.13224127373493785 -0.71932122257120923 -0.7938953276541596 0.074226323437540973 1.073706514605848 -0.85088912025491814 -0.21839382227077522
decision_type=2 2 2 2 2 2 2
left_child=1 3 6 -1 -4 -3 -2
right_child=2 5 4 -5 -6 -7 -8
leaf_value=-0.0015917840262645968 -0.036959136109596662 -0.02416744629996263 0.013527591051684025 0.019309737894447392 -0.0036719514641546606 -0.0063622802275065619 -0.003514636584081971
leaf_weight=83.424272537231445 9.26300001144409 30.416234612464905 139.35976168513298 38.462031751871109 46.549317687749863 181.44923609495163 25.441240161657333
leaf_count=225 25 83 385 105 126 485 69
internal_value=5.21418e-06 -0.00383403 0.00581337 0.00500383 0.00922104 -0.00891846 -0.0124414
internal_weight=554.365 333.752 220.613 121.886 185.909 211.865 34.7042
internal_count=1503 898 605 330 511 568 94
is_linear=0
shrinkage=0.03


Tree=40
num_leaves=5
num_cat=0
split_feature=67 40 90 72
split_gain=7.9866 6.59648 9.49318 5.97271
threshold=-1.8042201299328269 -1.2817206594673689 1.0000000180025095e-35 -1.5416589731810566
decision_type=2 2 2 2
left_child=-1 2 -2 -3
right_child=1 3 -4 -5
leaf_value=0.13607831701755482 0.00080818187212222789 0.061945950962040301 0.13089668203035404 -0.009836601286547576
leaf_weight=0.38214200735092418 1.3970359740778833 1.0927146729081965 0.79056289792060841 23.032252055592828
leaf_count=6 45 44 21 1387
internal_value=-8.45662e-05 -0.00206208 0.0478201 -0.00658529
internal_weight=26.6947 26.3126 2.1876 24.125
internal_count=1503 1497 66 1431
is_linear=0
shrinkage=0.03


Tree=41
num_leaves=8
num_cat=0
split_feature=37 85 62 41 57 51 62
split_gain=14.2263 15.4883 13.5406 12.9481 12.4016 8.95074 8.62016
threshold=0.15066625558313981 -0.71932122257120923 -0.80872377577693177 -0.78426199647768835 1.073706514605848 -0.21839382227077522 -0.85088912025491814
decision_type=2 2 2 2 2 2 2
left_child=1 2 -1 5 -5 -2 -3
right_child=3 6 -4 4 -6 -7 -8
leaf_value=0.0041234744375929977 0.035081475690730599 0.023233368525856363 -0.016052192149388491 -0.014122527395661688 0.0039379671681671734 0.0012179593151849736 0.0061532041627155275
leaf_weight=67.765935957431793 9.6754161417484266 30.981607764959335 53.632308453321457 130.81148013472557 46.340538024902344 25.643063217401505 187.75354692339897
leaf_count=181 26 84 149 365 126 70 502
internal_value=-1.14568e-06 0.00380324 -0.0047899 -0.00609139 -0.00939815 0.0104948 0.00857244
internal_weight=552.604 340.133 121.398 212.47 177.152 35.3185 218.735
internal_count=1503 916 330 587 491 96 586
is_linear=0
shrinkage=0.03


Tree=42
num_leaves=8
num_cat=0
split_feature=64 84 58 49 57 60 88
split_gain=13.3914 12.0974 14.8567 11.9298 9.71797 7.10205 0.947629
threshold=-0.4374825009156279 -0.69548852126445027 -0.60748678900123443 -1.1630164950068795 -0.55252961778510723 -1.6454062336734154 -0.24288231539915905
decision_type=2 2 2 2 2 2 2
left_child=1 5 -3 6 -5 -1 -2
right_child=3 2 -4 4 -6 -7 -8
leaf_value=-0.00078247928182465572 0.037003626277016075 -0.018982096495658015 0.0031989873605181803 -0.010305415602342374 0.0043546656751785526 -0.026581766745831077 0.022151115472033852
leaf_weight=13.310969203710554 7.385480284690856 35.632054835557938 114.52794906497002 47.273122102022171 292.47100394964218 34.474238902330399 8.1133854091167432
leaf_count=36 20 96 309 128 799 93 22
internal_value=4.79942e-06 -0.00624819 -0.00206445 0.00348903 0.00231481 -0.0193952 0.0292286
internal_weight=553.188 197.945 150.16 355.243 339.744 47.7852 15.4989
internal_count=1503 534 405 969 927 129 42
is_linear=0
shrinkage=0.03


Tree=43
num_leaves=5
num_cat=0
split_feature=67 38 67 32
split_gain=6.84684 6.31843 7.0523 6.80005
threshold=-1.8042201299328269 -1.1015289755707747 0.76373538778211991 -0.16227619243243499
decision_type=2 2 2 2
left_child=-1 2 -2 -3
right_child=1 3 -4 -5
leaf_value=0.11881433855138103 -0.0026722496945098288 0.068917899707705968 0.089405626868319724 -0.01078830746933118
leaf_weight=0.42896172404289501 1.6634223451837926 1.0070024477317989 1.3612541221082208 22.206808987073597
leaf_count=6 60 51 42 1344
internal_value=-7.30436e-05 -0.00201668 0.0387674 -0.0073307
internal_weight=26.6674 26.2385 3.02468 23.2138
internal_count=1503 1497 102 1395
is_linear=0
shrinkage=0.03


Tree=44
num_leaves=7
num_cat=0
split_feature=61 8 84 33 78 38
split_gain=13.4545 10.8415 10.0945 7.89163 6.03393 3.82135
threshold=0.41482592886516362 1.0000000180025095e-35 -0.74858594173277371 0.71697026687777765 -1.5581544597358643 -0.09736683920632587
decision_type=2 2 2 2 2 2
left_child=1 2 -1 4 -2 -5
right_child=3 -3 -4 5 -6 -7
leaf_value=0.010294508207673936 0.0054194458612641548 0.029315168972173698 -0.00089828863235509452 0.026308811654685169 -0.015722832388572552 -0.0044239610013250474
leaf_weight=92.463194340467453 14.29573994874954 13.009185731410978 336.2046432197094 7.3879720568656921 80.901885420084 7.1801888942718488
leaf_count=250 40 35 908 20 230 20
internal_value=-1.28232e-06 0.00233478 0.00151599 -0.00940118 -0.0125479 0.0111616
internal_weight=551.443 441.677 428.668 109.766 95.1976 14.5682
internal_count=1503 1193 1158 310 270 40
is_linear=0
shrinkage=0.03


Tree=45
num_leaves=8
num_cat=0
split_feature=37 85 41 40 57 62 51
split_gain=12.1436 14.9277 14.431 12.18 11.4083 8.02065 7.66784
threshold=0.15066625558313981 -0.71932122257120923 -0.7938953276541596 0.074226323437540973 1.073706514605848 -0.85088912025491814 -0.21839382227077522
decision_type=2 2 2 2 2 2 2
left_child=1 3 6 -1 -4 -3 -2
right_child=2 5 4 -5 -6 -7 -8
leaf_value=-0.0015288153372700205 -0.035631809440417002 -0.022479977191593722 0.013570651226000756 0.018914169700468685 -0.0037108738030729432 -0.0058916154358875077 -0.0036264045787492111
leaf_weight=83.319619238376617 9.1706951260566694 30.496504634618759 131.78126692771912 38.281881809234619 46.514185577630997 187.63315171003342 25.387033373117447
leaf_count=225 25 84 367 105 126 502 69
internal_value=4.67588e-06 -0.00351553 0.00562321 0.00490693 0.0090622 -0.00821082 -0.0121198
internal_weight=552.584 339.731 212.853 121.602 178.295 218.13 34.5577
internal_count=1503 916 587 330 493 586 94
is_linear=0
shrinkage=0.03


Tree=46
num_leaves=5
num_cat=0
split_feature=67 86 86 57
split_gain=5.93526 5.99174 7.02009 3.39666
threshold=-1.8042201299328269 -1.2420905754675073 -1.3432207441354147 -2.3287174106845758
decision_type=2 2 2 2
left_child=-1 2 -2 -3
right_child=1 3 -4 -5
leaf_value=0.10495582956563863 0.0091359723804849882 0.051026357871633947 0.10150251892576546 -0.010399213914651999
leaf_weight=0.47564919292927044 3.0110995480790739 0.84218502882869017 0.98208863195032137 21.337693809531622
leaf_count=6 102 53 36 1306
internal_value=-6.77579e-05 -0.00197638 0.0318527 -0.00806684
internal_weight=26.6487 26.1731 3.99319 22.1799
internal_count=1503 1497 138 1359
is_linear=0
shrinkage=0.03


Tree=47
num_leaves=8
num_cat=0
split_feature=61 85 82 81 85 69 76
split_gain=12.7164 11.3169 12.6551 10.2719 7.83697 7.82516 4.00365
threshold=0.41482592886516362 0.083561488219417973 -0.46936781695463881 0.11197419325192863 0.7883102263711852 -1.2279931911915309 -1.1836710781719002
decision_type=2 2 2 2 2 2 2
left_child=1 2 -1 -3 6 -6 -2
right_child=4 3 -4 -5 5 -7 -8
leaf_value=0.0040702649783734461 -0.0012389392500468466 0.018160768757890178 -0.0084077273866987046 0.0017259847979360834 0.025956147943230194 -0.0058629435551241964 -0.021212247925658324
leaf_weight=181.35295969247818 11.371812641620634 64.278899639844894 122.60441991686821 73.208326697349548 8.1979020237922651 45.917641311883926 43.904035598039627
leaf_count=489 32 173 333 198 22 129 127
internal_value=-1.41258e-06 0.00226765 -0.000962865 0.00940968 -0.00915811 -0.00104271 -0.0171032
internal_weight=550.836 441.445 303.957 137.487 109.391 54.1155 55.2758
internal_count=1503 1193 822 371 310 151 159
is_linear=0
shrinkage=0.03


Tree=48
num_leaves=8
num_cat=0
split_feature=64 69 84 49 85 79 85
split_gain=12.3218 11.7029 12.8523 11.404 9.5915 4.83484 0.636406
threshold=-0.4374825009156279 -0.5828510378379832 -0.69548852126445027 -1.1630164950068795 -0.5039982870157349 0.4545274624527138 -0.02657264658543983
decision_type=2 2 2 2 2 2 2
left_child=1 5 -3 6 -5 -1 -2
right_child=3 2 -4 4 -6 -7 -8
leaf_value=-0.0089279811565189972 0.034330374225545253 -0.01667171158025265 0.0028248641818272423 0.010385455562360599 -0.00091189458334565271 -0.029784027949478962 0.022118479684764727
leaf_weight=18.193974375724792 8.1672610938549024 41.267028629779816 115.8812640607357 93.408100098371506 245.13464614748955 22.222373604774475 7.250108838081359
leaf_count=49 22 112 313 254 673 60 20
internal_value=4.2515e-06 -0.00599779 -0.00229492 0.00335432 0.00220518 -0.0203954 0.0285877
internal_weight=551.525 197.565 157.148 353.96 338.543 40.4163 15.4174
internal_count=1503 534 425 969 927 109 42
is_linear=0
shrinkage=0.03


Tree=49
num_leaves=5
num_cat=0
split_feature=67 38 70 32
split_gain=5.23849 5.77167 6.58071 6.13495
threshold=-1.8042201299328269 -1.1015289755707747 -0.92200074837453216 -0.16227619243243499
decision_type=2 2 2 2
left_child=-1 2 -2 -3
right_child=1 3 -4 -5
leaf_value=0.094336211396126787 -0.020323025359673678 0.062463607014238393 0.069208474390933791 -0.010631930112743828
leaf_weight=0.51882056891918438 1.1739522414281967 1.0847033923491896 1.9935853630304361 21.852959777228531
leaf_count=6 59 51 43 1344
internal_value=-5.73297e-05 -0.00193333 0.0360263 -0.0071753
internal_weight=26.624 26.1052 3.16754 22.9377
internal_count=1503 1497 102 1395
is_linear=0
shrinkage=0.03


Tree=50
num_leaves=8
num_cat=0
split_feature=64 49 69 84 42 79 88
split_gain=12.0078 13.7549 13.3806 11.5473 10.3105 4.8647 0.298305
threshold=-0.4374825009156279 -1.1630164950068795 -0.5828510378379832 -0.69548852126445027 1.1083646180036235 0.4545274624527138 -0.22208565876966449
decision_type=2 2 2 2 2 2 2
left_child=2 6 5 -4 -3 -1 -2
right_child=1 4 3 -5 -6 -7 -8
leaf_value=0.0098015804283045072 -0.035174725629706423 -0.003895378159673495 0.015535622721156297 -0.0029193652121474204 0.012925014612921629 0.030717559543375128 -0.026776031693158363
leaf_weight=18.188346147537231 7.9984804093837738 300.343381524086 41.474135994911194 115.46558377146721 36.819056838750839 22.251407980918884 7.2614806294441205
leaf_count=49 22 827 112 313 100 60 20
internal_value=-1.4885e-06 -0.00331943 0.00592272 0.0019577 -0.00205855 0.0213103 -0.0311782
internal_weight=549.802 352.422 197.379 156.94 337.162 40.4398 15.26
internal_count=1503 969 534 425 927 109 42
is_linear=0
shrinkage=0.03


Tree=51
num_leaves=8
num_cat=0
split_feature=64 69 49 35 85 79 88
split_gain=11.3906 10.7841 10.5981 9.9677 9.21242 4.48739 0.905041
threshold=-0.4374825009156279 -0.5828510378379832 -1.1630164950068795 -1.0917548428163084 -0.5039982870157349 0.4545274624527138 -0.24288231539915905
decision_type=2 2 2 2 2 2 2
left_child=1 5 6 -3 -4 -1 -2
right_child=2 3 4 -5 -6 -7 -8
leaf_value=-0.0085606653084807239 0.035291874571241263 0.023509009894230042 0.010143697535847294 -0.0044365632131175359 -0.00093315275668171081 -0.028666202269754665 0.020688470327244878
leaf_weight=18.191424638032913 7.2861718237400046 12.479364573955534 93.300026565790176 144.47419890761375 245.07727003097534 22.163089781999588 8.0275909006595594
leaf_count=49 20 34 254 391 673 60 22
internal_value=4.13836e-06 -0.00577094 0.00322579 -0.00221461 0.00212104 -0.0196028 0.0276367
internal_weight=550.999 197.308 353.691 156.954 338.377 40.3545 15.3138
internal_count=1503 534 969 425 927 109 42
is_linear=0
shrinkage=0.03


Tree=52
num_leaves=7
num_cat=0
split_feature=38 72 0 38 66 39
split_gain=4.84923 6.03544 6.21615 5.92668 13.1621 1.16
threshold=-1.1015289755707747 -1.5416589731810566 1.0000000180025095e-35 -1.4390780411469681 0.60625719003537137 -1.2999411713591191
decision_type=2 2 2 2 2 2
left_child=3 -2 -3 5 -5 -1
right_child=1 2 -4 4 -6 -7
leaf_value=-0.020802029423632691 0.065603272234332127 -0.011757399526503705 0.061574622619807402 0.010246009988364918 0.19293348507022778 0.031228342735323194
leaf_weight=1.1691476535052059 1.0452140495181144 21.192388436757028 1.0940497703850258 0.96727108117193228 0.56067249178886414 0.57545996829867396
leaf_count=31 36 1338 27 34 14 23
internal_value=-5.63456e-05 -0.00485316 -0.0081575 0.0341425 0.0772824 -0.00363978
internal_weight=26.6042 23.3317 22.2864 3.27255 1.52794 1.74461
internal_count=1503 1401 1365 102 48 54
is_linear=0
shrinkage=0.03


Tree=53
num_leaves=8
num_cat=0
split_feature=61 85 82 81 33 78 38
split_gain=11.8079 10.9076 11.912 9.54299 7.5103 5.68431 3.60961
threshold=0.41482592886516362 0.083561488219417973 -0.46936781695463881 0.11197419325192863 0.71697026687777765 -1.5581544597358643 -0.09736683920632587
decision_type=2 2 2 2 2 2 2
left_child=1 2 -1 -3 5 -2 -6
right_child=4 3 -4 -5 6 -7 -8
leaf_value=0.0038934990513967696 0.0055057775631893388 0.017652480455022535 -0.0082266737797354467 0.001794103792263093 0.025953922590279486 -0.015059705505946387 -0.0039724241310357539
leaf_weight=181.09901064634323 14.251567453145979 64.097950547933578 122.24378526210785 73.098474532365799 7.3747004270553589 79.973326563835144 7.1387189924716932
leaf_count=489 40 173 333 198 20 230 20
internal_value=-1.42232e-06 0.00218388 -0.000990796 0.00920311 -0.00885488 -0.0119492 0.011234
internal_weight=549.278 440.539 303.343 137.196 108.738 94.2249 14.5134
internal_count=1503 1193 822 371 310 270 40
is_linear=0
shrinkage=0.03


Tree=54
num_leaves=8
num_cat=0
split_feature=37 85 41 40 57 62 51
split_gain=10.7809 13.9666 13.665 11.4644 11.0073 7.47584 6.97564
threshold=0.15066625558313981 -0.71932122257120923 -0.7938953276541596 0.074226323437540973 1.073706514605848 -0.92965529004540293 -0.21839382227077522
decision_type=2 2 2 2 2 2 2
left_child=1 3 6 -1 -4 -3 -2
right_child=2 5 4 -5 -6 -7 -8
leaf_value=-0.0013920385245140253 -0.034642306029746772 -0.02301475062681772 0.01312257070028915 0.018486609117593457 -0.0038821917606119633 -0.0058199760261603136 -0.0039244436498333968
leaf_weight=83.224772721529007 9.0350987613201124 25.821867436170578 130.86846086382866 38.047771334648132 46.408607393503189 191.70974910259247 25.240233331918716
leaf_count=225 25 72 367 105 126 514 69
internal_value=4.73364e-06 -0.00331315 0.00531837 0.00484464 0.00867097 -0.00786106 -0.0120218
internal_weight=550.357 338.804 211.552 121.273 177.277 217.532 34.2753
internal_count=1503 916 587 330 493 586 94
is_linear=0
shrinkage=0.03


Tree=55
num_leaves=5
num_cat=0
split_feature=1 79 67 0
split_gain=4.80579 8.6913 5.00928 5.13003
threshold=1.0000000180025095e-35 0.45970447117705432 -1.8042201299328269 1.0000000180025095e-35
decision_type=2 2 2 2
left_child=2 -2 -1 -4
right_child=1 -3 3 -5
leaf_value=0.086259599037888796 -0.020203929192563433 0.14880122915068575 -0.0076939262315145595 0.056956345640259719
leaf_weight=0.55719628930092469 0.56693921051919349 0.52975862473249435 23.778622280806307 1.1584593057632435
leaf_count=6 38 20 1412 27
internal_value=-5.75945e-05 0.0614338 -0.0027028 -0.00469058
internal_weight=26.591 1.0967 25.4943 24.9371
internal_count=1503 58 1445 1439
is_linear=0
shrinkage=0.03


Tree=56
num_leaves=8
num_cat=0
split_feature=61 85 82 81 85 37 76
split_gain=11.3147 10.3633 11.3705 9.16375 7.31787 7.43882 3.89646
threshold=0.41482592886516362 0.083561488219417973 -0.46936781695463881 0.11197419325192863 0.7883102263711852 3.1079619722334697 -1.1836710781719002
decision_type=2 2 2 2 2 2 2
left_child=1 2 -1 -3 6 -6 -2
right_child=4 3 -4 -5 5 -7 -8
leaf_value=0.0038102321727695814 -0.00073472856012704341 0.017270052774899399 -0.0080381794041053129 0.0017238651594864611 0.0046410252957489514 -0.02353208019201123 -0.020522053603991543
leaf_weight=181.06747782230377 11.294306486845015 63.994130730628967 122.01836040616035 73.110636502504349 43.37626513838768 10.471004664897917 43.270512640476227
leaf_count=489 32 173 333 198 121 30 127
internal_value=-1.95707e-06 0.00213616 -0.000959782 0.0089801 -0.00868346 -0.000837446 -0.0164263
internal_weight=548.603 440.191 303.086 137.105 108.412 53.8473 54.5648
internal_count=1503 1193 822 371 310 151 159
is_linear=0
shrinkage=0.03


Tree=57
num_leaves=8
num_cat=0
split_feature=64 42 85 69 35 46 51
split_gain=10.4605 10.3711 11.7003 10.3265 9.40808 5.06114 4.31985
threshold=-0.4374825009156279 1.1083646180036235 -0.36646777425882265 -0.58975483376361448 -1.0917548428163084 0.64366964591132858 -0.44762236539610428
decision_type=2 2 2 2 2 2 2
left_child=3 2 -2 6 -5 -3 -1
right_child=1 5 -4 4 -6 -7 -8
leaf_value=-0.024444449813774735 0.01353839899901047 -0.019831287396972545 0.001012936465419622 0.022958803013169781 -0.0042528225492309488 0.0038120617707935226 0.0001017127064890355
leaf_weight=30.971638888120651 96.830062329769135 24.550290733575821 218.75546184182167 12.411116272211073 145.38699576258659 12.196503341197966 8.150927782058714
leaf_count=84 264 67 605 34 394 33 22
internal_value=4.59354e-06 0.00309974 0.00485608 -0.00553328 -0.00211258 -0.0119839 -0.0193304
internal_weight=549.253 352.332 315.586 196.921 157.798 36.7468 39.1226
internal_count=1503 969 869 534 428 100 106
is_linear=0
shrinkage=0.03


Tree=58
num_leaves=6
num_cat=0
split_feature=47 68 0 57 0
split_gain=4.58997 16.1086 7.66279 3.30364 5.74402e-05
threshold=-0.036067535794305591 -0.044410006042339613 1.0000000180025095e-35 1.4312556274265169 1.0000000180025095e-35
decision_type=2 2 2 2 2
left_child=1 2 -1 4 -2
right_child=3 -3 -4 -5 -6
leaf_value=0.00011401052251187242 -0.020200005105932846 0.19177521656755886 0.097670151289066684 0.08209036228113166 -0.020543061214509155
leaf_weight=16.055680905468769 8.573569989763195 0.42386878468096512 0.75888662412762542 0.2932833284139641 0.46298801153898317
leaf_count=847 587 22 15 20 12
internal_value=-5.20545e-05 0.0091214 0.00451698 -0.0170015 -0.0202176
internal_weight=26.5683 17.2384 16.8146 9.32984 9.03656
internal_count=1503 884 862 619 599
is_linear=0
shrinkage=0.03


Tree=59
num_leaves=7
num_cat=0
split_feature=61 8 84 85 69 78
split_gain=10.6558 10.0139 8.76345 7.02869 7.47815 4.85549
threshold=0.41482592886516362 1.0000000180025095e-35 -0.74858594173277371 0.6390770441999768 -1.2279931911915309 -1.4660424526167277
decision_type=2 2 2 2 2 2
left_child=1 2 -1 5 -5 -2
right_child=3 -3 -4 4 -6 -7
leaf_value=0.0095028842344797894 0.0030108370954595354 0.028117746469443705 -0.00096466672242520363 0.02537792292059762 -0.0056359817521922156 -0.020828742090493041
leaf_weight=91.679483950138092 9.409973591566084 12.894960880279539 335.04440411925316 8.1838554143905622 48.256478369235992 42.046666294336319
leaf_count=250 27 35 908 22 137 124
internal_value=-2.08227e-06 0.00207132 0.00128423 -0.00845001 -0.00113896 -0.0164692
internal_weight=547.516 439.619 426.724 107.897 56.4403 51.4566
internal_count=1503 1193 1158 310 159 151
is_linear=0
shrinkage=0.03


Tree=60
num_leaves=7
num_cat=0
split_feature=84 32 85 41 76 34
split_gain=10.2155 9.54384 8.5861 7.48641 11.538 3.78875
threshold=-1.3320736305091354 -0.16227619243243499 -0.71932122257120923 0.092361723636048207 0.67157305485832897 -0.28349331148616469
decision_type=2 2 2 2 2 2
left_child=3 5 -3 -1 -5 -2
right_child=1 2 -4 4 -6 -7
leaf_value=-0.032607695332029875 -0.0070390901245778875 0.0092125768837378313 -0.00027665169730825551 0.025611512864446698 -0.02240895732783954 -0.034243240368750351
leaf_weight=14.198412030935286 9.5667338073253649 110.29864180088043 386.65014898777008 7.3513433337211636 11.623107165098189 8.8883331418037397
leaf_count=39 26 302 1060 20 32 24
internal_value=4.19392e-06 0.0010428 0.0018295 -0.0161325 -0.0038042 -0.0201412
internal_weight=548.577 515.404 496.949 33.1729 18.9745 18.4551
internal_count=1503 1412 1362 91 52 50
is_linear=0
shrinkage=0.03


Tree=61
num_leaves=6
num_cat=0
split_feature=38 74 72 0 71
split_gain=4.52527 6.43715 5.47378 4.9855 4.69959
threshold=-1.1015289755707747 -0.76240002128762063 -1.5416589731810566 1.0000000180025095e-35 -0.83657657249333994
decision_type=2 2 2 2 2
left_child=1 -1 -2 -4 -3
right_child=2 4 3 -5 -6
leaf_value=0.11754773707851573 0.06001437936868461 -0.020471095241411184 -0.011594811485734912 0.049366487221006207 0.059649226721179595
leaf_weight=0.64623217470943961 1.1171115357428849 1.613728829659522 20.783203385770321 1.2818443290889252 1.1135762175545119
leaf_count=16 36 66 1338 27 20
internal_value=-4.90337e-05 0.0324147 -0.00477326 -0.00805333 0.0122425
internal_weight=26.5557 3.37354 23.1822 22.065 2.72731
internal_count=1503 102 1401 1365 86
is_linear=0
shrinkage=0.03


Tree=62
num_leaves=8
num_cat=0
split_feature=61 85 40 83 33 78 38
split_gain=10.2151 9.88349 10.8909 8.15611 7.11121 5.35815 3.35912
threshold=0.41482592886516362 0.23704070330126056 0.045347530782855784 0.14142979056596777 0.71697026687777765 -1.5581544597358643 -0.09736683920632587
decision_type=2 2 2 2 2 2 2
left_child=1 2 -1 -3 5 -2 -6
right_child=4 3 -4 -5 6 -7 -8
leaf_value=0.0036156506800006974 0.005635141080820927 0.01913851349956374 -0.0075365921974193898 0.0015143219199089196 0.025498255104612403 -0.014381365009011552 -0.0034418309809397941
leaf_weight=222.7018264234066 14.202714949846266 48.862983286380768 121.97488960623741 45.767752349376678 7.3557395339012146 78.894100874662399 7.0879443287849409
leaf_count=603 40 133 333 124 20 230 20
internal_value=-1.82602e-06 0.00202685 -0.000330927 0.0106146 -0.00828904 -0.0113277 0.0112965
internal_weight=546.848 439.307 344.677 94.6307 107.54 93.0968 14.4437
internal_count=1503 1193 936 257 310 270 40
is_linear=0
shrinkage=0.03


Tree=63
num_leaves=7
num_cat=0
split_feature=84 86 85 79 41 76
split_gain=9.93022 10.209 11.8794 7.35458 7.19057 11.0999
threshold=-1.3320736305091354 -1.3067023716595172 -0.71932122257120923 0.45970447117705432 0.092361723636048207 0.67157305485832897
decision_type=2 2 2 2 2 2
left_child=4 3 -3 -2 -1 -6
right_child=1 2 -4 -5 5 -7
leaf_value=-0.032133474793528426 0.0083369590341080425 0.011532035984948133 -0.00015567419437251763 -0.02037214641322636 0.024908045663817966 -0.022160834199309584
leaf_weight=14.121497571468351 10.76627194881439 99.013788491487503 373.52467480301857 31.608313024044037 7.3773442208766964 11.598101735115049
leaf_count=39 29 272 1026 85 20 32
internal_value=4.50729e-06 0.00102835 0.00229332 -0.0130779 -0.0159242 -0.00386122
internal_weight=548.01 514.913 472.538 42.3746 33.0969 18.9754
internal_count=1503 1412 1298 114 91 52
is_linear=0
shrinkage=0.03


Tree=64
num_leaves=6
num_cat=0
split_feature=57 35 78 57 38
split_gain=4.43054 13.6936 6.56125 2.68652 2.59446
threshold=-0.028077563285557286 -0.89572108110143212 -0.72286706275519019 1.4312556274265169 -1.1648202133548635
decision_type=2 2 2 2 2
left_child=1 -1 -3 4 -2
right_child=3 2 -4 -5 -6
leaf_value=0.1721575421402903 0.027591740968799926 0.042832917526427698 -0.0067904904025678824 0.074852241885644002 -0.017832538233894253
leaf_weight=0.46763613168150087 1.2453019265085448 3.2944361781701437 8.8132550017908233 0.31556515302509147 12.40026389341801
leaf_count=27 45 132 488 20 791
internal_value=-5.18643e-05 0.0128642 0.00671177 -0.0116858 -0.0136871
internal_weight=26.5365 12.5753 12.1077 13.9611 13.6456
internal_count=1503 647 620 856 836
is_linear=0
shrinkage=0.03


Tree=65
num_leaves=8
num_cat=0
split_feature=37 85 85 40 86 84 70
split_gain=9.86814 12.1128 11.3535 11.0151 9.99496 6.83896 0.401054
threshold=0.15066625558313981 -0.71932122257120923 -0.36646777425882265 0.074226323437540973 -0.77686165199357993 -0.74858594173277371 -1.1019837473831091
decision_type=2 2 2 2 2 2 2
left_child=1 3 6 -1 -4 -3 -2
right_child=2 5 4 -5 -6 -7 -8
leaf_value=0.001645360860234366 -0.023615574190764439 0.016878207958846439 0.010348565914921675 -0.017937343362267537 -0.006558216776452892 0.004408520755134559 -0.032910120699598006
leaf_weight=82.822762250900269 7.6044851243495968 52.047896862030029 39.69160458445549 37.582144916057587 151.93696513772011 165.30187603831291 9.2733333706855756
leaf_count=225 22 143 110 105 429 443 26
internal_value=-2.00215e-06 0.00316609 -0.00513392 -0.00446701 -0.00305635 0.00739459 -0.0287224
internal_weight=546.261 337.755 208.506 120.405 191.629 217.35 16.8778
internal_count=1503 916 587 330 539 586 48
is_linear=0
shrinkage=0.03


Tree=66
num_leaves=7
num_cat=0
split_feature=84 86 85 79 41 76
split_gain=9.44941 9.65157 11.2127 7.04149 6.99432 10.7036
threshold=-1.3320736305091354 -1.3067023716595172 -0.71932122257120923 0.45970447117705432 0.092361723636048207 0.67157305485832897
decision_type=2 2 2 2 2 2
left_child=4 3 -3 -2 -1 -6
right_child=1 2 -4 -5 5 -7
leaf_value=-0.03163303548665615 0.0082421812417850897 0.011223112305079911 -0.00014564485980061694 -0.019852758870426063 0.024518340461435941 -0.021732868436939515
leaf_weight=14.018991410732268 10.763303965330122 98.734939426183701 373.18057733774185 31.602242231369019 7.3879122138023403 11.53342369198799
leaf_count=39 29 272 1026 85 20 32
internal_value=3.84598e-06 0.00100156 0.00223295 -0.012715 -0.015573 -0.0036739
internal_weight=547.221 514.281 471.916 42.3655 32.9403 18.9213
internal_count=1503 1412 1298 114 91 52
is_linear=0
shrinkage=0.03


Tree=67
num_leaves=6
num_cat=0
split_feature=47 68 0 78 0
split_gain=4.31476 12.8233 6.19215 3.4164 6.2169e-05
threshold=-0.036067535794305591 -0.044410006042339613 1.0000000180025095e-35 2.0994422102984642 1.0000000180025095e-35
decision_type=2 2 2 2 2
left_child=1 2 -1 4 -2
right_child=3 -3 -4 -5 -6
leaf_value=-5.6485421459505244e-06 -0.020193821173747989 0.15762730648979595 0.082031102029730865 0.085580894669994939 -0.020549255517505253
leaf_weight=16.119097412563868 8.2847487591206974 0.50489778071642177 0.8729127049446096 0.28362283203750926 0.46790546178817827
leaf_count=847 587 22 15 20 12
internal_value=-5.81358e-05 0.00863585 0.00420874 -0.0168923 -0.0202128
internal_weight=26.5332 17.4969 16.992 9.03628 8.75265
internal_count=1503 884 862 619 599
is_linear=0
shrinkage=0.03


Tree=68
num_leaves=8
num_cat=0
split_feature=61 85 82 81 48 37 76
split_gain=9.73016 9.35932 10.7541 8.25109 7.11039 8.69572 7.11701
threshold=0.42363904084128806 0.083561488219417973 -0.46936781695463881 0.11197419325192863 -0.30828499303338036 3.1079619722334697 -1.1206746464078448
decision_type=2 2 2 2 2 2 2
left_child=1 2 -1 -3 6 -6 -2
right_child=4 3 -4 -5 5 -7 -8
leaf_value=0.0036450029107463612 0.0056864283145544158 0.016362747543818314 -0.0078943815809953532 0.0016618872819006841 0.0086877359771848402 -0.022879682431427531 -0.019801625852892565
leaf_weight=180.42030614614487 12.309880942106245 63.577865898609161 121.72517481446266 74.772708803415298 32.837078154087067 10.322428971529005 49.537712126970291
leaf_count=489 35 173 334 203 92 30 147
internal_value=-1.03037e-06 0.0019552 -0.00100386 0.00841755 -0.00820727 0.00113778 -0.0147286
internal_weight=545.503 440.496 302.145 138.351 105.007 43.1595 61.8476
internal_count=1503 1199 823 376 304 122 182
is_linear=0
shrinkage=0.03


Tree=69
num_leaves=8
num_cat=0
split_feature=64 49 58 84 57 51 88
split_gain=9.14781 10.1875 9.86895 11.6785 8.25167 4.52127 0.866984
threshold=-0.4374825009156279 -1.1630164950068795 -0.60748678900123443 -0.69548852126445027 -0.55252961778510723 -0.47613380936865451 -0.24288231539915905
decision_type=2 2 2 2 2 2 2
left_child=2 6 5 -4 -3 -1 -2
right_child=1 4 3 -5 -6 -7 -8
leaf_value=-0.024940535625378676 0.034511945830628901 -0.0098641976423547943 -0.015356179934826705 0.0032174136746862167 0.0037159021789168432 -0.003098575294546926 0.020141576243031215
leaf_weight=28.342827886343002 7.1985641419887543 46.805290669202805 41.587232410907745 113.94705137610435 288.39635300636292 12.201244145631788 7.9529264569282514
leaf_count=77 20 128 115 309 799 33 22
internal_value=3.43854e-06 0.00290729 -0.00518516 -0.00174885 0.00181967 -0.0183675 0.026969
internal_weight=546.431 350.353 196.078 155.534 335.202 40.5441 15.1515
internal_count=1503 969 534 424 927 110 42
is_linear=0
shrinkage=0.03


Tree=70
num_leaves=7
num_cat=0
split_feature=47 40 75 86 92 0
split_gain=4.17017 11.1572 11.8745 6.26561 3.08424 5.77509e-05
threshold=-0.036067535794305591 -0.071637364105278975 0.18429419878634362 -1.2420905754675073 1.0000000180025095e-35 1.0000000180025095e-35
decision_type=2 2 2 2 2 2
left_child=1 3 -3 -1 5 -2
right_child=4 2 -4 -5 -6 -7
leaf_value=0.025753591527771815 -0.020190500809868079 0.02464428053248496 0.1524981148434465 -0.017161771806823958 0.075681803269971593 -0.020536814892057869
leaf_weight=4.4860419090837267 8.1142605403438157 2.6527905678376587 0.86760067287832487 9.6442116787657124 0.31290063261985857 0.45782408863306123
leaf_count=138 585 130 44 572 22 12
internal_value=-6.96737e-05 0.00836817 0.0561539 -0.0035371 -0.016832 -0.020209
internal_weight=26.5356 17.6506 3.52039 14.1303 8.88499 8.57208
internal_count=1503 884 174 710 619 597
is_linear=0
shrinkage=0.03


Tree=71
num_leaves=8
num_cat=0
split_feature=62 85 49 79 85 58 70
split_gain=9.46158 11.5884 13.9475 10.7214 9.98243 5.22182 5.09643
threshold=-0.85088912025491814 -1.1171347118126709 -0.04775677106087136 -1.5460181766243719 -0.71932122257120923 -0.59700584579405225 0.66345885576468377
decision_type=2 2 2 2 2 2 2
left_child=1 2 -1 6 -5 -3 -2
right_child=3 5 -4 4 -6 -7 -8
leaf_value=0.017959905432772101 -0.0016309327217856645 -0.0018955749613818382 -0.021023894439651209 -0.011232491495931351 0.0014666778484238032 0.022079312730412831 -0.027466996533872991
leaf_weight=14.190166056156157 10.331888020038607 10.039913386106489 19.764166355133057 65.910673469305038 359.93877869844437 44.045353412628174 20.517227113246918
leaf_count=38 28 27 53 186 992 122 57
internal_value=-5.51619e-08 0.00900497 -0.00473182 -0.00173599 -0.000498831 0.0176288 -0.0188141
internal_weight=544.738 88.0396 33.9543 456.699 425.849 54.0853 30.8491
internal_count=1503 240 91 1263 1178 149 85
is_linear=0
shrinkage=0.03


Tree=72
num_leaves=8
num_cat=0
split_feature=37 85 85 40 86 34 60
split_gain=8.88628 12.0107 11.7428 10.441 9.86874 7.26452 0.412893
threshold=0.13224127373493785 -0.36646777425882265 -0.71932122257120923 0.074226323437540973 -0.77686165199357993 -0.26340237056554888 0.35041033393854942
decision_type=2 2 2 2 2 2 2
left_child=2 6 3 -1 -3 -4 -2
right_child=1 4 5 -5 -6 -7 -8
leaf_value=-0.0015625544763276842 0.032597031192849284 -0.01063590400136364 -0.011933552608460001 0.01753624240574396 0.0060135643493564612 -0.00052499668910772402 0.023129180766559752
leaf_weight=82.801491647958755 10.259414732456209 40.148798704147339 125.95308378338814 37.396356463432312 158.65855631232262 83.557458311319351 6.9563322365283957
leaf_count=225 29 111 342 105 445 226 20
internal_value=3.44489e-06 0.00473285 -0.00309524 0.00437953 0.00265123 -0.00738357 0.0287714
internal_weight=545.731 216.023 329.708 120.198 198.807 209.511 17.2157
internal_count=1503 605 898 330 556 568 49
is_linear=0
shrinkage=0.03


Tree=73
num_leaves=6
num_cat=0
split_feature=57 35 72 57 38
split_gain=4.14019 12.7282 6.11744 2.54576 2.45059
threshold=-0.028077563285557286 -0.89995265302863892 -1.0979346116009634 1.4312556274265169 -1.1648202133548635
decision_type=2 2 2 2 2
left_child=1 -1 -3 4 -2
right_child=3 2 -4 -5 -6
leaf_value=0.16136316060608608 0.02562153286066747 0.040315335692864426 -0.0069000469714889517 0.070879231668943735 -0.017764930577221446
leaf_weight=0.49493539240211148 1.2975562792271365 3.4182246997952452 8.9001854890957492 0.32929158769548017 12.076583653688427
leaf_count=21 45 104 522 20 791
internal_value=-6.39157e-05 0.0121951 0.00620171 -0.0115266 -0.0135556
internal_weight=26.5168 12.8133 12.3184 13.7034 13.3741
internal_count=1503 647 626 856 836
is_linear=0
shrinkage=0.03


Tree=74
num_leaves=8
num_cat=0
split_feature=61 85 62 81 33 78 38
split_gain=9.27284 8.9977 11.8081 7.61061 6.9265 5.51769 3.1499
threshold=0.42363904084128806 0.030986405555259066 -0.11258476930614826 0.12061565666631562 0.71697026687777765 -1.4528588818208188 -0.09736683920632587
decision_type=2 2 2 2 2 2 2
left_child=1 2 -1 -3 5 -2 -6
right_child=4 3 -4 -5 6 -7 -8
leaf_value=0.0018513481089593386 0.0055738413102919887 0.014388692850510417 -0.013274454300923741 0.0010509101914468095 0.025054606573568904 -0.014413699624468675 -0.0030288371975336842
leaf_weight=227.05779919028282 14.88837146759033 77.403826653957367 58.396152138710022 76.612250536680222 7.3406945466995239 75.289052546024323 7.04346716403961
leaf_count=619 42 211 161 208 20 222 20
internal_value=-3.40447e-07 0.00191012 -0.00124298 0.00775408 -0.00802994 -0.0111137 0.011303
internal_weight=544.032 439.47 285.454 154.016 104.562 90.1774 14.3842
internal_count=1503 1199 780 419 304 264 40
is_linear=0
shrinkage=0.03


Tree=75
num_leaves=7
num_cat=0
split_feature=84 86 85 79 41 76
split_gain=8.53389 8.87385 10.3841 6.79297 6.70347 10.3403
threshold=-1.3320736305091354 -1.3067023716595172 -0.71932122257120923 0.45970447117705432 0.092361723636048207 0.67157305485832897
decision_type=2 2 2 2 2 2
left_child=4 3 -3 -2 -1 -6
right_child=1 2 -4 -5 5 -7
leaf_value=-0.0307375202447033 0.0083871459909268618 0.010812609611212843 -0.00015661187458905851 -0.019230924261962372 0.024447868658037497 -0.021102820947741803
leaf_weight=13.818425774574278 10.746245235204695 98.194469541311264 371.61938723921776 31.539004415273666 7.3850240409374264 11.422812134027479
leaf_count=39 29 272 1026 85 20 32
internal_value=3.47877e-06 0.00095127 0.00213603 -0.0122122 -0.014873 -0.00321703
internal_weight=544.725 512.099 469.814 42.2852 32.6263 18.8078
internal_count=1503 1412 1298 114 91 52
is_linear=0
shrinkage=0.03


Tree=76
num_leaves=6
num_cat=0
split_feature=1 70 32 74 67
split_gain=4.05764 6.30668 4.12702 10.9673 4.32633
threshold=1.0000000180025095e-35 -0.104785061987775 -0.16227619243243499 0.36412570413001938 -1.8042201299328269
decision_type=2 2 2 2 2
left_child=2 -2 3 -1 -4
right_child=1 -3 4 -5 -6
leaf_value=-0.020615894864892327 0.11745348886977254 -0.020249922380317475 0.071181830338823929 0.16018615266998457 -0.0075283546524629206
leaf_weight=0.77175711560994986 0.6469141598790884 0.55711303558200487 0.64584624767304433 0.49601884093135595 23.391291366890066
leaf_count=37 23 35 6 15 1387
internal_value=-7.09083e-05 0.053737 -0.00263113 0.0501231 -0.00541352
internal_weight=26.5089 1.20403 25.3049 1.26778 24.0371
internal_count=1503 58 1445 52 1393
is_linear=0
shrinkage=0.03


Tree=77
num_leaves=8
num_cat=0
split_feature=61 85 40 69 48 37 76
split_gain=8.78694 8.63418 10.0974 9.05803 6.92622 8.39196 6.68145
threshold=0.42363904084128806 0.23704070330126056 0.045347530782855784 0.21893239624462671 -0.30828499303338036 3.1079619722334697 -1.1206746464078448
decision_type=2 2 2 2 2 2 2
left_child=1 2 -1 -3 6 -6 -2
right_child=4 3 -4 -5 5 -7 -8
leaf_value=0.0034379348042712569 0.0054357767182356765 0.002888625065826734 -0.0073307325172820908 0.022084779164200017 0.008820689379393707 -0.02234671602119389 -0.019284597988120225
leaf_weight=221.81900230050087 12.318491339683531 61.312786370515823 121.17535594105721 34.612132728099823 32.695577442646027 10.200867176055906 48.910719931125641
leaf_count=603 35 167 334 95 92 30 147
internal_value=-2.80761e-08 0.00185867 -0.000366492 0.00981508 -0.00783497 0.00140901 -0.0143112
internal_weight=543.045 438.919 342.994 95.9249 104.126 42.8964 61.2292
internal_count=1503 1199 937 262 304 122 182
is_linear=0
shrinkage=0.03


Tree=78
num_leaves=7
num_cat=0
split_feature=84 32 49 41 76 34
split_gain=8.28924 8.62957 6.85143 6.45267 9.96755 3.60479
threshold=-1.3320736305091354 -0.16227619243243499 -2.3203543391266899 0.092361723636048207 0.67157305485832897 -0.28349331148616469
decision_type=2 2 2 2 2 2
left_child=3 5 -3 -1 -5 -2
right_child=1 2 -4 4 -6 -7
leaf_value=-0.03032825686059868 -0.0064709693930046913 -0.015142552858193043 0.0024307742540944127 0.023837442777371851 -0.020875696968100793 -0.033101929146497927
leaf_weight=13.718274742364882 9.512284070253374 20.848405510187149 472.36290615797043 7.402069658041003 11.393886238336561 8.8126684725284559
leaf_count=39 26 56 1306 20 32 24
internal_value=3.27032e-06 0.000936863 0.00168794 -0.0146847 -0.00326713 -0.0192781
internal_weight=544.05 511.536 493.211 32.5142 18.796 18.325
internal_count=1503 1412 1362 91 52 50
is_linear=0
shrinkage=0.03


Tree=79
num_leaves=7
num_cat=0
split_feature=47 40 75 86 78 0
split_gain=3.90483 9.9314 8.6357 5.63366 3.25099 4.86435e-05
threshold=-0.036067535794305591 -0.071637364105278975 0.18429419878634362 -1.2420905754675073 2.0994422102984642 1.0000000180025095e-35
decision_type=2 2 2 2 2 2
left_child=1 3 -3 -1 5 -2
right_child=4 2 -4 -5 -6 -7
leaf_value=0.023008293191571178 -0.020184937708162869 0.023324689102992246 0.12532286699780595 -0.017075563477802286 0.080821764907584276 -0.020510378322161536
leaf_weight=4.7503043813630965 7.8581904480233753 2.7290155924856694 1.0286487862467764 9.4006845578551275 0.29695280268788415 0.43630578741431225
leaf_count=138 587 130 44 572 20 12
internal_value=-8.39456e-05 0.00789233 0.0512464 -0.00361993 -0.0167103 -0.0202021
internal_weight=26.5001 17.9087 3.75766 14.151 8.59145 8.2945
internal_count=1503 884 174 710 619 599
is_linear=0
shrinkage=0.03


Tree=80
num_leaves=8
num_cat=0
split_feature=62 85 49 79 85 58 70
split_gain=8.59843 11.0006 13.3325 10.2702 9.1927 4.95124 4.90957
threshold=-0.85088912025491814 -1.1171347118126709 -0.04775677106087136 -1.5460181766243719 -0.76358582589890545 -0.59700584579405225 0.66345885576468377
decision_type=2 2 2 2 2 2 2
left_child=1 2 -1 6 -5 -3 -2
right_child=3 5 -4 4 -6 -7 -8
leaf_value=0.017432871451922738 -0.00155937603687642 -0.0019410722621141007 -0.020719602343507292 -0.011712287111314286 0.001286572785275387 0.021430724214341283 -0.026969069898498746
leaf_weight=14.163850069046019 10.311427742242815 10.033922374248503 19.721550136804581 56.485433399677277 367.70355755090714 43.629435986280441 20.34948793053627
leaf_count=38 28 27 53 160 1018 122 57
internal_value=8.21101e-07 0.00861038 -0.00477215 -0.00165633 -0.000444368 0.0170607 -0.0184237
internal_weight=542.399 87.5488 33.8854 454.85 424.189 53.6634 30.6609
internal_count=1503 240 91 1263 1178 149 85
is_linear=0
shrinkage=0.03


Tree=81
num_leaves=8
num_cat=0
split_feature=37 85 85 40 86 34 42
split_gain=8.06676 11.5069 10.5743 9.94247 9.22517 6.9421 0.422105
threshold=0.13224127373493785 -0.36646777425882265 -0.71932122257120923 0.074226323437540973 -0.77686165199357993 -0.26340237056554888 0.37917477765588425
decision_type=2 2 2 2 2 2 2
left_child=2 6 3 -1 -3 -4 -2
right_child=1 4 5 -5 -6 -7 -8
leaf_value=-0.0016339373127685459 0.032224172193178302 -0.010374078568015067 -0.011486029658363915 0.017072528349608852 0.0057478584042347245 -0.00031717396746555257 0.022654600156951619
leaf_weight=82.585938632488251 9.8506718277931231 40.045225888490677 125.47555875778198 37.040214419364929 157.89004099369049 83.361227512359619 7.1662690937519065
leaf_count=225 28 111 342 105 445 226 21
internal_value=3.03607e-06 0.00452136 -0.00295384 0.0041582 0.00248615 -0.00702777 0.0281942
internal_weight=543.415 214.952 328.463 119.626 197.935 208.837 17.0169
internal_count=1503 605 898 330 556 568 49
is_linear=0
shrinkage=0.03


Tree=82
num_leaves=6
num_cat=0
split_feature=57 35 72 57 38
split_gain=3.83941 12.9353 5.41076 2.39109 2.34301
threshold=-0.028077563285557286 -0.9070233770503392 -1.0979346116009634 1.4312556274265169 -1.1648202133548635
decision_type=2 2 2 2 2
left_child=1 -1 -3 4 -2
right_child=3 2 -4 -5 -6
leaf_value=0.16255183925932773 0.024222693934504748 0.036447538686141201 -0.006963594733826327 0.066517418044166568 -0.01769064987756588
leaf_weight=0.49105016700923343 1.3370467508211721 3.636276811361312 8.9297433309257048 0.34580040350556451 11.741707410663363
leaf_count=15 45 104 528 20 791
internal_value=-8.15085e-05 0.0115012 0.00559845 -0.0113471 -0.0134058
internal_weight=26.4816 13.0571 12.566 13.4246 13.0788
internal_count=1503 647 632 856 836
is_linear=0
shrinkage=0.03


Tree=83
num_leaves=8
num_cat=0
split_feature=61 85 62 81 33 78 74
split_gain=8.44298 8.33686 11.0931 7.15284 6.67098 5.20745 1.18978
threshold=0.42363904084128806 0.030986405555259066 -0.11258476930614826 0.12061565666631562 0.71697026687777765 -1.4528588818208188 -0.24993335460361402
decision_type=2 2 2 2 2 2 2
left_child=1 2 -1 -3 5 -2 -6
right_child=4 3 -4 -5 6 -7 -8
leaf_value=0.0017837023461075173 0.0054689223687384254 0.013902683413213752 -0.012910318134751918 0.00095905664739608023 0.0026518705504221312 -0.013976696703094845 0.019943832962495141
leaf_weight=226.23544451594353 14.867338895797728 77.106015980243683 58.118510335683823 76.593900948762894 7.1520889401435852 74.513931691646576 7.1724342405796033
leaf_count=619 42 211 161 208 20 222 20
internal_value=9.38789e-07 0.00182317 -0.00121958 0.00745243 -0.00769618 -0.0107422 0.0113101
internal_weight=541.76 438.054 284.354 153.7 103.706 89.3813 14.3245
internal_count=1503 1199 780 419 304 264 40
is_linear=0
shrinkage=0.03


Tree=84
num_leaves=8
num_cat=0
split_feature=64 49 58 84 42 39 88
split_gain=7.73386 10.0549 9.21982 10.2446 7.96413 4.45802 0.82683
threshold=-0.4374825009156279 -1.1630164950068795 -0.60748678900123443 -0.69548852126445027 1.1083646180036235 -0.97361678718718792 -0.24288231539915905
decision_type=2 2 2 2 2 2 2
left_child=2 6 5 -4 -3 -1 -2
right_child=1 4 3 -5 -6 -7 -8
leaf_value=-0.002900206227421067 0.034081261853473134 0.0032240543473831189 -0.014312506263643604 0.0031937030567435573 -0.011667388899223865 -0.024341221398110912 0.019994951225975072
leaf_weight=12.770273476839064 7.1345748603343964 296.29548597335815 40.936513543128967 113.49728518724442 36.280484229326248 27.569134563207626 7.9061444103717786
leaf_count=35 20 827 115 309 100 75 22
internal_value=3.10146e-06 0.0026846 -0.00478264 -0.00144675 0.00159956 -0.0175536 0.0266768
internal_weight=542.39 347.617 194.773 154.434 332.576 40.3394 15.0407
internal_count=1503 969 534 424 927 110 42
is_linear=0
shrinkage=0.03


Tree=85
num_leaves=7
num_cat=0
split_feature=47 40 58 40 19 0
split_gain=3.69713 9.04621 7.22812 4.73451 3.07731 4.1924e-05
threshold=-0.036067535794305591 -0.071637364105278975 -0.080893936970970984 -1.2817206594673689 1.0000000180025095e-35 1.0000000180025095e-35
decision_type=2 2 2 2 2 2
left_child=1 3 -3 -1 5 -2
right_child=4 2 -4 -5 -6 -7
leaf_value=0.030745947528075291 -0.020181230920327288 0.016044706258177527 0.09971231500028159 -0.012414779833035329 0.075710769230713834 -0.020489394441308026
leaf_weight=2.8680620379745987 7.6186059089377487 2.4604338724166159 1.4933085516095186 11.297888245433567 0.31281241774559099 0.41918372735381115
leaf_count=65 584 123 51 645 23 12
internal_value=-8.91458e-05 0.00752213 0.0476455 -0.00367639 -0.0166046 -0.0201973
internal_weight=26.4703 18.1197 3.95374 14.166 8.3506 8.03779
internal_count=1503 884 174 710 619 596
is_linear=0
shrinkage=0.03


Tree=86
num_leaves=8
num_cat=0
split_feature=62 85 49 79 85 58 70
split_gain=8.00745 10.4867 12.7781 9.89431 8.67522 4.73919 4.72833
threshold=-0.85088912025491814 -1.1171347118126709 -0.04775677106087136 -1.5460181766243719 -0.76358582589890545 -0.59700584579405225 0.66345885576468377
decision_type=2 2 2 2 2 2 2
left_child=1 2 -1 6 -5 -3 -2
right_child=3 5 -4 4 -6 -7 -8
leaf_value=0.017019675178470927 -0.0015499283889363633 -0.0019616407999731803 -0.0203554867041605 -0.011385020854620637 0.0012721324214515803 0.02092332692093115 -0.026527321978490545
leaf_weight=14.145233869552611 10.295153200626375 10.031136393547056 19.695903599262238 56.202014684677124 366.87801495194435 43.293957740068436 20.214094996452332
leaf_count=38 28 27 53 160 1018 122 57
internal_value=1.25284e-06 0.00832896 -0.00473307 -0.00159908 -0.000409246 0.0166184 -0.0180989
internal_weight=540.756 87.1662 33.8411 453.589 423.08 53.3251 30.5092
internal_count=1503 240 91 1263 1178 149 85
is_linear=0
shrinkage=0.03


Tree=87
num_leaves=7
num_cat=0
split_feature=61 85 82 69 42 67
split_gain=7.4946 8.52579 10.9407 6.7695 6.77019 6.03768
threshold=0.41482592886516362 0.030986405555259066 -0.46936781695463881 -1.3367155476857557 1.1696035618490166 -0.86934716363165176
decision_type=2 2 2 2 2 2
left_child=1 2 -1 -2 -5 -3
right_child=3 5 -4 4 -6 -7
leaf_value=-0.0032754635181122646 -0.016997870748014333 -0.030336777867314962 0.0088720509559525023 0.012849125301174389 -0.009255870077739977 -0.0059198882719251047
leaf_weight=176.17860066890717 9.5276784598827344 9.7408867776393873 107.41153010725975 82.350932419300079 14.69506400823593 141.73508551716805
leaf_count=482 26 29 297 244 40 385
internal_value=2.77417e-06 -0.0017438 0.00132548 0.00713283 0.00950191 -0.00749005
internal_weight=541.64 435.066 283.59 106.574 97.046 151.476
internal_count=1503 1193 779 310 284 414
is_linear=0
shrinkage=0.03


Tree=88
num_leaves=6
num_cat=0
split_feature=57 35 78 78 79
split_gain=3.66433 13.0152 5.54669 2.35141 2.25236
threshold=-0.028077563285557286 -0.92398276666793522 -0.72286706275519019 2.0994422102984642 -1.88595810621602
decision_type=2 2 2 2 2
left_child=1 -1 -3 4 -2
right_child=3 2 -4 -5 -6
leaf_value=0.16301605630134816 0.059305044550001892 0.036585051508225462 -0.0072735327775549103 0.065517778207679941 -0.015477187481916189
leaf_weight=0.48882763646542926 0.3732924684882154 3.6344707999378434 9.0754709877073783 0.34980898629874069 12.514197908341881
leaf_count=10 19 132 505 21 816
internal_value=-7.50654e-05 0.0111104 0.00526805 -0.011228 -0.0133111
internal_weight=26.4361 13.1988 12.7099 13.2373 12.8875
internal_count=1503 647 637 856 835
is_linear=0
shrinkage=0.03


Tree=89
num_leaves=7
num_cat=0
split_feature=61 8 38 48 37 76
split_gain=7.96498 7.14629 6.75047 6.60937 8.01143 6.28128
threshold=0.42363904084128806 1.0000000180025095e-35 0.71521952860652604 -0.30828499303338036 3.1079619722334697 -1.1206746464078448
decision_type=2 2 2 2 2 2
left_child=1 2 -1 5 -5 -2
right_child=3 -3 -4 4 -6 -7
leaf_value=-0.00026949190303479512 0.0052560732947458293 0.023343809211743175 0.01165058661470293 0.0087923719394546167 -0.021820640731835393 -0.018749551829958581
leaf_weight=375.18572098016739 12.314512759447096 13.396824747323988 48.257801324129105 32.540881901979446 10.076147824525831 48.232767134904861
leaf_count=1028 35 37 134 92 30 147
internal_value=8.92309e-07 0.00177148 0.00108898 -0.00749652 0.00155439 -0.0138671
internal_weight=540.005 436.84 423.444 103.164 42.617 60.5473
internal_count=1503 1199 1162 304 122 182
is_linear=0
shrinkage=0.03


Tree=90
num_leaves=8
num_cat=0
split_feature=64 49 58 84 48 79 88
split_gain=7.26934 9.71655 8.94689 9.61099 7.32223 4.32783 0.804221
threshold=-0.4374825009156279 -1.1630164950068795 -0.60748678900123443 -0.69548852126445027 -1.234929417070697 0.4545274624527138 -0.24288231539915905
decision_type=2 2 2 2 2 2 2
left_child=2 6 5 -4 -3 -1 -2
right_child=1 4 3 -5 -6 -7 -8
leaf_value=-0.0061238389371027196 0.03361458313607886 0.023097785517967893 -0.013862444860014417 0.0031364513877307505 0.00061905962208548971 -0.025945571418081841 0.019672689449969361
leaf_weight=17.682642132043839 7.0758452415466309 13.599998116493223 40.671985596418381 113.38456144928932 317.83628499507904 22.563474416732788 7.8601278364658338
leaf_count=48 20 38 115 309 889 62 22
internal_value=2.72809e-06 0.00260809 -0.00464171 -0.00135137 0.00154144 -0.0172366 0.0262776
internal_weight=540.675 346.372 194.303 154.057 331.436 40.2461 14.936
internal_count=1503 969 534 424 927 110 42
is_linear=0
shrinkage=0.03


Tree=91
num_leaves=7
num_cat=0
split_feature=86 40 58 86 19 0
split_gain=3.55316 8.3401 7.44009 5.13798 2.99478 3.48658e-05
threshold=0.086637208672532925 -0.071637364105278975 -0.080893936970970984 -1.2420905754675073 1.0000000180025095e-35 1.0000000180025095e-35
decision_type=2 2 2 2 2 2
left_child=1 3 -3 -1 5 -2
right_child=4 2 -4 -5 -6 -7
leaf_value=0.020888780702914733 -0.020188068215963043 0.014058353999041626 0.097660792424283063 -0.016987222990420617 0.0733227907750921 -0.020473521706633125
leaf_weight=4.9730349797755506 7.4352597435936314 2.6005140459164977 1.51685016602278 9.1615099506452662 0.32074274867773045 0.40613318234682072
leaf_count=138 576 131 48 576 22 12
internal_value=-7.39377e-05 0.00728405 0.0448578 -0.0036611 -0.0165276 -0.0202029
internal_weight=26.414 18.2519 4.11736 14.1345 8.16214 7.84139
internal_count=1503 893 179 714 610 588
is_linear=0
shrinkage=0.03


Tree=92
num_leaves=8
num_cat=0
split_feature=61 85 40 69 67 78 42
split_gain=7.40305 7.68127 9.60007 8.70088 6.36925 12.0427 7.20299
threshold=0.42363904084128806 0.23704070330126056 0.045347530782855784 0.21893239624462671 1.393826609534772 -1.2187473290557413 1.0429644941197345
decision_type=2 2 2 2 2 2 2
left_child=1 2 -1 -3 6 -6 -2
right_child=4 3 -4 -5 5 -7 -8
leaf_value=0.0033119026578591194 -0.020387326591137459 0.0024361090741545021 -0.0072236044617425502 0.021308681886670729 0.034298766153177208 -0.0060243026643197898 0.0045825664205725062
leaf_weight=220.91352233290672 41.581896036863327 61.09366449713707 120.19075894355774 34.345983386039734 8.0386745333671552 39.035121440887451 13.863947123289107
leaf_count=603 128 167 334 95 22 115 39
internal_value=8.86796e-07 0.0017046 -0.000400366 0.00922781 -0.00725377 0.000861567 -0.0141437
internal_weight=539.064 436.544 341.104 95.4396 102.52 47.0738 55.4458
internal_count=1503 1199 937 262 304 137 167
is_linear=0
shrinkage=0.03


Tree=93
num_leaves=7
num_cat=0
split_feature=84 32 79 41 76 71
split_gain=7.04997 7.92115 6.41956 6.1919 9.54871 3.49882
threshold=-1.3320736305091354 -0.16227619243243499 -1.5460181766243719 0.092361723636048207 0.67157305485832897 -0.13357596609239172
decision_type=2 2 2 2 2 2
left_child=3 5 -3 -1 -5 -2
right_child=1 2 -4 4 -6 -7
leaf_value=-0.029219279447278104 -0.029922736657767766 0.01340815894845636 0.00058725147200576336 0.024026216710987737 -0.019903016980919952 -0.0033149859970490261
leaf_weight=13.383681684732439 10.43224009871483 38.115297675132751 451.61077111959457 7.3855327367782619 11.216577500104902 7.7536217868328086
leaf_count=39 29 107 1255 20 32 21
internal_value=2.85588e-06 0.000863143 0.0015851 -0.0136579 -0.00246194 -0.0185784
internal_weight=539.898 507.912 489.726 31.9858 18.6021 18.1859
internal_count=1503 1412 1362 91 52 50
is_linear=0
shrinkage=0.03


Tree=94
num_leaves=6
num_cat=0
split_feature=57 35 78 57 38
split_gain=3.48037 9.90374 5.10635 2.25619 2.22173
threshold=-0.028077563285557286 -0.92398276666793522 -0.72286706275519019 1.4312556274265169 -1.1648202133548635
decision_type=2 2 2 2 2
left_child=1 -1 -3 4 -2
right_child=3 2 -4 -5 -6
leaf_value=0.13068257952614035 0.022720306577472409 0.034439721602917105 -0.0071590737868809859 0.062864426841655829 -0.017592409574509426
leaf_weight=0.59168173931538959 1.3808058230206359 3.7694797040894619 8.9888262236490863 0.3609352074563511 11.296305345371362
leaf_count=10 45 132 505 20 791
internal_value=-7.11025e-05 0.0106959 0.00513141 -0.0110958 -0.0132015
internal_weight=26.388 13.35 12.7583 13.038 12.6771
internal_count=1503 647 637 856 836
is_linear=0
shrinkage=0.03


Tree=95
num_leaves=7
num_cat=0
split_feature=61 8 40 33 72 38
split_gain=7.08728 8.57016 6.61435 6.25835 4.6098 2.89039
threshold=0.41482592886516362 1.0000000180025095e-35 0.77374803544488857 0.71697026687777765 -1.4265043344111672 -0.09736683920632587
decision_type=2 2 2 2 2 2
left_child=1 2 -1 4 -2 -5
right_child=3 -3 -4 5 -6 -7
leaf_value=-0.00023503156416973214 0.0126707756570591 0.026051965224960935 0.012798574495290751 0.02465887912244814 -0.011989886753591004 -0.0023879357271197497
leaf_weight=382.91739597916603 7.4369382858276358 12.615122497081755 38.572946310043335 7.2862498164176941 82.512141913175583 6.9460438787937147
leaf_count=1050 21 35 108 20 249 20
internal_value=6.21177e-07 0.00168699 0.000957747 -0.00702616 -0.00995096 0.0114587
internal_weight=538.287 434.105 421.49 104.181 89.9491 14.2323
internal_count=1503 1193 1158 310 270 40
is_linear=0
shrinkage=0.03


Tree=96
num_leaves=8
num_cat=0
split_feature=64 49 58 84 42 39 88
split_gain=6.79944 9.2739 8.61009 9.10623 7.12608 4.29895 0.796861
threshold=-0.4374825009156279 -1.1630164950068795 -0.60748678900123443 -0.69548852126445027 1.1083646180036235 -0.97361678718718792 -0.24288231539915905
decision_type=2 2 2 2 2 2 2
left_child=2 6 5 -4 -3 -1 -2
right_child=1 4 3 -5 -6 -7 -8
leaf_value=-0.0024570790224092208 0.03308760898554574 0.0030283185642014506 -0.013487751910661818 0.003097202533466222 -0.011090952750341228 -0.023554873674462136 0.019153210235985801
leaf_weight=12.727671295404432 7.0102068483829498 294.4743923842907 40.423176914453506 113.33151695132256 36.117091715335846 27.414972990751266 7.8069999516010267
leaf_count=35 20 827 115 309 100 75 22
internal_value=2.65743e-06 0.00252648 -0.00449329 -0.0012631 0.00148579 -0.0168656 0.0257457
internal_weight=539.306 345.409 193.897 153.755 330.591 40.1426 14.8172
internal_count=1503 969 534 424 927 110 42
is_linear=0
shrinkage=0.03


Tree=97
num_leaves=8
num_cat=0
split_feature=42 42 72 76 33 47 64
split_gain=3.40547 16.3948 11.5131 4.27778 7.27617e-06 4.91573e-06 1.59044e-06
threshold=0.2753606862696808 0.21047310393392366 0.37517237903479711 -0.72952516070390006 -0.17053152427487575 -0.024157725790953214 0.15398675139824877
decision_type=2 2 2 2 2 2 2
left_child=1 3 -3 -1 6 -6 -2
right_child=4 2 -4 -5 5 -7 -8
leaf_value=0.01394142289347669 -0.020323110522496489 0.04184083067050888 0.21957927114422826 -0.014635980112851495 -0.020239737130787531 -0.020168544358421921 -0.020236628912453421
leaf_weight=8.598635442554956 0.41296085063368071 0.95795709360390791 0.49877411313354969 10.435824098065497 1.116771883331239 3.9970704084262243 0.35670147184282541
leaf_count=340 21 41 19 660 69 330 23
internal_value=-7.91846e-05 0.00569713 0.102697 -0.00172641 -0.020197 -0.0201841 -0.020283
internal_weight=26.3747 20.4912 1.45673 19.0345 5.8835 5.11384 0.769662
internal_count=1503 1060 60 1000 443 399 44
is_linear=0
shrinkage=0.03


Tree=98
num_leaves=8
num_cat=0
split_feature=37 85 85 62 86 77 60
split_gain=6.8696 10.039 9.03015 10.3593 8.07665 7.30464 0.412839
threshold=0.15066625558313981 -0.36646777425882265 -0.76358582589890545 -0.80872377577693177 -0.77686165199357993 0.055428899754151481 0.35041033393854942
decision_type=2 2 2 2 2 2 2
left_child=2 6 3 -1 -3 -4 -2
right_child=1 4 5 -5 -6 -7 -8
leaf_value=0.0031478749120176638 -0.030981922628233224 0.0097471286629320537 0.011370963940281401 -0.015905760388738276 -0.0055664200119066023 0.00060165145425631814 -0.021253968087227949
leaf_weight=63.629385352134705 9.5448938906192797 39.14716175198555 114.54171571135521 43.060816407203674 148.89013338088989 112.22051858901978 6.6699349582195273
leaf_count=172 28 110 312 124 429 308 20
internal_value=1.21876e-06 -0.00433138 0.0026551 -0.00454229 -0.00237832 0.00604143 -0.0269803
internal_weight=537.705 204.252 333.452 106.69 188.037 226.762 16.2148
internal_count=1503 587 916 296 539 620 48
is_linear=0
shrinkage=0.03


Tree=99
num_leaves=7
num_cat=0
split_feature=86 35 54 79 49 78
split_gain=6.61446 9.6868 10.1039 6.45335 4.73812 4.70428
threshold=-1.3067023716595172 -1.1767102514253522 0.56954375311781102 0.45970447117705432 -0.90676527977245469 0.49470659002835432
decision_type=2 2 2 2 2 2
left_child=3 5 -3 -1 -5 -2
right_child=1 2 -4 4 -6 -7
leaf_value=0.0086913228084652024 0.02865824273661767 -0.002186310712916834 0.0090393462977199392 -0.0015902538158289801 -0.026449025604915938 0.0036421128796453074
leaf_weight=10.69541212916374 16.148488044738773 379.43139830231667 89.109054386615753 10.266249209642412 21.049316138029099 11.643464416265486
leaf_count=29 45 1048 263 28 57 33
internal_value=1.90252e-06 0.000969364 -5.13666e-05 -0.011428 -0.0182995 0.0181777
internal_weight=538.343 496.332 468.54 42.011 31.3156 27.792
internal_count=1503 1389 1311 114 85 78
is_linear=0
shrinkage=0.03


Tree=100
num_leaves=7
num_cat=0
split_feature=86 40 75 86 78 47
split_gain=3.34582 7.31998 5.84432 4.80808 2.95031 4.51246e-05
threshold=0.086637208672532925 -0.071637364105278975 0.18429419878634362 -1.2420905754675073 2.0994422102984642 -0.027963112547090153
decision_type=2 2 2 2 2 2
left_child=1 3 -3 -1 5 -2
right_child=4 2 -4 -5 -6 -7
leaf_value=0.01954423742993355 -0.020601579031399021 0.018251110472948792 0.094063326377910095 -0.01689872675323633 0.072153109553210401 -0.020186133330036517
leaf_weight=5.1289953645318791 0.24311129096895445 3.074671372771264 1.3029912021011112 8.9332086434587819 0.32467784360051144 7.3259505443274966
leaf_count=138 8 137 42 576 20 582
internal_value=-5.70476e-05 0.00693944 0.0408163 -0.00360666 -0.0164009 -0.0201995
internal_weight=26.3336 18.4399 4.37766 14.0622 7.89374 7.56906
internal_count=1503 893 179 714 610 590
is_linear=0
shrinkage=0.03


Tree=101
num_leaves=8
num_cat=0
split_feature=61 85 82 81 48 37 76
split_gain=6.63423 7.54823 8.58206 6.55852 6.05722 7.55705 5.96871
threshold=0.42363904084128806 0.083561488219417973 -0.46936781695463881 0.11197419325192863 -0.30828499303338036 3.1079619722334697 -1.1206746464078448
decision_type=2 2 2 2 2 2 2
left_child=1 2 -1 -3 6 -6 -2
right_child=4 3 -4 -5 5 -7 -8
